<?xml version="1.0"?>
<opencv_storage>
<stage6>
  <maxWeakCount>49</maxWeakCount>
  <stageThreshold>-1.1621426343917847e+00</stageThreshold>
  <weakClassifiers>
    <_>
      <internalNodes>
        0 -1 4930 752299455 728598687 -1719685697 1852777265 970537735
        -878049043 717602623 -17842241</internalNodes>
      <leafValues>
        -5.9241074323654175e-01 -1.3730159401893616e-01</leafValues></_>
    <_>
      <internalNodes>
        0 -1 820 -275995222 -2105398176 -560734122 -179512070 54575039
        622798827 319354215 -537989242</internalNodes>
      <leafValues>
        -2.9328873753547668e-01 1.9434386491775513e-01</leafValues></_>
    <_>
      <internalNodes>
        0 -1 3561 -303073957 -1729187426 1415720536 -1807560894
        -1200017073 -160754978 -317146128 -129174224</internalNodes>
      <leafValues>
        -2.9859355092048645e-01 1.8547803163528442e-01</leafValues></_>
    <_>
      <internalNodes>
        0 -1 4566 1428215248 -15671306 -1074298883 -4448451 1466445308
        -72196097 -1069396 683364055</internalNodes>
      <leafValues>
        -2.2058813273906708e-01 2.3643790185451508e-01</leafValues></_>
    <_>
      <internalNodes>
        0 -1 9476 -804982656 -375081440 1568174256 1494009345 250926728
        -861804720 -1474972533 352522411</internalNodes>
      <leafValues>
        -1.6336631774902344e-01 2.6525092124938965e-01</leafValues></_>
    <_>
      <internalNodes>
        0 -1 4768 -620700520 -778977104 1743419411 1495352517
        -1912814850 -1619882148 178962347 -1618868693</internalNodes>
      <leafValues>
        -1.4206084609031677e-01 2.9720699787139893e-01</leafValues></_>
    <_>
      <internalNodes>
        0 -1 7569 -1732507644 1486125868 2092970303 1425002881
        -1343683140 -91432770 150019336 1576926507</internalNodes>
      <leafValues>
        -3.0151084065437317e-01 1.3904276490211487e-01</leafValues></_>
    <_>
      <internalNodes>
        0 -1 6535 -186724112 1549749271 -1081558534 1888247194
        -1624627936 812857979 144572763 -121640712</internalNodes>
      <leafValues>
        -2.4556094408035278e-01 1.6747480630874634e-01</leafValues></_>
    <_>
      <internalNodes>
        0 -1 5850 -107422276 -1317218240 431894013 -36102968 -745100872
        -70467841 -555951362 -1725823544</internalNodes>
      <leafValues>
        -1.4651319384574890e-01 2.8276476263999939e-01</leafValues></_>
    <_>
      <internalNodes>
        0 -1 5494 -244068160 -949498240 -165409496 1124566082
        -1465741242 1262679778 1716053042 1111935510</internalNodes>
      <leafValues>
        -2.5908577442169189e-01 1.6326819360256195e-01</leafValues></_>
    <_>
      <internalNodes>
        0 -1 11 -106188321 -212097382 -537200722 -67282266 99564926
        1337982910 334361654 571336894</internalNodes>
      <leafValues>
        -1.5773408114910126e-01 2.6790314912796021e-01</leafValues></_>
    <_>
      <internalNodes>
        0 -1 5171 -1833719920 1016976394 -982866800 -980496884 190820061
        1540858875 -1957057848 1151667212</internalNodes>
      <leafValues>
        -2.8141480684280396e-01 1.5202209353446960e-01</leafValues></_>
    <_>
      <internalNodes>
        0 -1 4917 -1461181664 -1393007588 -290398732 -459374446
        -843507440 1230610585 -358816444 -765161724</internalNodes>
      <leafValues>
        -4.9821871519088745e-01 8.0814398825168610e-02</leafValues></_>
    <_>
      <internalNodes>
        0 -1 4979 673185792 738386091 540786795 -387505342 240374320
        856203915 -872725838 -8553934</internalNodes>
      <leafValues>
        -3.8443350791931152e-01 1.0068346560001373e-01</leafValues></_>
    <_>
      <internalNodes>
        0 -1 8685 -659762048 457289856 -239743351 1216560405 1406196620
        2056411146 -536753016 15136598</internalNodes>
      <leafValues>
        -2.1002952754497528e-01 1.9849292933940887e-01</leafValues></_>
    <_>
      <internalNodes>
        0 -1 4168 -1679762232 -743055147 -899720186 1427186716 99748507
        -1745985836 -2120717669 -1952251197</internalNodes>
      <leafValues>
        -1.5548753738403320e-01 2.6348820328712463e-01</leafValues></_>
    <_>
      <internalNodes>
        0 -1 8769 -892346609 -1805648726 -307057883 -961497236
        -1314955265 1381686652 -984617507 -112859068</internalNodes>
      <leafValues>
        -1.9164085388183594e-01 2.1623946726322174e-01</leafValues></_>
    <_>
      <internalNodes>
        0 -1 792 493477733 1225367428 1936287138 -310512147 464253691
        1469944075 -1851543375 1930383537</internalNodes>
      <leafValues>
        -2.1756580471992493e-01 1.8959072232246399e-01</leafValues></_>
    <_>
      <internalNodes>
        0 -1 9908 464583647 -875574323 -1789108310 -299212607 -909980465
        1349226891 -1548007823 1602570512</internalNodes>
      <leafValues>
        -2.3822408914566040e-01 1.7520886659622192e-01</leafValues></_>
    <_>
      <internalNodes>
        0 -1 9541 789181627 2011133751 -2011699813 572005460 1146103436
        1433384487 -1932350308 1928451010</internalNodes>
      <leafValues>
        -2.1184931695461273e-01 1.9515168666839600e-01</leafValues></_>
    <_>
      <internalNodes>
        0 -1 9034 -1120657700 1935359144 -261073095 -1659553915
        -1254863192 -1448682765 -1417000741 -1374879733</internalNodes>
      <leafValues>
        -1.7427882552146912e-01 2.3790895938873291e-01</leafValues></_>
    <_>
      <internalNodes>
        0 -1 4894 -33566654 -443654425 1674506304 1086640390 1741194058
        1132761264 547682694 1175438542</internalNodes>
      <leafValues>
        -2.4671825766563416e-01 1.6339534521102905e-01</leafValues></_>
    <_>
      <internalNodes>
        0 -1 4828 -619390764 -142739308 -1258003 2039872241 -1073865480
        -1747012123 -1570067721 -1147467605</internalNodes>
      <leafValues>
        -1.3080178201198578e-01 3.1555914878845215e-01</leafValues></_>
    <_>
      <internalNodes>
        0 -1 117 -1909520478 180963904 -1407185116 749887280 -1033744449
        -452173655 -1496679478 1962637573</internalNodes>
      <leafValues>
        -3.6087557673454285e-01 1.1339035630226135e-01</leafValues></_>
    <_>
      <internalNodes>
        0 -1 5851 -1853828056 1053415736 -1688847943 -1784643379
        -348854438 729326490 864566266 1090399744</internalNodes>
      <leafValues>
        -2.9942470788955688e-01 1.3242085278034210e-01</leafValues></_>
    <_>
      <internalNodes>
        0 -1 6165 -382197612 2090620849 -568603508 -968086616 2126023504
        2130243995 1601775424 1956775168</internalNodes>
      <leafValues>
        -4.4595262408256531e-01 9.0210720896720886e-02</leafValues></_>
    <_>
      <internalNodes>
        0 -1 5477 -172761601 -1472824112 1543300093 -1614123202
        1599922144 2011492314 1532283072 -69504026</internalNodes>
      <leafValues>
        -1.7212048172950745e-01 2.3745618760585785e-01</leafValues></_>
    <_>
      <internalNodes>
        0 -1 1866 -287792909 -1018771070 -1849219313 -149881134
        -1064585258 5884771 -217110956 1895169963</internalNodes>
      <leafValues>
        -2.1142594516277313e-01 1.9479027390480042e-01</leafValues></_>
    <_>
      <internalNodes>
        0 -1 9515 1881244706 120932022 -2139066005 1333805150 -759928182
        -1183891441 1204574374 -174785494</internalNodes>
      <leafValues>
        -2.0546701550483704e-01 2.0475123822689056e-01</leafValues></_>
    <_>
      <internalNodes>
        0 -1 6729 -794817296 2127376008 -581074476 -809826016 1601827904
        -656801075 -356248385 2074345635</internalNodes>
      <leafValues>
        -2.6838418841362000e-01 1.5401928126811981e-01</leafValues></_>
    <_>
      <internalNodes>
        0 -1 9923 288419837 -110365268 2013183719 -2089468168
        -1117485203 -537495555 -1327704098 1606238392</internalNodes>
      <leafValues>
        -1.8068516254425049e-01 2.3119997978210449e-01</leafValues></_>
    <_>
      <internalNodes>
        0 -1 4375 -1175889732 -1174120267 -1219984265 59746352
        -1275680993 948695833 -395541861 329320124</internalNodes>
      <leafValues>
        -2.3562832176685333e-01 1.7549033463001251e-01</leafValues></_>
    <_>
      <internalNodes>
        0 -1 9464 -608644916 -1174684507 -1747149551 -1617572611
        -1214871894 -2073117008 640597387 -1751447893</internalNodes>
      <leafValues>
        -1.3099621236324310e-01 3.3402177691459656e-01</leafValues></_>
    <_>
      <internalNodes>
        0 -1 4805 -239403013 -611089935 -960208370 -1601676572
        -633120448 1862484182 -792669632 -556630541</internalNodes>
      <leafValues>
        -2.4024653434753418e-01 1.8834532797336578e-01</leafValues></_>
    <_>
      <internalNodes>
        0 -1 2216 -1912067 -549085968 2083018746 1362741451 -12199256
        -1670030202 708875275 2069564943</internalNodes>
      <leafValues>
        -1.3573950529098511e-01 3.2206752896308899e-01</leafValues></_>
    <_>
      <internalNodes>
        0 -1 3941 -1385137103 1825564200 -384662791 -1298597864
        -1458781273 -2158489 -1369798519 1880278340</internalNodes>
      <leafValues>
        -2.4937810003757477e-01 1.7533527314662933e-01</leafValues></_>
    <_>
      <internalNodes>
        0 -1 8606 -1704081346 937422679 -1157698124 582217699
        -1074848836 154005357 -114771204 -338436149</internalNodes>
      <leafValues>
        -1.7688952386379242e-01 2.5446254014968872e-01</leafValues></_>
    <_>
      <internalNodes>
        0 -1 63 1722008846 296420713 651363072 -1751966382 1627865599
        -1809246006 -1920013121 2021057788</internalNodes>
      <leafValues>
        -2.8573265671730042e-01 1.5342448651790619e-01</leafValues></_>
    <_>
      <internalNodes>
        0 -1 8192 -203360533 -10868620 -1426591892 2066083533 2118054846
        -629342503 -1288260965 -13909829</internalNodes>
      <leafValues>
        -1.0300925374031067e-01 4.3124136328697205e-01</leafValues></_>
    <_>
      <internalNodes>
        0 -1 4833 -1712841 -1319814146 -1342263421 1835236265 -596353053
        -13141698 2129923376 -312280072</internalNodes>
      <leafValues>
        -1.7170217633247375e-01 2.5243496894836426e-01</leafValues></_>
    <_>
      <internalNodes>
        0 -1 8464 -602351416 1415556760 -319116793 -144732525 -669591669
        -1287774883 -1159156325 -1953821205</internalNodes>
      <leafValues>
        -1.3913838565349579e-01 3.2003891468048096e-01</leafValues></_>
    <_>
      <internalNodes>
        0 -1 9999 -929539634 -311798331 1879295176 1116168580
        -1911248830 2084279078 -1649881105 1412091311</internalNodes>
      <leafValues>
        -2.4604628980159760e-01 1.7178116738796234e-01</leafValues></_>
    <_>
      <internalNodes>
        0 -1 4309 -1576913404 -1427204138 1800472273 -859304496
        -2081854956 1201145943 -308768383 -990052236</internalNodes>
      <leafValues>
        -4.2785170674324036e-01 9.6865676343441010e-02</leafValues></_>
    <_>
      <internalNodes>
        0 -1 0 1966632317 -5418497 -1541417234 -420717059 -70875302
        371949815 2016934827 352352863</internalNodes>
      <leafValues>
        -2.3598039150238037e-01 1.9767546653747559e-01</leafValues></_>
    <_>
      <internalNodes>
        0 -1 4258 -672083752 -573593964 1002515317 1464944157
        -1283404850 242001050 36314911 -676377413</internalNodes>
      <leafValues>
        -1.3477122783660889e-01 3.2648563385009766e-01</leafValues></_>
    <_>
      <internalNodes>
        0 -1 5056 812035476 1413809084 2044342423 488586190 -851017074
        1838760155 2132262696 508665520</internalNodes>
      <leafValues>
        -3.0786257982254028e-01 1.4028313755989075e-01</leafValues></_>
    <_>
      <internalNodes>
        0 -1 8100 -213844743 -177023659 -479297957 -1339644384
        1105218256 -370966543 -364519463 -811987680</internalNodes>
      <leafValues>
        -1.6077700257301331e-01 2.7143853902816772e-01</leafValues></_>
    <_>
      <internalNodes>
        0 -1 3983 -504463500 2113875581 -1481646279 -1447420152
        -1344872651 712470463 -990101439 -649265876</internalNodes>
      <leafValues>
        -1.8166592717170715e-01 2.3786167800426483e-01</leafValues></_>
    <_>
      <internalNodes>
        0 -1 6642 573056256 -2131047446 -762866858 315138839 -1351787713
        1091209600 578601286 813200247</internalNodes>
      <leafValues>
        -3.6903923749923706e-01 1.2868702411651611e-01</leafValues></_></weakClassifiers></stage6>
</opencv_storage>
