<?xml version="1.0"?>
<opencv_storage>
<stage3>
  <maxWeakCount>38</maxWeakCount>
  <stageThreshold>-1.3061341047286987e+00</stageThreshold>
  <weakClassifiers>
    <_>
      <internalNodes>
        0 -1 99 -24975118 -2004207400 352977808 20390520 1612946429
        540717990 -1164515137 -268458320</internalNodes>
      <leafValues>
        -6.4736062288284302e-01 -1.8276961147785187e-01</leafValues></_>
    <_>
      <internalNodes>
        0 -1 4498 -1879001328 494676983 -1237533187 492158935 291616725
        1766111187 -1279816162 769437694</internalNodes>
      <leafValues>
        -4.0771582722663879e-01 1.5084403753280640e-01</leafValues></_>
    <_>
      <internalNodes>
        0 -1 4783 -487856097 -928594048 -460069086 71333700 -211655868
        -227085033 33734724 -804203440</internalNodes>
      <leafValues>
        -4.1886377334594727e-01 1.4852313697338104e-01</leafValues></_>
    <_>
      <internalNodes>
        0 -1 9064 -587152168 -651327696 -324779276 1032795269
        -1610574162 -1305381998 135300267 252379179</internalNodes>
      <leafValues>
        -1.7075467109680176e-01 3.6173099279403687e-01</leafValues></_>
    <_>
      <internalNodes>
        0 -1 4748 -1615266596 -1618734964 -679965495 -585809888
        1286143230 -1908099144 -991503191 -2013249536</internalNodes>
      <leafValues>
        -2.0920357108116150e-01 2.9845458269119263e-01</leafValues></_>
    <_>
      <internalNodes>
        0 -1 3769 255957907 223944659 1296380791 760224829 1993733515
        -227808509 692567738 1682220002</internalNodes>
      <leafValues>
        -3.2332840561866760e-01 1.8367601931095123e-01</leafValues></_>
    <_>
      <internalNodes>
        0 -1 3693 -13639102 1099646240 11268834 1674023537 -116207610
        3125569 1380041298 1159983371</internalNodes>
      <leafValues>
        -2.6936742663383484e-01 2.2776022553443909e-01</leafValues></_>
    <_>
      <internalNodes>
        0 -1 856 -50273146 700912077 806476202 -1224408099 -2137430002
        1261539368 571011167 1459847338</internalNodes>
      <leafValues>
        -4.7976064682006836e-01 1.2044548988342285e-01</leafValues></_>
    <_>
      <internalNodes>
        0 -1 7181 1347422720 217190926 -803449092 -1784732022 1600520160
        -120994937 -85451787 2113210615</internalNodes>
      <leafValues>
        -4.0743556618690491e-01 1.4575748145580292e-01</leafValues></_>
    <_>
      <internalNodes>
        0 -1 7787 -544213044 -2141663144 -1916744020 -868167526
        -1247291840 478133614 -1269051644 -713571273</internalNodes>
      <leafValues>
        -4.1497024893760681e-01 1.3667762279510498e-01</leafValues></_>
    <_>
      <internalNodes>
        0 -1 5213 -1551888176 1933654168 -375038611 -150663038 12691674
        957257976 -1609692981 1375946252</internalNodes>
      <leafValues>
        -2.5800225138664246e-01 2.1907098591327667e-01</leafValues></_>
    <_>
      <internalNodes>
        0 -1 64 -705143340 -40095287 1457371368 1712266456 -38030265
        46022976 -1036091116 279461166</internalNodes>
      <leafValues>
        -3.2080289721488953e-01 1.7104732990264893e-01</leafValues></_>
    <_>
      <internalNodes>
        0 -1 3198 -88156940 -575197188 -818232259 -1625157830
        -1099581514 -303710211 -2143419389 -886340190</internalNodes>
      <leafValues>
        -2.0366275310516357e-01 2.6689383387565613e-01</leafValues></_>
    <_>
      <internalNodes>
        0 -1 8084 -737127216 -39845708 896070741 1975447269 -867149652
        -319744318 -1911505222 1209420036</internalNodes>
      <leafValues>
        -2.0932072401046753e-01 2.5621446967124939e-01</leafValues></_>
    <_>
      <internalNodes>
        0 -1 9900 -1752105217 -368591159 -1290668384 1752361940 37274111
        -1060920424 -144641049 392286713</internalNodes>
      <leafValues>
        -2.5117826461791992e-01 2.1240903437137604e-01</leafValues></_>
    <_>
      <internalNodes>
        0 -1 8455 -791620360 -246469423 -340880979 2013202597 -688854280
        1986319613 59808938 -1944712150</internalNodes>
      <leafValues>
        -2.1440599858760834e-01 2.7079457044601440e-01</leafValues></_>
    <_>
      <internalNodes>
        0 -1 8810 -169146300 1601897541 -992856194 1382176850 -852557732
        1495866113 -1467448296 -96604230</internalNodes>
      <leafValues>
        -3.2220211625099182e-01 1.6412357985973358e-01</leafValues></_>
    <_>
      <internalNodes>
        0 -1 8797 -796857656 1852106176 -285501972 1970659524 317232172
        168347680 1346496715 1092078624</internalNodes>
      <leafValues>
        -2.7123746275901794e-01 1.9482998549938202e-01</leafValues></_>
    <_>
      <internalNodes>
        0 -1 2697 -1936708140 477395928 -1404812391 226378764 1093964183
        811680608 1096182338 191303163</internalNodes>
      <leafValues>
        -3.9883500337600708e-01 1.2551967799663544e-01</leafValues></_>
    <_>
      <internalNodes>
        0 -1 6967 -670776597 1350815410 -1199243199 1361643073
        -557513693 -1050524092 1577123403 1129043307</internalNodes>
      <leafValues>
        -1.8071566522121429e-01 2.8944200277328491e-01</leafValues></_>
    <_>
      <internalNodes>
        0 -1 4845 -39716129 -356302744 1092245844 240932304 -1087714688
        -1686273970 -505592640 -227019006</internalNodes>
      <leafValues>
        -2.9472541809082031e-01 1.8886797130107880e-01</leafValues></_>
    <_>
      <internalNodes>
        0 -1 1673 -846533198 -1906129530 -1887174428 -1177526380
        -1414819092 257829777 -981278233 -942294609</internalNodes>
      <leafValues>
        -2.9693597555160522e-01 1.8361699581146240e-01</leafValues></_>
    <_>
      <internalNodes>
        0 -1 863 1374313476 972130843 -805696233 1507217225 814565809
        -496944418 644259471 1974729909</internalNodes>
      <leafValues>
        -2.7512577176094055e-01 2.0031605660915375e-01</leafValues></_>
    <_>
      <internalNodes>
        0 -1 8722 -14879336 -749219772 1702746376 -117463992 1393033945
        -189465230 -510879765 -1333763991</internalNodes>
      <leafValues>
        -1.9101184606552124e-01 2.7768415212631226e-01</leafValues></_>
    <_>
      <internalNodes>
        0 -1 3574 -226305796 -571358127 1554930013 1365593177 -60510789
        -724280314 -914838261 -749779377</internalNodes>
      <leafValues>
        -1.4022798836231232e-01 3.7725958228111267e-01</leafValues></_>
    <_>
      <internalNodes>
        0 -1 0 2102744572 -307276837 1756027018 586889380 1536476739
        592152807 791079705 370210927</internalNodes>
      <leafValues>
        -3.1184321641921997e-01 1.7349648475646973e-01</leafValues></_>
    <_>
      <internalNodes>
        0 -1 1002 1164290810 -328267260 1929455708 1407000792 -178918252
        147473743 1806403431 2043907061</internalNodes>
      <leafValues>
        -2.6224154233932495e-01 1.9837605953216553e-01</leafValues></_>
    <_>
      <internalNodes>
        0 -1 4620 -1867359120 -255260293 -592950867 378740901 990492071
        667615384 598419898 334969471</internalNodes>
      <leafValues>
        -2.5240346789360046e-01 2.0325179398059845e-01</leafValues></_>
    <_>
      <internalNodes>
        0 -1 914 -1867920334 819515973 336778266 -1675185125 -1608471136
        -1045987230 1224999949 -885727428</internalNodes>
      <leafValues>
        -3.3064961433410645e-01 1.6448532044887543e-01</leafValues></_>
    <_>
      <internalNodes>
        0 -1 3857 203437584 223135706 726667742 227280600 272964370
        528314759 31960688 246459058</internalNodes>
      <leafValues>
        -5.4685032367706299e-01 9.1724380850791931e-02</leafValues></_>
    <_>
      <internalNodes>
        0 -1 9264 1896927944 -1678459902 -584573033 -245600890
        -1602195272 80183262 -297748261 -1862053701</internalNodes>
      <leafValues>
        -1.8632218241691589e-01 2.8646123409271240e-01</leafValues></_>
    <_>
      <internalNodes>
        0 -1 6774 -1543351036 216456643 -476523068 -622660630 1090798736
        1418074280 -468651952 -30295258</internalNodes>
      <leafValues>
        -4.9772605299949646e-01 1.1425206810235977e-01</leafValues></_>
    <_>
      <internalNodes>
        0 -1 800 -75675171 -1894282517 886298730 -360771383 1743909701
        2002775880 380416532 1362703231</internalNodes>
      <leafValues>
        -3.1050470471382141e-01 1.6403578221797943e-01</leafValues></_>
    <_>
      <internalNodes>
        0 -1 2272 441224520 -892854924 160962648 1111642182 -84643583
        1346713757 -2113773472 1884467490</internalNodes>
      <leafValues>
        -5.2223372459411621e-01 9.9944218993186951e-02</leafValues></_>
    <_>
      <internalNodes>
        0 -1 8906 -829102064 1515033933 67700254 1655939422 1963296152
        465033540 84117948 576118795</internalNodes>
      <leafValues>
        -2.7857854962348938e-01 1.8830841779708862e-01</leafValues></_>
    <_>
      <internalNodes>
        0 -1 6486 -81274725 -559773064 -1051557497 959547613 -1116040046
        10907401 -824662646 -920923698</internalNodes>
      <leafValues>
        -1.4543424546718597e-01 3.6751410365104675e-01</leafValues></_>
    <_>
      <internalNodes>
        0 -1 9991 -168274476 -168211749 -536929889 -8363019 229781928
        -608899307 -913062497 1468663359</internalNodes>
      <leafValues>
        -1.7547304928302765e-01 2.8871801495552063e-01</leafValues></_>
    <_>
      <internalNodes>
        0 -1 4795 -553583972 -1323536480 -1145848567 -76067443
        -1895031666 -1902150429 216907288 -1900358094</internalNodes>
      <leafValues>
        -1.8336363136768341e-01 2.8931909799575806e-01</leafValues></_></weakClassifiers></stage3>
</opencv_storage>
