<?xml version="1.0"?>
<opencv_storage>
<stage7>
  <maxWeakCount>56</maxWeakCount>
  <stageThreshold>-1.2232208251953125e+00</stageThreshold>
  <weakClassifiers>
    <_>
      <internalNodes>
        0 -1 724 -665601 -73441913 -1345325730 -1739268102 983293407
        -2909842 -1643127558 -16777475</internalNodes>
      <leafValues>
        -5.5413061380386353e-01 -1.7553305625915527e-01</leafValues></_>
    <_>
      <internalNodes>
        0 -1 4509 -55535916 -193708238 -425263308 504234264 -2008311820
        -445851165 1200359120 -1875340008</internalNodes>
      <leafValues>
        -3.5922515392303467e-01 9.5927268266677856e-02</leafValues></_>
    <_>
      <internalNodes>
        0 -1 2337 790240784 235607378 -1362875018 626332982 771764280
        478765464 -1374286006 -75663918</internalNodes>
      <leafValues>
        -2.7388259768486023e-01 1.2936547398567200e-01</leafValues></_>
    <_>
      <internalNodes>
        0 -1 5758 -1506767660 447274669 -1375162452 -1079009397
        661225954 1811798783 -274363698 1978396302</internalNodes>
      <leafValues>
        -1.8357875943183899e-01 2.1556480228900909e-01</leafValues></_>
    <_>
      <internalNodes>
        0 -1 8746 -560970536 -612424627 393314269 -141582015 -115291255
        -155545959 -712970821 -1349562341</internalNodes>
      <leafValues>
        -1.4177669584751129e-01 2.7017822861671448e-01</leafValues></_>
    <_>
      <internalNodes>
        0 -1 9799 -59978354 -185521814 -1594109784 585858120 -39653621
        1114340940 1644820879 1703934827</internalNodes>
      <leafValues>
        -1.7558604478836060e-01 2.1070036292076111e-01</leafValues></_>
    <_>
      <internalNodes>
        0 -1 4163 -1498976329 -833355391 1739740274 138695616 1731121908
        464843099 -2021103152 -228534444</internalNodes>
      <leafValues>
        -2.5730341672897339e-01 1.4715905487537384e-01</leafValues></_>
    <_>
      <internalNodes>
        0 -1 1818 -270292165 -477450586 827702294 -733662 1986711037
        101683379 569209408 -774900669</internalNodes>
      <leafValues>
        -2.1321754157543182e-01 1.7391392588615417e-01</leafValues></_>
    <_>
      <internalNodes>
        0 -1 8556 -591183868 1532031591 -1170512258 -535107114
        -833975296 1376295431 -1597078392 -2009142514</internalNodes>
      <leafValues>
        -2.9791679978370667e-01 1.2087477743625641e-01</leafValues></_>
    <_>
      <internalNodes>
        0 -1 64 1509773749 -105565815 -565602067 -31566615 -24462769
        -1222651083 -546684880 507002495</internalNodes>
      <leafValues>
        -2.0546554028987885e-01 1.8416786193847656e-01</leafValues></_>
    <_>
      <internalNodes>
        0 -1 6995 -74713408 -509361396 35215976 1138454788 -2102333344
        268607744 1620103716 -1039510432</internalNodes>
      <leafValues>
        -2.5289708375930786e-01 1.5470689535140991e-01</leafValues></_>
    <_>
      <internalNodes>
        0 -1 7716 -87493416 -212159124 -1121921729 -1375451915 -68150390
        -879883689 -637498405 -77441959</internalNodes>
      <leafValues>
        -1.5109883248806000e-01 2.3582182824611664e-01</leafValues></_>
    <_>
      <internalNodes>
        0 -1 2331 1332842245 253714423 -1631905493 264216493 1590378293
        1524071795 484294330 -344489866</internalNodes>
      <leafValues>
        -1.6544778645038605e-01 2.2585745155811310e-01</leafValues></_>
    <_>
      <internalNodes>
        0 -1 6350 -251606912 -1157562568 -1518471431 -37361567
        -218741522 -52365834 -172474678 -1367328992</internalNodes>
      <leafValues>
        -1.6868115961551666e-01 2.1630851924419403e-01</leafValues></_>
    <_>
      <internalNodes>
        0 -1 1528 -1275031368 2034440952 -313339155 1437813628
        -473520231 844459853 279487800 1363214795</internalNodes>
      <leafValues>
        -1.8205061554908752e-01 2.0559822022914886e-01</leafValues></_>
    <_>
      <internalNodes>
        0 -1 8500 -134930579 -1472134077 -1890356478 608062295
        -622961911 413669442 -496814217 1704563610</internalNodes>
      <leafValues>
        -2.8315678238868713e-01 1.3045939803123474e-01</leafValues></_>
    <_>
      <internalNodes>
        0 -1 6954 -918556978 -1964348696 -2079209882 672139968
        -617878780 234021012 -1069212092 362281540</internalNodes>
      <leafValues>
        -4.1020971536636353e-01 9.2059850692749023e-02</leafValues></_>
    <_>
      <internalNodes>
        0 -1 4168 1042334972 -126570340 -1735041371 -687741859
        -1514411334 -680567724 26016415 16852619</internalNodes>
      <leafValues>
        -1.8830654025077820e-01 1.9208562374114990e-01</leafValues></_>
    <_>
      <internalNodes>
        0 -1 9670 -115606808 -61307870 -467011559 -1251499003
        -1490250261 121256894 -1134787398 -1090001253</internalNodes>
      <leafValues>
        -1.1052785068750381e-01 3.1762915849685669e-01</leafValues></_>
    <_>
      <internalNodes>
        0 -1 9997 782764492 -196060286 -1673890084 1078995544 -888922291
        1782995464 490901577 1595942751</internalNodes>
      <leafValues>
        -2.8328552842140198e-01 1.3135819137096405e-01</leafValues></_>
    <_>
      <internalNodes>
        0 -1 4749 933295848 -402068046 1594654145 1306583756 -1835217959
        -1094788263 -2004046909 -366735664</internalNodes>
      <leafValues>
        -2.5217711925506592e-01 1.4122767746448517e-01</leafValues></_>
    <_>
      <internalNodes>
        0 -1 1327 1792796895 1478868066 1202585358 356601526 2112860142
        418807154 1610012442 -708718553</internalNodes>
      <leafValues>
        -1.4992833137512207e-01 2.4258089065551758e-01</leafValues></_>
    <_>
      <internalNodes>
        0 -1 4946 1945545231 -119450796 678037013 -581040186 746821437
        704805571 769409022 -1410874515</internalNodes>
      <leafValues>
        -1.8494766950607300e-01 1.9237393140792847e-01</leafValues></_>
    <_>
      <internalNodes>
        0 -1 3056 -1409550513 1292021856 -1373635580 1181623268
        1865261383 227983468 1114456770 1202163351</internalNodes>
      <leafValues>
        -2.7095732092857361e-01 1.3834412395954132e-01</leafValues></_>
    <_>
      <internalNodes>
        0 -1 9282 1770048188 -245633968 -747440657 -235431724
        -2001941522 -393081702 -920933477 -1752198005</internalNodes>
      <leafValues>
        -1.2169437855482101e-01 3.0308958888053894e-01</leafValues></_>
    <_>
      <internalNodes>
        0 -1 4646 -88449964 -1272338647 -1614792993 -642762967 778546339
        -138416650 -1382445942 1294847915</internalNodes>
      <leafValues>
        -1.5580560266971588e-01 2.2219569981098175e-01</leafValues></_>
    <_>
      <internalNodes>
        0 -1 2829 -184731361 -767878070 1671011647 1075982282
        -1564387295 1761067478 640940872 -285688020</internalNodes>
      <leafValues>
        -2.2236442565917969e-01 1.5839131176471710e-01</leafValues></_>
    <_>
      <internalNodes>
        0 -1 1206 -908030663 454733514 -1529344351 1435436737 -551521536
        281673862 1981261984 2075606747</internalNodes>
      <leafValues>
        -2.0297962427139282e-01 1.7686863243579865e-01</leafValues></_>
    <_>
      <internalNodes>
        0 -1 7796 -159975221 -722994362 -227776958 1933033265
        -1048788083 1727589728 -265625877 -223624309</internalNodes>
      <leafValues>
        -1.0209693014621735e-01 3.6492097377777100e-01</leafValues></_>
    <_>
      <internalNodes>
        0 -1 6698 -521294564 1246266903 1701191069 -1769305728 696305558
        1621134065 1679189472 1914746368</internalNodes>
      <leafValues>
        -3.0702209472656250e-01 1.2189077585935593e-01</leafValues></_>
    <_>
      <internalNodes>
        0 -1 2993 -141730130 1095615073 -614972831 1294693452 -687803536
        1225041318 -505155325 1125114707</internalNodes>
      <leafValues>
        -2.0631869137287140e-01 1.7535156011581421e-01</leafValues></_>
    <_>
      <internalNodes>
        0 -1 6170 315629568 -917681661 -1241812538 -950726026 1311853648
        -1421730166 1945008234 1875411502</internalNodes>
      <leafValues>
        -3.7391337752342224e-01 9.2688575387001038e-02</leafValues></_>
    <_>
      <internalNodes>
        0 -1 4882 -583690997 -680585015 -1647004299 466181219 -156728901
        -134679559 1384307711 -619719013</internalNodes>
      <leafValues>
        -9.7168922424316406e-02 3.8720655441284180e-01</leafValues></_>
    <_>
      <internalNodes>
        0 -1 8426 -253719588 -1078908235 1399347001 -739374775
        -1673250660 -4628495 -2094997944 1778814986</internalNodes>
      <leafValues>
        -1.6461481153964996e-01 2.2010755538940430e-01</leafValues></_>
    <_>
      <internalNodes>
        0 -1 3819 -1334967180 -930048972 1565976812 42896948 -1434416591
        1888729633 -1002960508 1712358452</internalNodes>
      <leafValues>
        -4.0701720118522644e-01 9.2201329767704010e-02</leafValues></_>
    <_>
      <internalNodes>
        0 -1 7392 -39068774 1836962976 -1898419480 1470101743 2051732680
        1902271857 1381156570 -89918877</internalNodes>
      <leafValues>
        -1.3288895785808563e-01 2.8787457942962646e-01</leafValues></_>
    <_>
      <internalNodes>
        0 -1 9893 -569056872 -1661886783 1786642224 -1624872053
        -316626790 91897520 607169448 228822635</internalNodes>
      <leafValues>
        -1.7044901847839355e-01 2.1403101086616516e-01</leafValues></_>
    <_>
      <internalNodes>
        0 -1 8179 -19799056 1285743820 230836232 -863434344 -489451484
        1346207983 336009744 -194561849</internalNodes>
      <leafValues>
        -3.6249861121177673e-01 1.0359779745340347e-01</leafValues></_>
    <_>
      <internalNodes>
        0 -1 3640 -741276688 2086123339 -820792289 1511160305
        -1593284096 2080004691 -606159989 -371406488</internalNodes>
      <leafValues>
        -2.0276363193988800e-01 1.7797391116619110e-01</leafValues></_>
    <_>
      <internalNodes>
        0 -1 9571 1549319487 288453905 937809803 1248099941 -611054934
        685342580 -2049658710 -1818231885</internalNodes>
      <leafValues>
        -1.5792697668075562e-01 2.2997742891311646e-01</leafValues></_>
    <_>
      <internalNodes>
        0 -1 925 -686643070 -1657077247 763383336 1448831067 420017814
        125927626 1623379710 280226226</internalNodes>
      <leafValues>
        -2.6302465796470642e-01 1.4494043588638306e-01</leafValues></_>
    <_>
      <internalNodes>
        0 -1 3747 180007205 -2102432170 803087219 740193540 -448572873
        1247461451 -1624071177 -877434906</internalNodes>
      <leafValues>
        -2.0810112357139587e-01 1.8905982375144958e-01</leafValues></_>
    <_>
      <internalNodes>
        0 -1 810 -318065277 -1239249648 -242337296 -1027298044 205254639
        74615758 1174389296 1151201518</internalNodes>
      <leafValues>
        -2.3083834350109100e-01 1.6333265602588654e-01</leafValues></_>
    <_>
      <internalNodes>
        0 -1 4210 2026696768 -34748268 1529503377 -79701847 -927937910
        -13226284 -1148870773 -1450508277</internalNodes>
      <leafValues>
        -1.4059197902679443e-01 2.8654825687408447e-01</leafValues></_>
    <_>
      <internalNodes>
        0 -1 5304 -735609899 338444574 791625805 958851660 2110894203
        -2041809936 -644773387 -1631547024</internalNodes>
      <leafValues>
        -2.1194021403789520e-01 1.7671042680740356e-01</leafValues></_>
    <_>
      <internalNodes>
        0 -1 7220 -86925151 81890450 -1051808444 -859126527 -394704832
        1619673264 -283738665 -353900441</internalNodes>
      <leafValues>
        -2.0639520883560181e-01 1.8440937995910645e-01</leafValues></_>
    <_>
      <internalNodes>
        0 -1 8618 364543126 -1184976919 -285331783 -1342767553
        -1074406271 -1695029363 -260528983 -86902149</internalNodes>
      <leafValues>
        -1.5715159475803375e-01 2.4362201988697052e-01</leafValues></_>
    <_>
      <internalNodes>
        0 -1 6500 -1226686850 -1945715451 -1585468888 144558701
        -288545963 1408488277 -749196528 -170329601</internalNodes>
      <leafValues>
        -2.6882928609848022e-01 1.4169178903102875e-01</leafValues></_>
    <_>
      <internalNodes>
        0 -1 9930 221812313 2069566424 1172934336 1296860364 741306744
        -537491434 -304747420 198202692</internalNodes>
      <leafValues>
        -2.7196070551872253e-01 1.3958409428596497e-01</leafValues></_>
    <_>
      <internalNodes>
        0 -1 1527 -135399555 -72878193 -1073840354 58403827 318168903
        27777023 1835658493 -807679337</internalNodes>
      <leafValues>
        -1.4935342967510223e-01 2.6855754852294922e-01</leafValues></_>
    <_>
      <internalNodes>
        0 -1 9440 -139160100 -237217048 1274953196 234161276 -327634206
        -143785993 -2044932182 -1968208709</internalNodes>
      <leafValues>
        -1.2977202236652374e-01 3.1137436628341675e-01</leafValues></_>
    <_>
      <internalNodes>
        0 -1 5219 -568042244 -88923143 -1346499245 2066828576
        -1435008146 -50925697 1223642874 -537208913</internalNodes>
      <leafValues>
        -1.1796835064888000e-01 3.2517397403717041e-01</leafValues></_>
    <_>
      <internalNodes>
        0 -1 3188 -1909281519 247946218 850862473 -1361191579 1165406130
        -681604915 422816598 -1879772200</internalNodes>
      <leafValues>
        -2.1816897392272949e-01 1.7781734466552734e-01</leafValues></_>
    <_>
      <internalNodes>
        0 -1 9109 -904158851 470979095 2001534122 1895003142 233449736
        1778428423 -118816188 1912995423</internalNodes>
      <leafValues>
        -3.0556461215019226e-01 1.2967835366725922e-01</leafValues></_>
    <_>
      <internalNodes>
        0 -1 2951 -105717014 -710729735 -580375960 -40695453 -562637695
        32537685 898778634 -1891378161</internalNodes>
      <leafValues>
        -1.3743293285369873e-01 2.8700006008148193e-01</leafValues></_>
    <_>
      <internalNodes>
        0 -1 1565 -825618082 -994848253 365188068 -1598656030 -906624918
        -1716446445 -2017669942 -731387161</internalNodes>
      <leafValues>
        -2.5438523292541504e-01 1.5193778276443481e-01</leafValues></_></weakClassifiers></stage7>
</opencv_storage>
