<?xml version="1.0"?>
<opencv_storage>
<stage0>
  <maxWeakCount>16</maxWeakCount>
  <stageThreshold>-1.5322357416152954e+00</stageThreshold>
  <weakClassifiers>
    <_>
      <internalNodes>
        0 -1 5062 -201605633 -2161189 429065627 1069483659 -1079002181
        -1077365 464195467 1068437163</internalNodes>
      <leafValues>
        -7.2486352920532227e-01 3.3197453618049622e-01</leafValues></_>
    <_>
      <internalNodes>
        0 -1 4020 -1474296784 -458722 -1919940548 1058866178 -1447052614
        -1074021381 -1952510021 -1079038289</internalNodes>
      <leafValues>
        -6.0504060983657837e-01 3.0126813054084778e-01</leafValues></_>
    <_>
      <internalNodes>
        0 -1 179 -51651856 -82449006 -2012738558 -1591013841 -176100880
        -1281840207 -2111238389 2138286431</internalNodes>
      <leafValues>
        -4.7024619579315186e-01 3.4699305891990662e-01</leafValues></_>
    <_>
      <internalNodes>
        0 -1 8079 -589562416 -1002048421 -2021072604 -143136034
        -707406608 -825822812 -867119104 -322438574</internalNodes>
      <leafValues>
        -4.5221433043479919e-01 3.0853560566902161e-01</leafValues></_>
    <_>
      <internalNodes>
        0 -1 5446 -585576248 -749157168 317012192 1393909968 -2046256958
        -2079715392 -1925020502 19613835</internalNodes>
      <leafValues>
        -2.6262524724006653e-01 4.6143922209739685e-01</leafValues></_>
    <_>
      <internalNodes>
        0 -1 5940 -584529728 -249823168 1123840140 1565066408
        -1769888612 -216969356 72430728 318963858</internalNodes>
      <leafValues>
        -3.0184385180473328e-01 3.7536576390266418e-01</leafValues></_>
    <_>
      <internalNodes>
        0 -1 6271 -642458096 2087544637 -1961779937 522035227
        -1188775752 412924023 151720747 195803835</internalNodes>
      <leafValues>
        -3.6409586668014526e-01 3.2399290800094604e-01</leafValues></_>
    <_>
      <internalNodes>
        0 -1 9656 -803041280 -201197184 653296516 -1787853248 -960330534
        587775559 35280266 587681423</internalNodes>
      <leafValues>
        -2.6062434911727905e-01 4.2911583185195923e-01</leafValues></_>
    <_>
      <internalNodes>
        0 -1 1011 -1069488182 1780463941 688884556 1447101440 1626469174
        1498248082 -1018168354 -6424653</internalNodes>
      <leafValues>
        -3.6657685041427612e-01 3.0864351987838745e-01</leafValues></_>
    <_>
      <internalNodes>
        0 -1 5236 1411425184 471108701 -876920827 358942465 862981036
        423299324 -7402865 569181391</internalNodes>
      <leafValues>
        -4.2601299285888672e-01 2.7260553836822510e-01</leafValues></_>
    <_>
      <internalNodes>
        0 -1 792 -585367640 -381563467 -227937632 -146813083 -344214869
        -2025956032 -2086554105 1427070509</internalNodes>
      <leafValues>
        -3.0052778124809265e-01 3.7439802289009094e-01</leafValues></_>
    <_>
      <internalNodes>
        0 -1 8243 -665075432 1576758835 2075983533 862943207 -1092386684
        493159711 47319727 1926090751</internalNodes>
      <leafValues>
        -3.0518755316734314e-01 3.4780132770538330e-01</leafValues></_>
    <_>
      <internalNodes>
        0 -1 9270 -205466416 1409035280 -1796546036 1574261285
        -701460579 -2028980782 671121646 991625359</internalNodes>
      <leafValues>
        -2.2437381744384766e-01 4.6181076765060425e-01</leafValues></_>
    <_>
      <internalNodes>
        0 -1 9900 648074473 -364522291 -1194860512 541508041 671534079
        1108066609 -1609800889 1416692216</internalNodes>
      <leafValues>
        -4.8095181584358215e-01 2.2743317484855652e-01</leafValues></_>
    <_>
      <internalNodes>
        0 -1 3050 -57370496 1883328532 -500508648 -1187130913 -643594320
        -183512841 1086573531 -306454567</internalNodes>
      <leafValues>
        -3.6082869768142700e-01 2.9250136017799377e-01</leafValues></_>
    <_>
      <internalNodes>
        0 -1 4183 -134480805 -1664560938 -603973286 -2072980540 -3411760
        -233611005 1256240164 1611691088</internalNodes>
      <leafValues>
        -4.7598257660865784e-01 2.2056052088737488e-01</leafValues></_></weakClassifiers></stage0>
</opencv_storage>
