<?xml version="1.0"?>
<opencv_storage>
<cascade>
  <stageType>BOOST</stageType>
  <featureType>LBP</featureType>
  <height>25</height>
  <width>25</width>
  <stageParams>
    <boostType>GAB</boostType>
    <minHitRate>9.9500000476837158e-01</minHitRate>
    <maxFalseAlarm>3.0000001192092896e-01</maxFalseAlarm>
    <weightTrimRate>9.4999999999999996e-01</weightTrimRate>
    <maxDepth>1</maxDepth>
    <maxWeakCount>100</maxWeakCount></stageParams>
  <featureParams>
    <maxCatCount>256</maxCatCount>
    <featSize>1</featSize></featureParams>
  <stageNum>12</stageNum>
  <stages>
    <!-- stage 0 -->
    <_>
      <maxWeakCount>6</maxWeakCount>
      <stageThreshold>-9.2351514101028442e-01</stageThreshold>
      <weakClassifiers>
        <_>
          <internalNodes>
            0 -1 102 -144703489 -14823209 352449567 2141149671 718092987
            -1081237354 843782719 2011110075</internalNodes>
          <leafValues>
            -8.2546198368072510e-01 5.7794678211212158e-01</leafValues></_>
        <_>
          <internalNodes>
            0 -1 43 -1411932737 -1084292973 -2097146786 1057950862
            -1153322754 -73719679 706710415 1000286762</internalNodes>
          <leafValues>
            -7.7593791484832764e-01 3.9989197254180908e-01</leafValues></_>
        <_>
          <internalNodes>
            0 -1 22 -758456624 2084667984 -1055796903 1573253522
            -767367170 -125767550 -108594449 -657453</internalNodes>
          <leafValues>
            -6.5244871377944946e-01 4.2429971694946289e-01</leafValues></_>
        <_>
          <internalNodes>
            0 -1 74 -84574026 1964212635 -1828351777 -1088744938
            34187950 -661923672 -1178096742 1072605102</internalNodes>
          <leafValues>
            -5.6652438640594482e-01 4.3924194574356079e-01</leafValues></_>
        <_>
          <internalNodes>
            0 -1 104 1544814912 1406472641 318767253 -169934825
            -1203445592 444596234 1100527646 798705695</internalNodes>
          <leafValues>
            -5.7898497581481934e-01 4.5700401067733765e-01</leafValues></_>
        <_>
          <internalNodes>
            0 -1 61 -720857712 -654143360 268435548 1359499338
            -670520958 -1879011198 33557259 1895956624</internalNodes>
          <leafValues>
            -6.0465103387832642e-01 4.3408757448196411e-01</leafValues></_></weakClassifiers></_>
    <!-- stage 1 -->
    <_>
      <maxWeakCount>9</maxWeakCount>
      <stageThreshold>-1.1017560958862305e+00</stageThreshold>
      <weakClassifiers>
        <_>
          <internalNodes>
            0 -1 66 -179061761 -46169705 -687829601 -36754021 -727538693
            -107767139 -1779921013 -73453909</internalNodes>
          <leafValues>
            -6.9747900962829590e-01 4.2067554593086243e-01</leafValues></_>
        <_>
          <internalNodes>
            0 -1 122 -570451158 2136851295 -1358871167 2146816535
            414658050 546144275 684856074 -1140850757</internalNodes>
          <leafValues>
            -6.0600781440734863e-01 3.1461149454116821e-01</leafValues></_>
        <_>
          <internalNodes>
            0 -1 23 -677907972 -27470570 1140851144 537066768 -347866814
            1967182340 -1018115382 -440346173</internalNodes>
          <leafValues>
            -6.4955371618270874e-01 2.9478296637535095e-01</leafValues></_>
        <_>
          <internalNodes>
            0 -1 28 -41880858 -494386792 -784284288 -272105440
            -918496795 597722256 -1962820941 2106682247</internalNodes>
          <leafValues>
            -6.0764271020889282e-01 2.9127731919288635e-01</leafValues></_>
        <_>
          <internalNodes>
            0 -1 137 -258419296 -236335980 -588578845 1597339252
            -1523257464 -167938052 85566958 58659215</internalNodes>
          <leafValues>
            -3.3520212769508362e-01 5.6537854671478271e-01</leafValues></_>
        <_>
          <internalNodes>
            0 -1 109 -211756868 -180781072 -152109336 -651350292
            -302998018 -198952 750186472 464025048</internalNodes>
          <leafValues>
            -3.3995532989501953e-01 5.1185238361358643e-01</leafValues></_>
        <_>
          <internalNodes>
            0 -1 130 -753403957 -1039630062 -805236656 -352370424
            1655658644 17170570 -1727807292 -943326866</internalNodes>
          <leafValues>
            -5.2324348688125610e-01 3.7694421410560608e-01</leafValues></_>
        <_>
          <internalNodes>
            0 -1 9 1317708750 1667216079 -1992224424 -2079471424
            197133153 -527724466 942730091 2063464447</internalNodes>
          <leafValues>
            -5.4621773958206177e-01 3.4314489364624023e-01</leafValues></_>
        <_>
          <internalNodes>
            0 -1 60 -42410816 -542239572 1558085189 300363169 -445186364
            525303526 -1122536097 253957903</internalNodes>
          <leafValues>
            -3.8214886188507080e-01 5.1605498790740967e-01</leafValues></_></weakClassifiers></_>
    <!-- stage 2 -->
    <_>
      <maxWeakCount>10</maxWeakCount>
      <stageThreshold>-1.4897477626800537e+00</stageThreshold>
      <weakClassifiers>
        <_>
          <internalNodes>
            0 -1 76 -713293825 -45769483 -855534161 -170949475
            -113185541 -113123080 -383284337 -20593</internalNodes>
          <leafValues>
            -6.0000002384185791e-01 4.5960265398025513e-01</leafValues></_>
        <_>
          <internalNodes>
            0 -1 87 -167959297 1515954523 -2143052393 1439539610
            -70991938 -662646009 1804283836 2011643822</internalNodes>
          <leafValues>
            -5.5749112367630005e-01 2.9611772298812866e-01</leafValues></_>
        <_>
          <internalNodes>
            0 -1 17 602912518 -1180859941 151136269 2004193427
            -1243004725 -202954553 119795063 -154996995</internalNodes>
          <leafValues>
            -5.0893312692642212e-01 3.4033113718032837e-01</leafValues></_>
        <_>
          <internalNodes>
            0 -1 32 -573530630 -266037056 -1056862092 591544320
            -343564037 -1190524901 -1064645697 1159848101</internalNodes>
          <leafValues>
            -5.1936149597167969e-01 3.1856894493103027e-01</leafValues></_>
        <_>
          <internalNodes>
            0 -1 132 -126288656 1529134732 -335551876 1504308817
            -1485520976 -569413740 99520442 1898660906</internalNodes>
          <leafValues>
            -3.6361455917358398e-01 4.7713157534599304e-01</leafValues></_>
        <_>
          <internalNodes>
            0 -1 117 -17117552 -574230594 2147415675 -1815630041
            -4393512 -1078018226 -1892301318 205163519</internalNodes>
          <leafValues>
            -3.6932873725891113e-01 4.5603725314140320e-01</leafValues></_>
        <_>
          <internalNodes>
            0 -1 71 -1311640620 1291846149 -1859070760 1318326272
            -1064062384 -1699311429 2086776068 -498009648</internalNodes>
          <leafValues>
            -6.0230791568756104e-01 3.1564950942993164e-01</leafValues></_>
        <_>
          <internalNodes>
            0 -1 135 -598877172 -564183033 8433694 -1586265005 537010692
            1395146763 -1609642808 1616630243</internalNodes>
          <leafValues>
            -6.2738442420959473e-01 2.5131642818450928e-01</leafValues></_>
        <_>
          <internalNodes>
            0 -1 63 -558050182 2087073881 -101384731 -786420383
            -17281660 -578912644 -164170818 1330349803</internalNodes>
          <leafValues>
            -3.5416361689567566e-01 5.0994288921356201e-01</leafValues></_>
        <_>
          <internalNodes>
            0 -1 67 436762040 1033685976 294666654 790433864 444851079
            -100401024 -519337764 -1155852083</internalNodes>
          <leafValues>
            -5.0153636932373047e-01 3.4287872910499573e-01</leafValues></_></weakClassifiers></_>
    <!-- stage 3 -->
    <_>
      <maxWeakCount>14</maxWeakCount>
      <stageThreshold>-8.1852668523788452e-01</stageThreshold>
      <weakClassifiers>
        <_>
          <internalNodes>
            0 -1 52 -646725633 -1117974206 1157701591 64429397
            -1039557985 -930443196 1745567422 -1074821154</internalNodes>
          <leafValues>
            -6.3302749395370483e-01 8.2802549004554749e-02</leafValues></_>
        <_>
          <internalNodes>
            0 -1 116 -750067500 -137739968 630272208 534201472
            -527134040 -92078037 545270746 715266048</internalNodes>
          <leafValues>
            -4.8968642950057983e-01 2.7533751726150513e-01</leafValues></_>
        <_>
          <internalNodes>
            0 -1 69 -780938657 -527761384 285294613 -1836941232
            1795608638 1972670477 1440000336 -180297680</internalNodes>
          <leafValues>
            -4.8474895954132080e-01 2.8995496034622192e-01</leafValues></_>
        <_>
          <internalNodes>
            0 -1 16 -922557566 168304896 -771698611 1932461958
            1226877447 1669342208 1342350095 -371739742</internalNodes>
          <leafValues>
            -4.3250307440757751e-01 3.5111773014068604e-01</leafValues></_>
        <_>
          <internalNodes>
            0 -1 39 -73081702 -118186248 -1344344403 -1686544669
            -551805306 1207787510 -587728901 -947173941</internalNodes>
          <leafValues>
            -2.7909281849861145e-01 5.3075647354125977e-01</leafValues></_>
        <_>
          <internalNodes>
            0 -1 3 -268972601 671051646 -1888514051 637347798 1987407866
            1711144949 -1073791010 -134746313</internalNodes>
          <leafValues>
            -3.3466705679893494e-01 4.3290555477142334e-01</leafValues></_>
        <_>
          <internalNodes>
            0 -1 105 -212011644 1834419242 33607929 1828847746
            2055352560 -651558783 -1693915032 1476420128</internalNodes>
          <leafValues>
            -4.7291979193687439e-01 3.0925098061561584e-01</leafValues></_>
        <_>
          <internalNodes>
            0 -1 125 1912700976 710542354 1359036419 -883052277
            -226480638 1115883650 713171602 -1228407925</internalNodes>
          <leafValues>
            -5.6122726202011108e-01 2.4610635638237000e-01</leafValues></_>
        <_>
          <internalNodes>
            0 -1 131 -29831984 -110559244 -269029512 -68321408 -4866381
            -2022342859 125679598 -1346434349</internalNodes>
          <leafValues>
            -2.9343828558921814e-01 4.9728894233703613e-01</leafValues></_>
        <_>
          <internalNodes>
            0 -1 85 1879438300 -53349496 -251349588 -442724202
            -461118972 809009288 -1073708528 -735000150</internalNodes>
          <leafValues>
            -4.6047821640968323e-01 3.1754711270332336e-01</leafValues></_>
        <_>
          <internalNodes>
            0 -1 53 -1073179404 -264761312 -671032836 1562415496
            -1610049399 -761757536 -92043119 -1121940516</internalNodes>
          <leafValues>
            -6.4566570520401001e-01 2.2983019053936005e-01</leafValues></_>
        <_>
          <internalNodes>
            0 -1 59 -738147944 -66973360 1358987599 -645119219
            -494248472 -1163155215 713875867 -1414495438</internalNodes>
          <leafValues>
            -3.7685295939445496e-01 4.1505861282348633e-01</leafValues></_>
        <_>
          <internalNodes>
            0 -1 50 -613491470 1495095277 1828454070 -680390967
            -1359161728 -1073807492 661407311 524488543</internalNodes>
          <leafValues>
            -3.2121288776397705e-01 4.5071592926979065e-01</leafValues></_>
        <_>
          <internalNodes>
            0 -1 13 -683288169 -802842146 16800204 1015024906
            -1467577390 -234772478 671583096 1692912395</internalNodes>
          <leafValues>
            -4.6935337781906128e-01 3.1587693095207214e-01</leafValues></_></weakClassifiers></_>
    <!-- stage 4 -->
    <_>
      <maxWeakCount>15</maxWeakCount>
      <stageThreshold>-8.8336068391799927e-01</stageThreshold>
      <weakClassifiers>
        <_>
          <internalNodes>
            0 -1 64 -623661121 -1853259297 1625461591 -386978311
            -473189450 1137312141 59457439 -605044737</internalNodes>
          <leafValues>
            -5.5371093750000000e-01 1.4075630903244019e-01</leafValues></_>
        <_>
          <internalNodes>
            0 -1 41 -1266615904 -138243670 -2092089068 -753651686
            -931083590 2013478914 1090529518 -139670850</internalNodes>
          <leafValues>
            -5.3628742694854736e-01 2.0301593840122223e-01</leafValues></_>
        <_>
          <internalNodes>
            0 -1 141 -135727936 1799806436 -671138040 1027039081
            1970665096 104087544 1160521387 -1815927669</internalNodes>
          <leafValues>
            -2.9494494199752808e-01 4.3225097656250000e-01</leafValues></_>
        <_>
          <internalNodes>
            0 -1 80 -201329793 -880209643 -786373759 2093764889
            -373216554 1933787709 -1173825860 -1030174912</internalNodes>
          <leafValues>
            -3.6187618970870972e-01 3.3890593051910400e-01</leafValues></_>
        <_>
          <internalNodes>
            0 -1 98 1092878429 362152153 1098907864 688456395 692148823
            -1559264722 665418872 1902452591</internalNodes>
          <leafValues>
            -5.6384050846099854e-01 2.1861979365348816e-01</leafValues></_>
        <_>
          <internalNodes>
            0 -1 46 1897978877 -1725698496 -268633675 -144839896
            -1351024739 -140017667 -1091731724 -568847296</internalNodes>
          <leafValues>
            -2.1902427077293396e-01 5.2570211887359619e-01</leafValues></_>
        <_>
          <internalNodes>
            0 -1 73 316681530 876470482 -1858039460 88998159 1146126466
            -1072594843 -1495301461 507684754</internalNodes>
          <leafValues>
            -7.3301875591278076e-01 1.7912183701992035e-01</leafValues></_>
        <_>
          <internalNodes>
            0 -1 121 -187443555 1698890054 50364621 1582760193
            -1962276338 1493843986 -2009945432 -60432213</internalNodes>
          <leafValues>
            -3.5548937320709229e-01 3.6660960316658020e-01</leafValues></_>
        <_>
          <internalNodes>
            0 -1 72 -35563631 2042228478 -319243353 1470594801
            -1913267038 1414856306 1709072201 -677142961</internalNodes>
          <leafValues>
            -2.5169953703880310e-01 5.1628875732421875e-01</leafValues></_>
        <_>
          <internalNodes>
            0 -1 129 -125134600 -143233693 -269337611 -583161317
            -1074279282 1992065023 -1222861121 488978123</internalNodes>
          <leafValues>
            -2.7608689665794373e-01 4.6811226010322571e-01</leafValues></_>
        <_>
          <internalNodes>
            0 -1 18 -678700141 -1480555188 1359057301 -589420 1112195555
            161580674 729218 1203499178</internalNodes>
          <leafValues>
            -4.1103416681289673e-01 3.3868357539176941e-01</leafValues></_>
        <_>
          <internalNodes>
            0 -1 42 82055304 733683579 50413590 1607203486 553746820
            -2121301875 -2003332980 174121194</internalNodes>
          <leafValues>
            -5.9009802341461182e-01 2.6964282989501953e-01</leafValues></_>
        <_>
          <internalNodes>
            0 -1 138 -31793502 -1497567564 -134238603 -1228238915
            -1212887586 -1108083107 1957910523 -1256219218</internalNodes>
          <leafValues>
            -2.9083698987960815e-01 4.7192308306694031e-01</leafValues></_>
        <_>
          <internalNodes>
            0 -1 95 -711790337 -909336230 1192333822 -1479208594
            -1316836899 -1721204605 462401600 -120379110</internalNodes>
          <leafValues>
            -3.8755774497985840e-01 3.7520670890808105e-01</leafValues></_>
        <_>
          <internalNodes>
            0 -1 114 -648771112 2120106078 823562496 -144965630
            -1689775964 -2011002752 444738254 -659021312</internalNodes>
          <leafValues>
            -4.0042567253112793e-01 3.8102099299430847e-01</leafValues></_></weakClassifiers></_>
    <!-- stage 5 -->
    <_>
      <maxWeakCount>14</maxWeakCount>
      <stageThreshold>-1.0497629642486572e+00</stageThreshold>
      <weakClassifiers>
        <_>
          <internalNodes>
            0 -1 55 -640303969 -250306511 -2124381127 -710701807
            -1325229671 -612249584 -535788365 -204042499</internalNodes>
          <leafValues>
            -5.3992742300033569e-01 2.3869346082210541e-01</leafValues></_>
        <_>
          <internalNodes>
            0 -1 115 -209792003 2008525021 4319768 -904642086
            -1040138104 1067028493 -385312600 406880256</internalNodes>
          <leafValues>
            -4.4603368639945984e-01 3.0242261290550232e-01</leafValues></_>
        <_>
          <internalNodes>
            0 -1 25 -275314838 -836950400 -1588592059 -174521176
            729859104 1401094178 705560067 -19427533</internalNodes>
          <leafValues>
            -3.6961019039154053e-01 3.7421405315399170e-01</leafValues></_>
        <_>
          <internalNodes>
            0 -1 49 -250940672 -234829875 1900024100 1293087568
            1720171022 -6770455 2094970880 -118686792</internalNodes>
          <leafValues>
            -4.5414713025093079e-01 2.8479209542274475e-01</leafValues></_>
        <_>
          <internalNodes>
            0 -1 99 578867410 -57781744 -1174347566 -16383486 -762649456
            -890535422 -511544972 2115750600</internalNodes>
          <leafValues>
            -5.3895765542984009e-01 2.9165297746658325e-01</leafValues></_>
        <_>
          <internalNodes>
            0 -1 38 -1927202975 -2079592231 1762996533 150209997
            -267145136 268595522 78221446 -572199979</internalNodes>
          <leafValues>
            -4.0249994397163391e-01 3.1783923506736755e-01</leafValues></_>
        <_>
          <internalNodes>
            0 -1 82 -1835868963 -1703215019 -2147446509 -1571815215
            -1986887465 -643104608 -486489583 739379235</internalNodes>
          <leafValues>
            -4.1811138391494751e-01 3.2740432024002075e-01</leafValues></_>
        <_>
          <internalNodes>
            0 -1 142 -1016346624 -1951797532 -277938253 -262291
            2147272616 486473575 777377451 488058059</internalNodes>
          <leafValues>
            -2.9276758432388306e-01 4.4090509414672852e-01</leafValues></_>
        <_>
          <internalNodes>
            0 -1 107 -1374843648 206441545 289429661 -289079220
            742457888 2107843073 58986622 710261743</internalNodes>
          <leafValues>
            -6.4481061697006226e-01 2.1325676143169403e-01</leafValues></_>
        <_>
          <internalNodes>
            0 -1 111 -609686870 1702231797 1875787362 242069240
            -747311675 1341519734 1093461503 -282636297</internalNodes>
          <leafValues>
            -3.3817964792251587e-01 4.1624638438224792e-01</leafValues></_>
        <_>
          <internalNodes>
            0 -1 4 1222813472 -2040655428 19104955 1628869944
            -1498401996 8945672 -1341814744 1668538678</internalNodes>
          <leafValues>
            -5.9260094165802002e-01 2.3373030126094818e-01</leafValues></_>
        <_>
          <internalNodes>
            0 -1 145 -163409079 -122793892 -1314846734 47334278
            -744462000 1914470414 -258072202 1763787266</internalNodes>
          <leafValues>
            -6.0038900375366211e-01 2.0371636748313904e-01</leafValues></_>
        <_>
          <internalNodes>
            0 -1 89 -1088954152 -77856620 1393217971 -741731767
            -393768785 -1107132032 -1584742296 176721968</internalNodes>
          <leafValues>
            -3.8022974133491516e-01 3.6342579126358032e-01</leafValues></_>
        <_>
          <internalNodes>
            0 -1 6 1474842764 1938215302 -801075018 -624279224
            -343760256 966560282 -224279548 1358854202</internalNodes>
          <leafValues>
            -4.6985167264938354e-01 3.1434988975524902e-01</leafValues></_></weakClassifiers></_>
    <!-- stage 6 -->
    <_>
      <maxWeakCount>10</maxWeakCount>
      <stageThreshold>-9.9651575088500977e-01</stageThreshold>
      <weakClassifiers>
        <_>
          <internalNodes>
            0 -1 44 -577523201 -790806348 -720348737 1912593687
            -101522733 278511769 -938956661 4193211</internalNodes>
          <leafValues>
            -6.7239528894424438e-01 2.2144111990928650e-01</leafValues></_>
        <_>
          <internalNodes>
            0 -1 113 -252643116 -265108606 -2147466342 1321803915
            -928464150 -123522993 -360457493 -546582593</internalNodes>
          <leafValues>
            -4.6409296989440918e-01 4.2036443948745728e-01</leafValues></_>
        <_>
          <internalNodes>
            0 -1 19 1705480103 -898661660 -49540 -672167930 1970642455
            1291807743 -268462210 -872954377</internalNodes>
          <leafValues>
            -3.9915448427200317e-01 4.3106508255004883e-01</leafValues></_>
        <_>
          <internalNodes>
            0 -1 37 -109457200 1029931288 -628654880 -581222009
            441501812 -771521870 134776573 -104086055</internalNodes>
          <leafValues>
            -5.7345676422119141e-01 3.2220393419265747e-01</leafValues></_>
        <_>
          <internalNodes>
            0 -1 31 1726631972 -161135752 247097606 -803213601
            -1570737593 -2130690036 -1257017891 -261035344</internalNodes>
          <leafValues>
            -5.4902565479278564e-01 3.0357229709625244e-01</leafValues></_>
        <_>
          <internalNodes>
            0 -1 24 -1315789819 -1619947199 -1795145720 991379713
            -393561502 1661042707 -117432314 324475937</internalNodes>
          <leafValues>
            -4.6197992563247681e-01 3.8656508922576904e-01</leafValues></_>
        <_>
          <internalNodes>
            0 -1 8 -111955751 -1735323239 -2146399097 777593905
            1673656458 2021722306 1908652347 -351600081</internalNodes>
          <leafValues>
            -4.3840381503105164e-01 3.7342393398284912e-01</leafValues></_>
        <_>
          <internalNodes>
            0 -1 81 468350971 -1205530624 269568522 -435807844
            -1716798976 -888068094 -510135356 474520913</internalNodes>
          <leafValues>
            -5.7155323028564453e-01 3.0004450678825378e-01</leafValues></_>
        <_>
          <internalNodes>
            0 -1 40 -211955211 -946812920 135288280 -939490940
            -1600091886 -293428848 1509986585 1110882607</internalNodes>
          <leafValues>
            -5.4923892021179199e-01 3.0971318483352661e-01</leafValues></_>
        <_>
          <internalNodes>
            0 -1 100 1964294111 1066833537 -670856705 -1685143550
            147093244 -570144726 -1006339348 1432842790</internalNodes>
          <leafValues>
            -5.7911843061447144e-01 2.8038024902343750e-01</leafValues></_></weakClassifiers></_>
    <!-- stage 7 -->
    <_>
      <maxWeakCount>11</maxWeakCount>
      <stageThreshold>-1.0651978254318237e+00</stageThreshold>
      <weakClassifiers>
        <_>
          <internalNodes>
            0 -1 20 -639108609 -141653874 -779007693 -712636414
            -905185025 1884326475 -1627127809 -143131821</internalNodes>
          <leafValues>
            -6.1653053760528564e-01 3.0794340372085571e-01</leafValues></_>
        <_>
          <internalNodes>
            0 -1 127 -67110689 -545284113 -1342263633 -914624532
            -50883346 -209731713 -2130739062 -824182305</internalNodes>
          <leafValues>
            -3.4188514947891235e-01 5.9461182355880737e-01</leafValues></_>
        <_>
          <internalNodes>
            0 -1 7 -171448929 -2145254008 949088627 1214693830
            1272048895 68313 2041019723 1364721231</internalNodes>
          <leafValues>
            -5.0413763523101807e-01 3.5019746422767639e-01</leafValues></_>
        <_>
          <internalNodes>
            0 -1 12 -895300910 -153974384 -469728816 -260202486
            1885729588 -1501372401 -148645166 -84018222</internalNodes>
          <leafValues>
            -7.1173328161239624e-01 2.3015117645263672e-01</leafValues></_>
        <_>
          <internalNodes>
            0 -1 140 -67109077 1869578035 -1074790466 1995833214
            -143411409 402620407 -281366614 -1300234261</internalNodes>
          <leafValues>
            -3.7418818473815918e-01 4.6422055363655090e-01</leafValues></_>
        <_>
          <internalNodes>
            0 -1 88 -656881622 -1584028478 -649755442 -842676593
            -528295365 -795242296 2065727173 -1134568562</internalNodes>
          <leafValues>
            -4.7680795192718506e-01 3.9724949002265930e-01</leafValues></_>
        <_>
          <internalNodes>
            0 -1 51 1787445334 1399427394 -2130702336 1212153898
            268566544 1115799616 1074152074 1493934414</internalNodes>
          <leafValues>
            -5.1000398397445679e-01 3.2629677653312683e-01</leafValues></_>
        <_>
          <internalNodes>
            0 -1 11 -77935801 147292495 1091684761 -1827059378 571056730
            19464203 -519863787 1431280543</internalNodes>
          <leafValues>
            -4.4823598861694336e-01 4.0007528662681580e-01</leafValues></_>
        <_>
          <internalNodes>
            0 -1 65 -134313217 2129591983 -268530945 1543225262 -82001
            -1644167193 -58871831 -523320178</internalNodes>
          <leafValues>
            -3.8651350140571594e-01 4.7221574187278748e-01</leafValues></_>
        <_>
          <internalNodes>
            0 -1 106 -1394023136 1328856884 -287948936 -1141260362
            125068492 -135315467 1786007995 129197275</internalNodes>
          <leafValues>
            -4.0143868327140808e-01 4.2505323886871338e-01</leafValues></_>
        <_>
          <internalNodes>
            0 -1 112 -507132990 1783767440 352538944 -566160669
            -611606426 1083842707 -1601527552 1084748395</internalNodes>
          <leafValues>
            -7.6081901788711548e-01 2.2333742678165436e-01</leafValues></_></weakClassifiers></_>
    <!-- stage 8 -->
    <_>
      <maxWeakCount>16</maxWeakCount>
      <stageThreshold>-1.2127606868743896e+00</stageThreshold>
      <weakClassifiers>
        <_>
          <internalNodes>
            0 -1 54 575453489 -1912609705 -1626892961 1066336207
            13344918 -1588658029 -1607367914 671657649</internalNodes>
          <leafValues>
            -6.9830757379531860e-01 -3.1078610569238663e-02</leafValues></_>
        <_>
          <internalNodes>
            0 -1 136 -267894552 812668112 559251457 -1652456315
            -535789412 520126603 1847285899 151979167</internalNodes>
          <leafValues>
            -3.6540794372558594e-01 3.7477275729179382e-01</leafValues></_>
        <_>
          <internalNodes>
            0 -1 75 242485248 1909588657 -1023454289 -767385074
            2066983791 -1281253237 998202192 -417019356</internalNodes>
          <leafValues>
            -6.9317775964736938e-01 1.7143692076206207e-01</leafValues></_>
        <_>
          <internalNodes>
            0 -1 56 1594691993 1366872073 -787890107 -574472184
            2063815105 612647072 -960470790 11024996</internalNodes>
          <leafValues>
            -4.6810880303382874e-01 2.4975199997425079e-01</leafValues></_>
        <_>
          <internalNodes>
            0 -1 47 -644677291 1879048451 269504970 -2045341440
            277604416 -788328041 -1606242192 -160108459</internalNodes>
          <leafValues>
            -4.2867964506149292e-01 2.9198664426803589e-01</leafValues></_>
        <_>
          <internalNodes>
            0 -1 58 278459848 -125809524 286267840 840188801 430475502
            -105381750 -2013132149 414712388</internalNodes>
          <leafValues>
            -4.2094269394874573e-01 2.9023766517639160e-01</leafValues></_>
        <_>
          <internalNodes>
            0 -1 27 280068600 -912139216 -1005318992 755925141 12615859
            -1316962101 470064375 -143023632</internalNodes>
          <leafValues>
            -4.0929889678955078e-01 3.0002292990684509e-01</leafValues></_>
        <_>
          <internalNodes>
            0 -1 90 678699231 1930199427 -939450278 -1056732135
            1245930013 -1610563446 1812020365 2112162628</internalNodes>
          <leafValues>
            -5.3047931194305420e-01 2.2229659557342529e-01</leafValues></_>
        <_>
          <internalNodes>
            0 -1 68 -113395751 1506803238 1862203253 -708583426 -8716473
            -1073741828 -813828426 -1157962192</internalNodes>
          <leafValues>
            -3.0524203181266785e-01 4.2399340867996216e-01</leafValues></_>
        <_>
          <internalNodes>
            0 -1 33 258488088 632997369 227579360 247813462 1084282987
            1639665794 444760131 314945007</internalNodes>
          <leafValues>
            -5.9109842777252197e-01 2.2225585579872131e-01</leafValues></_>
        <_>
          <internalNodes>
            0 -1 124 243848424 -1528815144 -179263260 -665448231
            750180480 -343572478 545427663 321470740</internalNodes>
          <leafValues>
            -4.7555616497993469e-01 2.4960753321647644e-01</leafValues></_>
        <_>
          <internalNodes>
            0 -1 0 -144077118 -344010385 -1342177601 -214212612
            1744139782 922501115 1342046068 -36176261</internalNodes>
          <leafValues>
            -3.0487352609634399e-01 4.1582041978836060e-01</leafValues></_>
        <_>
          <internalNodes>
            0 -1 118 -804785625 -1902638964 -1862196760 1254099016
            -1223683354 -2032547773 34372 1632946212</internalNodes>
          <leafValues>
            -6.3618129491806030e-01 2.0656350255012512e-01</leafValues></_>
        <_>
          <internalNodes>
            0 -1 34 -51118661 -101516292 -1073758405 2013212256
            -805317043 -134743203 2147483607 -671303855</internalNodes>
          <leafValues>
            -2.6444879174232483e-01 5.1559329032897949e-01</leafValues></_>
        <_>
          <internalNodes>
            0 -1 1 -829304396 2047259321 1410454798 1858556153
            -490097915 1113398150 -1299660698 371522230</internalNodes>
          <leafValues>
            -4.3869784474372864e-01 2.8711175918579102e-01</leafValues></_>
        <_>
          <internalNodes>
            0 -1 144 1949150282 -185271426 -1140851009 1316871967
            783570874 527433526 478099050 -38537794</internalNodes>
          <leafValues>
            -2.7082750201225281e-01 4.7639426589012146e-01</leafValues></_></weakClassifiers></_>
    <!-- stage 9 -->
    <_>
      <maxWeakCount>13</maxWeakCount>
      <stageThreshold>-7.9161095619201660e-01</stageThreshold>
      <weakClassifiers>
        <_>
          <internalNodes>
            0 -1 78 -670837805 -681968301 -1055532553 -39988217
            -436153863 -122488751 -1049823249 -240123954</internalNodes>
          <leafValues>
            -5.2690011262893677e-01 3.5562309622764587e-01</leafValues></_>
        <_>
          <internalNodes>
            0 -1 36 -1505236473 -976129441 1426681880 -552103645
            1670605610 286261381 1787003687 1939467195</internalNodes>
          <leafValues>
            -4.0417671203613281e-01 3.1981405615806580e-01</leafValues></_>
        <_>
          <internalNodes>
            0 -1 126 830053939 826621074 -2118040609 -1068309428
            948440362 939769867 -1991595854 1330118410</internalNodes>
          <leafValues>
            -4.5800900459289551e-01 2.7587997913360596e-01</leafValues></_>
        <_>
          <internalNodes>
            0 -1 57 -666579496 444635660 1082216601 1432470225 61180357
            -74842104 -2013263157 -386209533</internalNodes>
          <leafValues>
            -4.6051338315010071e-01 2.5940066576004028e-01</leafValues></_>
        <_>
          <internalNodes>
            0 -1 134 -1894019395 1682374861 269063679 89620620
            -1592844280 1557218473 -904748920 -903091242</internalNodes>
          <leafValues>
            -3.9395582675933838e-01 3.2091742753982544e-01</leafValues></_>
        <_>
          <internalNodes>
            0 -1 146 -302962986 -1732428054 2061301712 31715105
            -1669351515 132415286 -1745396325 938925866</internalNodes>
          <leafValues>
            -3.1023082137107849e-01 3.8536268472671509e-01</leafValues></_>
        <_>
          <internalNodes>
            0 -1 21 -671092770 -570506260 -268472668 -269801874
            1610608639 -1224818689 -536871345 -3244385</internalNodes>
          <leafValues>
            -2.7555018663406372e-01 4.5695734024047852e-01</leafValues></_>
        <_>
          <internalNodes>
            0 -1 48 -782509097 -433979129 1368555864 -500539022
            -1322156012 -69595123 -654266207 -68160191</internalNodes>
          <leafValues>
            -3.8176375627517700e-01 3.3192798495292664e-01</leafValues></_>
        <_>
          <internalNodes>
            0 -1 128 -1763940208 66998355 -250576555 897921141
            -1744659812 1048723681 -1303213602 -1266413415</internalNodes>
          <leafValues>
            -3.7966293096542358e-01 3.3251860737800598e-01</leafValues></_>
        <_>
          <internalNodes>
            0 -1 101 1448350983 1584840638 2008891359 1600077790
            1744039223 -539493443 1205827523 -973078657</internalNodes>
          <leafValues>
            -3.3515849709510803e-01 3.9217594265937805e-01</leafValues></_>
        <_>
          <internalNodes>
            0 -1 92 -57698017 -788496191 -767508267 2143584331
            -1199441155 -402604024 55069742 643866795</internalNodes>
          <leafValues>
            -4.6051064133644104e-01 3.0086421966552734e-01</leafValues></_>
        <_>
          <internalNodes>
            0 -1 93 -543898383 -881655024 1343488139 107599024
            1636915352 -117407663 -1954460918 1082423110</internalNodes>
          <leafValues>
            -4.5635440945625305e-01 2.9764780402183533e-01</leafValues></_>
        <_>
          <internalNodes>
            0 -1 139 -335487492 -495624 2063333503 -217891106
            -1910198806 1597992858 -1625889381 -551836274</internalNodes>
          <leafValues>
            -2.3896777629852295e-01 6.0357838869094849e-01</leafValues></_></weakClassifiers></_>
    <!-- stage 10 -->
    <_>
      <maxWeakCount>14</maxWeakCount>
      <stageThreshold>-1.2278919219970703e+00</stageThreshold>
      <weakClassifiers>
        <_>
          <internalNodes>
            0 -1 103 -238813281 -783040341 -801013593 -711995291
            -805256565 1610776704 -654057237 -135793885</internalNodes>
          <leafValues>
            -5.2886641025543213e-01 4.0669855475425720e-01</leafValues></_>
        <_>
          <internalNodes>
            0 -1 26 -2025123934 1380012360 1402080940 -854337007
            -207648257 -1577008630 -1165763121 -244392449</internalNodes>
          <leafValues>
            -4.6498218178749084e-01 2.9008701443672180e-01</leafValues></_>
        <_>
          <internalNodes>
            0 -1 123 1477761088 -1536100852 -2105120803 2094895245
            -114558472 -1283415869 -359933036 -674704776</internalNodes>
          <leafValues>
            -5.8485972881317139e-01 2.1165129542350769e-01</leafValues></_>
        <_>
          <internalNodes>
            0 -1 120 -903723280 1831499428 855633576 -2052251652
            778747128 120496124 654684127 374283403</internalNodes>
          <leafValues>
            -3.4803676605224609e-01 3.8412722945213318e-01</leafValues></_>
        <_>
          <internalNodes>
            0 -1 45 -1483627471 -469761707 -788487747 -595573479
            -2130383365 -1833909819 -1069544949 -548940899</internalNodes>
          <leafValues>
            -4.3739664554595947e-01 2.9244601726531982e-01</leafValues></_>
        <_>
          <internalNodes>
            0 -1 70 -72286472 -34652712 -557924630 -787001539 -548739254
            1137246074 382901649 50533959</internalNodes>
          <leafValues>
            -3.3229544758796692e-01 4.0528810024261475e-01</leafValues></_>
        <_>
          <internalNodes>
            0 -1 84 -541199398 -1629395710 -1761757273 -640815879
            -1117913160 -704741641 1731997642 996136603</internalNodes>
          <leafValues>
            -2.6097708940505981e-01 5.1938199996948242e-01</leafValues></_>
        <_>
          <internalNodes>
            0 -1 2 1968024551 1768882502 -654225015 1161864233 688945936
            705233131 1652617537 -169871369</internalNodes>
          <leafValues>
            -4.0271481871604919e-01 3.5180979967117310e-01</leafValues></_>
        <_>
          <internalNodes>
            0 -1 143 1094969615 1741648321 268992730 1657307264
            -1045503860 35856963 -221648928 1092989714</internalNodes>
          <leafValues>
            -4.0463244915008545e-01 3.5508263111114502e-01</leafValues></_>
        <_>
          <internalNodes>
            0 -1 94 -243149354 -905871104 -1073532348 2046842228
            998476471 939753710 319988096 -1854430989</internalNodes>
          <leafValues>
            -5.6601083278656006e-01 2.3976215720176697e-01</leafValues></_>
        <_>
          <internalNodes>
            0 -1 91 -184501767 -1019031359 -424619816 -1135603688
            1888009466 1084231888 1184920041 2058339853</internalNodes>
          <leafValues>
            -3.9281713962554932e-01 3.7447416782379150e-01</leafValues></_>
        <_>
          <internalNodes>
            0 -1 96 -420687144 -638611472 2025727767 833302140
            -1370110668 -1124075531 2119826847 521893100</internalNodes>
          <leafValues>
            -3.7371173501014709e-01 4.0704190731048584e-01</leafValues></_>
        <_>
          <internalNodes>
            0 -1 77 -1320627496 -770160552 17946266 156721209 -787955583
            -501055351 2072115260 -1162165441</internalNodes>
          <leafValues>
            -3.5409164428710938e-01 4.1631358861923218e-01</leafValues></_>
        <_>
          <internalNodes>
            0 -1 79 -252313936 1296498820 -254820194 -1656122911
            1665893383 33914880 -896550718 -1009802861</internalNodes>
          <leafValues>
            -3.8862472772598267e-01 4.1758686304092407e-01</leafValues></_></weakClassifiers></_>
    <!-- stage 11 -->
    <_>
      <maxWeakCount>17</maxWeakCount>
      <stageThreshold>-7.8285557031631470e-01</stageThreshold>
      <weakClassifiers>
        <_>
          <internalNodes>
            0 -1 62 -778635016 1363649684 268530573 1602847373
            -206000445 -204103666 -652432453 -1148515413</internalNodes>
          <leafValues>
            -4.9154013395309448e-01 1.9136691093444824e-01</leafValues></_>
        <_>
          <internalNodes>
            0 -1 97 261624343 -429944183 -779226737 -846554967
            -741639947 -893222902 -530857222 -8940609</internalNodes>
          <leafValues>
            -3.7516406178474426e-01 2.5207492709159851e-01</leafValues></_>
        <_>
          <internalNodes>
            0 -1 119 -518855990 -487734776 536972252 1741678676
            -247303522 1892647788 -1326398996 -1809983344</internalNodes>
          <leafValues>
            -3.6944562196731567e-01 2.6493886113166809e-01</leafValues></_>
        <_>
          <internalNodes>
            0 -1 108 -585592336 -176216 -8782302 -205652247 -1677922136
            -1073776658 1022549758 2128410486</internalNodes>
          <leafValues>
            -2.5059315562248230e-01 4.1183105111122131e-01</leafValues></_>
        <_>
          <internalNodes>
            0 -1 29 -1434269832 -90472190 -737525338 1928839272
            1638013184 271061130 964765329 -9944956</internalNodes>
          <leafValues>
            -5.4919224977493286e-01 2.3975519835948944e-01</leafValues></_>
        <_>
          <internalNodes>
            0 -1 86 693052199 -901393834 -1433461986 1225982352
            707735854 -197132256 1664711992 -152583701</internalNodes>
          <leafValues>
            -4.1461104154586792e-01 2.4954295158386230e-01</leafValues></_>
        <_>
          <internalNodes>
            0 -1 110 -19383617 823623689 536973787 -541108607 309104308
            189764271 1268818694 -467608236</internalNodes>
          <leafValues>
            -4.0722438693046570e-01 3.0120334029197693e-01</leafValues></_>
        <_>
          <internalNodes>
            0 -1 35 1407808734 -712790296 2142629548 1907441657
            1869894527 1935711475 335453719 434866831</internalNodes>
          <leafValues>
            -2.5448033213615417e-01 4.6578294038772583e-01</leafValues></_>
        <_>
          <internalNodes>
            0 -1 10 1901271056 1771573274 1348195264 -1277112087
            -1853718454 428933376 814915920 120265498</internalNodes>
          <leafValues>
            -4.6694368124008179e-01 2.2982220351696014e-01</leafValues></_>
        <_>
          <internalNodes>
            0 -1 30 -1638059702 -501661296 -1793306280 1644195988
            -1165424384 -788479953 -1726437082 1146548326</internalNodes>
          <leafValues>
            -6.7089331150054932e-01 1.6190524399280548e-01</leafValues></_>
        <_>
          <internalNodes>
            0 -1 83 -580331599 -1983029276 -1351159413 2103574515
            -1678391826 -1787314754 2096546978 -1575791284</internalNodes>
          <leafValues>
            -3.0448693037033081e-01 3.9278078079223633e-01</leafValues></_>
        <_>
          <internalNodes>
            0 -1 147 1531242572 394629577 285266584 80761040 118152219
            34474442 -880082785 1074544794</internalNodes>
          <leafValues>
            -4.3711468577384949e-01 2.4207958579063416e-01</leafValues></_>
        <_>
          <internalNodes>
            0 -1 133 -38216552 -544444572 -83921546 2143155936
            -1154331561 1473773565 1035966415 -1219787393</internalNodes>
          <leafValues>
            -2.3960317671298981e-01 4.7030901908874512e-01</leafValues></_>
        <_>
          <internalNodes>
            0 -1 15 -1345941317 482476812 -721413936 -502611065
            1108077443 601571480 428304470 1369877244</internalNodes>
          <leafValues>
            -4.5467802882194519e-01 2.5101697444915771e-01</leafValues></_>
        <_>
          <internalNodes>
            0 -1 14 1240608 -519991864 286278279 -549269172 1958777069
            -1835495292 1611278183 1368844385</internalNodes>
          <leafValues>
            -4.2058712244033813e-01 2.7054810523986816e-01</leafValues></_>
        <_>
          <internalNodes>
            0 -1 148 1658331789 342952080 -1051505331 -657926014
            1227434172 545450538 974283451 1142087691</internalNodes>
          <leafValues>
            -3.7921851873397827e-01 3.1575974822044373e-01</leafValues></_>
        <_>
          <internalNodes>
            0 -1 5 -2104283388 1757495307 -2126901500 923055953
            -922122190 17432842 -892703419 -1582605292</internalNodes>
          <leafValues>
            -5.3878033161163330e-01 2.2215889394283295e-01</leafValues></_></weakClassifiers></_></stages>
  <features>
    <_>
      <rect>
        0 0 4 7</rect></_>
    <_>
      <rect>
        0 1 1 1</rect></_>
    <_>
      <rect>
        0 1 3 5</rect></_>
    <_>
      <rect>
        0 1 6 7</rect></_>
    <_>
      <rect>
        0 1 6 8</rect></_>
    <_>
      <rect>
        0 1 7 7</rect></_>
    <_>
      <rect>
        0 2 1 1</rect></_>
    <_>
      <rect>
        0 2 3 3</rect></_>
    <_>
      <rect>
        0 2 6 4</rect></_>
    <_>
      <rect>
        0 4 4 6</rect></_>
    <_>
      <rect>
        0 5 1 1</rect></_>
    <_>
      <rect>
        0 5 2 3</rect></_>
    <_>
      <rect>
        0 8 4 5</rect></_>
    <_>
      <rect>
        0 15 4 3</rect></_>
    <_>
      <rect>
        0 22 1 1</rect></_>
    <_>
      <rect>
        1 0 2 4</rect></_>
    <_>
      <rect>
        1 1 3 4</rect></_>
    <_>
      <rect>
        1 1 8 7</rect></_>
    <_>
      <rect>
        1 2 2 2</rect></_>
    <_>
      <rect>
        1 3 3 5</rect></_>
    <_>
      <rect>
        1 5 3 2</rect></_>
    <_>
      <rect>
        1 5 3 3</rect></_>
    <_>
      <rect>
        1 6 5 6</rect></_>
    <_>
      <rect>
        1 16 4 3</rect></_>
    <_>
      <rect>
        1 21 1 1</rect></_>
    <_>
      <rect>
        2 0 3 7</rect></_>
    <_>
      <rect>
        2 0 7 4</rect></_>
    <_>
      <rect>
        2 1 6 4</rect></_>
    <_>
      <rect>
        2 3 3 2</rect></_>
    <_>
      <rect>
        2 9 3 3</rect></_>
    <_>
      <rect>
        2 19 3 2</rect></_>
    <_>
      <rect>
        3 0 7 8</rect></_>
    <_>
      <rect>
        3 4 3 2</rect></_>
    <_>
      <rect>
        3 4 4 5</rect></_>
    <_>
      <rect>
        3 6 2 2</rect></_>
    <_>
      <rect>
        3 14 1 1</rect></_>
    <_>
      <rect>
        4 0 2 2</rect></_>
    <_>
      <rect>
        4 0 7 3</rect></_>
    <_>
      <rect>
        4 1 4 7</rect></_>
    <_>
      <rect>
        4 15 1 1</rect></_>
    <_>
      <rect>
        4 22 2 1</rect></_>
    <_>
      <rect>
        5 0 2 3</rect></_>
    <_>
      <rect>
        5 3 3 7</rect></_>
    <_>
      <rect>
        5 3 4 4</rect></_>
    <_>
      <rect>
        5 7 3 1</rect></_>
    <_>
      <rect>
        5 7 5 2</rect></_>
    <_>
      <rect>
        5 12 2 1</rect></_>
    <_>
      <rect>
        5 13 4 4</rect></_>
    <_>
      <rect>
        5 15 5 3</rect></_>
    <_>
      <rect>
        5 16 2 3</rect></_>
    <_>
      <rect>
        5 17 1 1</rect></_>
    <_>
      <rect>
        5 19 1 1</rect></_>
    <_>
      <rect>
        6 0 4 6</rect></_>
    <_>
      <rect>
        6 1 4 3</rect></_>
    <_>
      <rect>
        6 4 3 5</rect></_>
    <_>
      <rect>
        6 6 4 2</rect></_>
    <_>
      <rect>
        6 8 2 1</rect></_>
    <_>
      <rect>
        6 10 2 3</rect></_>
    <_>
      <rect>
        6 12 2 1</rect></_>
    <_>
      <rect>
        6 14 2 1</rect></_>
    <_>
      <rect>
        6 15 1 1</rect></_>
    <_>
      <rect>
        6 15 2 1</rect></_>
    <_>
      <rect>
        6 16 1 1</rect></_>
    <_>
      <rect>
        6 20 1 1</rect></_>
    <_>
      <rect>
        7 0 4 7</rect></_>
    <_>
      <rect>
        7 5 3 2</rect></_>
    <_>
      <rect>
        7 5 4 3</rect></_>
    <_>
      <rect>
        7 10 2 2</rect></_>
    <_>
      <rect>
        7 12 2 2</rect></_>
    <_>
      <rect>
        7 13 2 4</rect></_>
    <_>
      <rect>
        7 15 1 1</rect></_>
    <_>
      <rect>
        7 16 4 3</rect></_>
    <_>
      <rect>
        7 18 2 1</rect></_>
    <_>
      <rect>
        8 1 2 6</rect></_>
    <_>
      <rect>
        8 2 3 5</rect></_>
    <_>
      <rect>
        8 3 4 7</rect></_>
    <_>
      <rect>
        8 4 3 3</rect></_>
    <_>
      <rect>
        8 5 1 1</rect></_>
    <_>
      <rect>
        8 5 3 2</rect></_>
    <_>
      <rect>
        8 6 3 4</rect></_>
    <_>
      <rect>
        8 12 3 4</rect></_>
    <_>
      <rect>
        8 13 4 4</rect></_>
    <_>
      <rect>
        8 14 3 1</rect></_>
    <_>
      <rect>
        8 17 2 1</rect></_>
    <_>
      <rect>
        8 19 2 1</rect></_>
    <_>
      <rect>
        8 19 2 2</rect></_>
    <_>
      <rect>
        9 1 5 7</rect></_>
    <_>
      <rect>
        9 2 3 5</rect></_>
    <_>
      <rect>
        9 8 2 1</rect></_>
    <_>
      <rect>
        9 12 1 1</rect></_>
    <_>
      <rect>
        10 0 3 7</rect></_>
    <_>
      <rect>
        10 5 4 3</rect></_>
    <_>
      <rect>
        10 6 4 2</rect></_>
    <_>
      <rect>
        10 14 3 2</rect></_>
    <_>
      <rect>
        10 15 5 3</rect></_>
    <_>
      <rect>
        10 16 4 3</rect></_>
    <_>
      <rect>
        10 18 2 1</rect></_>
    <_>
      <rect>
        11 0 1 1</rect></_>
    <_>
      <rect>
        11 1 3 7</rect></_>
    <_>
      <rect>
        11 1 4 3</rect></_>
    <_>
      <rect>
        11 5 3 2</rect></_>
    <_>
      <rect>
        12 0 3 8</rect></_>
    <_>
      <rect>
        12 3 3 4</rect></_>
    <_>
      <rect>
        12 5 1 2</rect></_>
    <_>
      <rect>
        12 9 3 2</rect></_>
    <_>
      <rect>
        12 12 2 1</rect></_>
    <_>
      <rect>
        12 20 1 1</rect></_>
    <_>
      <rect>
        13 1 4 7</rect></_>
    <_>
      <rect>
        13 11 2 1</rect></_>
    <_>
      <rect>
        13 12 1 1</rect></_>
    <_>
      <rect>
        13 12 2 3</rect></_>
    <_>
      <rect>
        13 19 1 1</rect></_>
    <_>
      <rect>
        13 19 4 2</rect></_>
    <_>
      <rect>
        14 9 2 3</rect></_>
    <_>
      <rect>
        14 12 1 1</rect></_>
    <_>
      <rect>
        14 12 2 2</rect></_>
    <_>
      <rect>
        14 13 1 1</rect></_>
    <_>
      <rect>
        14 14 2 1</rect></_>
    <_>
      <rect>
        14 16 3 3</rect></_>
    <_>
      <rect>
        14 19 2 2</rect></_>
    <_>
      <rect>
        14 20 1 1</rect></_>
    <_>
      <rect>
        15 0 3 4</rect></_>
    <_>
      <rect>
        15 2 3 5</rect></_>
    <_>
      <rect>
        15 10 2 3</rect></_>
    <_>
      <rect>
        15 20 1 1</rect></_>
    <_>
      <rect>
        16 0 3 8</rect></_>
    <_>
      <rect>
        16 2 3 6</rect></_>
    <_>
      <rect>
        16 5 2 2</rect></_>
    <_>
      <rect>
        16 13 1 1</rect></_>
    <_>
      <rect>
        16 14 1 1</rect></_>
    <_>
      <rect>
        16 14 3 3</rect></_>
    <_>
      <rect>
        16 16 1 1</rect></_>
    <_>
      <rect>
        16 17 1 1</rect></_>
    <_>
      <rect>
        16 19 1 1</rect></_>
    <_>
      <rect>
        17 3 2 3</rect></_>
    <_>
      <rect>
        17 4 2 2</rect></_>
    <_>
      <rect>
        17 14 1 1</rect></_>
    <_>
      <rect>
        17 15 1 1</rect></_>
    <_>
      <rect>
        17 16 1 1</rect></_>
    <_>
      <rect>
        17 17 1 1</rect></_>
    <_>
      <rect>
        18 4 2 4</rect></_>
    <_>
      <rect>
        18 14 1 1</rect></_>
    <_>
      <rect>
        18 16 1 1</rect></_>
    <_>
      <rect>
        19 2 2 3</rect></_>
    <_>
      <rect>
        19 11 1 2</rect></_>
    <_>
      <rect>
        20 1 1 1</rect></_>
    <_>
      <rect>
        21 14 1 1</rect></_>
    <_>
      <rect>
        22 8 1 1</rect></_>
    <_>
      <rect>
        22 19 1 1</rect></_></features></cascade>
</opencv_storage>
