<?xml version="1.0"?>
<opencv_storage>
<stage6>
  <maxWeakCount>10</maxWeakCount>
  <stageThreshold>-9.9651575088500977e-01</stageThreshold>
  <weakClassifiers>
    <_>
      <internalNodes>
        0 -1 4006 -577523201 -790806348 -720348737 1912593687 -101522733
        278511769 -938956661 4193211</internalNodes>
      <leafValues>
        -6.7239528894424438e-01 2.2144111990928650e-01</leafValues></_>
    <_>
      <internalNodes>
        0 -1 8387 -252643116 -265108606 -2147466342 1321803915
        -928464150 -123522993 -360457493 -546582593</internalNodes>
      <leafValues>
        -4.6409296989440918e-01 4.2036443948745728e-01</leafValues></_>
    <_>
      <internalNodes>
        0 -1 1002 1705480103 -898661660 -49540 -672167930 1970642455
        1291807743 -268462210 -872954377</internalNodes>
      <leafValues>
        -3.9915448427200317e-01 4.3106508255004883e-01</leafValues></_>
    <_>
      <internalNodes>
        0 -1 3050 -109457200 1029931288 -628654880 -581222009 441501812
        -771521870 134776573 -104086055</internalNodes>
      <leafValues>
        -5.7345676422119141e-01 3.2220393419265747e-01</leafValues></_>
    <_>
      <internalNodes>
        0 -1 2355 1726631972 -161135752 247097606 -803213601 -1570737593
        -2130690036 -1257017891 -261035344</internalNodes>
      <leafValues>
        -5.4902565479278564e-01 3.0357229709625244e-01</leafValues></_>
    <_>
      <internalNodes>
        0 -1 1584 -1315789819 -1619947199 -1795145720 991379713
        -393561502 1661042707 -117432314 324475937</internalNodes>
      <leafValues>
        -4.6197992563247681e-01 3.8656508922576904e-01</leafValues></_>
    <_>
      <internalNodes>
        0 -1 166 -111955751 -1735323239 -2146399097 777593905 1673656458
        2021722306 1908652347 -351600081</internalNodes>
      <leafValues>
        -4.3840381503105164e-01 3.7342393398284912e-01</leafValues></_>
    <_>
      <internalNodes>
        0 -1 5905 468350971 -1205530624 269568522 -435807844 -1716798976
        -888068094 -510135356 474520913</internalNodes>
      <leafValues>
        -5.7155323028564453e-01 3.0004450678825378e-01</leafValues></_>
    <_>
      <internalNodes>
        0 -1 3694 -211955211 -946812920 135288280 -939490940 -1600091886
        -293428848 1509986585 1110882607</internalNodes>
      <leafValues>
        -5.4923892021179199e-01 3.0971318483352661e-01</leafValues></_>
    <_>
      <internalNodes>
        0 -1 7161 1964294111 1066833537 -670856705 -1685143550 147093244
        -570144726 -1006339348 1432842790</internalNodes>
      <leafValues>
        -5.7911843061447144e-01 2.8038024902343750e-01</leafValues></_></weakClassifiers></stage6>
</opencv_storage>
