<?xml version="1.0"?>
<opencv_storage>
<stage1>
  <maxWeakCount>9</maxWeakCount>
  <stageThreshold>-1.1017560958862305e+00</stageThreshold>
  <weakClassifiers>
    <_>
      <internalNodes>
        0 -1 5142 -179061761 -46169705 -687829601 -36754021 -727538693
        -107767139 -1779921013 -73453909</internalNodes>
      <leafValues>
        -6.9747900962829590e-01 4.2067554593086243e-01</leafValues></_>
    <_>
      <internalNodes>
        0 -1 8566 -570451158 2136851295 -1358871167 2146816535 414658050
        546144275 684856074 -1140850757</internalNodes>
      <leafValues>
        -6.0600781440734863e-01 3.1461149454116821e-01</leafValues></_>
    <_>
      <internalNodes>
        0 -1 1515 -677907972 -27470570 1140851144 537066768 -347866814
        1967182340 -1018115382 -440346173</internalNodes>
      <leafValues>
        -6.4955371618270874e-01 2.9478296637535095e-01</leafValues></_>
    <_>
      <internalNodes>
        0 -1 1776 -41880858 -494386792 -784284288 -272105440 -918496795
        597722256 -1962820941 2106682247</internalNodes>
      <leafValues>
        -6.0764271020889282e-01 2.9127731919288635e-01</leafValues></_>
    <_>
      <internalNodes>
        0 -1 9270 -258419296 -236335980 -588578845 1597339252
        -1523257464 -167938052 85566958 58659215</internalNodes>
      <leafValues>
        -3.3520212769508362e-01 5.6537854671478271e-01</leafValues></_>
    <_>
      <internalNodes>
        0 -1 8096 -211756868 -180781072 -152109336 -651350292 -302998018
        -198952 750186472 464025048</internalNodes>
      <leafValues>
        -3.3995532989501953e-01 5.1185238361358643e-01</leafValues></_>
    <_>
      <internalNodes>
        0 -1 9054 -753403957 -1039630062 -805236656 -352370424
        1655658644 17170570 -1727807292 -943326866</internalNodes>
      <leafValues>
        -5.2324348688125610e-01 3.7694421410560608e-01</leafValues></_>
    <_>
      <internalNodes>
        0 -1 266 1317708750 1667216079 -1992224424 -2079471424 197133153
        -527724466 942730091 2063464447</internalNodes>
      <leafValues>
        -5.4621773958206177e-01 3.4314489364624023e-01</leafValues></_>
    <_>
      <internalNodes>
        0 -1 4810 -42410816 -542239572 1558085189 300363169 -445186364
        525303526 -1122536097 253957903</internalNodes>
      <leafValues>
        -3.8214886188507080e-01 5.1605498790740967e-01</leafValues></_></weakClassifiers></stage1>
</opencv_storage>
