<?xml version="1.0"?>
<opencv_storage>
<stage11>
  <maxWeakCount>17</maxWeakCount>
  <stageThreshold>-7.8285557031631470e-01</stageThreshold>
  <weakClassifiers>
    <_>
      <internalNodes>
        0 -1 4828 -778635016 1363649684 268530573 1602847373 -206000445
        -204103666 -652432453 -1148515413</internalNodes>
      <leafValues>
        -4.9154013395309448e-01 1.9136691093444824e-01</leafValues></_>
    <_>
      <internalNodes>
        0 -1 7000 261624343 -429944183 -779226737 -846554967 -741639947
        -893222902 -530857222 -8940609</internalNodes>
      <leafValues>
        -3.7516406178474426e-01 2.5207492709159851e-01</leafValues></_>
    <_>
      <internalNodes>
        0 -1 8488 -518855990 -487734776 536972252 1741678676 -247303522
        1892647788 -1326398996 -1809983344</internalNodes>
      <leafValues>
        -3.6944562196731567e-01 2.6493886113166809e-01</leafValues></_>
    <_>
      <internalNodes>
        0 -1 8084 -585592336 -176216 -8782302 -205652247 -1677922136
        -1073776658 1022549758 2128410486</internalNodes>
      <leafValues>
        -2.5059315562248230e-01 4.1183105111122131e-01</leafValues></_>
    <_>
      <internalNodes>
        0 -1 2032 -1434269832 -90472190 -737525338 1928839272 1638013184
        271061130 964765329 -9944956</internalNodes>
      <leafValues>
        -5.4919224977493286e-01 2.3975519835948944e-01</leafValues></_>
    <_>
      <internalNodes>
        0 -1 6078 693052199 -901393834 -1433461986 1225982352 707735854
        -197132256 1664711992 -152583701</internalNodes>
      <leafValues>
        -4.1461104154586792e-01 2.4954295158386230e-01</leafValues></_>
    <_>
      <internalNodes>
        0 -1 8102 -19383617 823623689 536973787 -541108607 309104308
        189764271 1268818694 -467608236</internalNodes>
      <leafValues>
        -4.0722438693046570e-01 3.0120334029197693e-01</leafValues></_>
    <_>
      <internalNodes>
        0 -1 2874 1407808734 -712790296 2142629548 1907441657 1869894527
        1935711475 335453719 434866831</internalNodes>
      <leafValues>
        -2.5448033213615417e-01 4.6578294038772583e-01</leafValues></_>
    <_>
      <internalNodes>
        0 -1 296 1901271056 1771573274 1348195264 -1277112087
        -1853718454 428933376 814915920 120265498</internalNodes>
      <leafValues>
        -4.6694368124008179e-01 2.2982220351696014e-01</leafValues></_>
    <_>
      <internalNodes>
        0 -1 2270 -1638059702 -501661296 -1793306280 1644195988
        -1165424384 -788479953 -1726437082 1146548326</internalNodes>
      <leafValues>
        -6.7089331150054932e-01 1.6190524399280548e-01</leafValues></_>
    <_>
      <internalNodes>
        0 -1 5957 -580331599 -1983029276 -1351159413 2103574515
        -1678391826 -1787314754 2096546978 -1575791284</internalNodes>
      <leafValues>
        -3.0448693037033081e-01 3.9278078079223633e-01</leafValues></_>
    <_>
      <internalNodes>
        0 -1 9955 1531242572 394629577 285266584 80761040 118152219
        34474442 -880082785 1074544794</internalNodes>
      <leafValues>
        -4.3711468577384949e-01 2.4207958579063416e-01</leafValues></_>
    <_>
      <internalNodes>
        0 -1 9085 -38216552 -544444572 -83921546 2143155936 -1154331561
        1473773565 1035966415 -1219787393</internalNodes>
      <leafValues>
        -2.3960317671298981e-01 4.7030901908874512e-01</leafValues></_>
    <_>
      <internalNodes>
        0 -1 811 -1345941317 482476812 -721413936 -502611065 1108077443
        601571480 428304470 1369877244</internalNodes>
      <leafValues>
        -4.5467802882194519e-01 2.5101697444915771e-01</leafValues></_>
    <_>
      <internalNodes>
        0 -1 792 1240608 -519991864 286278279 -549269172 1958777069
        -1835495292 1611278183 1368844385</internalNodes>
      <leafValues>
        -4.2058712244033813e-01 2.7054810523986816e-01</leafValues></_>
    <_>
      <internalNodes>
        0 -1 9995 1658331789 342952080 -1051505331 -657926014 1227434172
        545450538 974283451 1142087691</internalNodes>
      <leafValues>
        -3.7921851873397827e-01 3.1575974822044373e-01</leafValues></_>
    <_>
      <internalNodes>
        0 -1 118 -2104283388 1757495307 -2126901500 923055953 -922122190
        17432842 -892703419 -1582605292</internalNodes>
      <leafValues>
        -5.3878033161163330e-01 2.2215889394283295e-01</leafValues></_></weakClassifiers></stage11>
</opencv_storage>
