<?xml version="1.0"?>
<opencv_storage>
<stage3>
  <maxWeakCount>14</maxWeakCount>
  <stageThreshold>-8.1852668523788452e-01</stageThreshold>
  <weakClassifiers>
    <_>
      <internalNodes>
        0 -1 4329 -646725633 -1117974206 1157701591 64429397 -1039557985
        -930443196 1745567422 -1074821154</internalNodes>
      <leafValues>
        -6.3302749395370483e-01 8.2802549004554749e-02</leafValues></_>
    <_>
      <internalNodes>
        0 -1 8434 -750067500 -137739968 630272208 534201472 -527134040
        -92078037 545270746 715266048</internalNodes>
      <leafValues>
        -4.8968642950057983e-01 2.7533751726150513e-01</leafValues></_>
    <_>
      <internalNodes>
        0 -1 5375 -780938657 -527761384 285294613 -1836941232 1795608638
        1972670477 1440000336 -180297680</internalNodes>
      <leafValues>
        -4.8474895954132080e-01 2.8995496034622192e-01</leafValues></_>
    <_>
      <internalNodes>
        0 -1 883 -922557566 168304896 -771698611 1932461958 1226877447
        1669342208 1342350095 -371739742</internalNodes>
      <leafValues>
        -4.3250307440757751e-01 3.5111773014068604e-01</leafValues></_>
    <_>
      <internalNodes>
        0 -1 3595 -73081702 -118186248 -1344344403 -1686544669
        -551805306 1207787510 -587728901 -947173941</internalNodes>
      <leafValues>
        -2.7909281849861145e-01 5.3075647354125977e-01</leafValues></_>
    <_>
      <internalNodes>
        0 -1 110 -268972601 671051646 -1888514051 637347798 1987407866
        1711144949 -1073791010 -134746313</internalNodes>
      <leafValues>
        -3.3466705679893494e-01 4.3290555477142334e-01</leafValues></_>
    <_>
      <internalNodes>
        0 -1 7700 -212011644 1834419242 33607929 1828847746 2055352560
        -651558783 -1693915032 1476420128</internalNodes>
      <leafValues>
        -4.7291979193687439e-01 3.0925098061561584e-01</leafValues></_>
    <_>
      <internalNodes>
        0 -1 8823 1912700976 710542354 1359036419 -883052277 -226480638
        1115883650 713171602 -1228407925</internalNodes>
      <leafValues>
        -5.6122726202011108e-01 2.4610635638237000e-01</leafValues></_>
    <_>
      <internalNodes>
        0 -1 9064 -29831984 -110559244 -269029512 -68321408 -4866381
        -2022342859 125679598 -1346434349</internalNodes>
      <leafValues>
        -2.9343828558921814e-01 4.9728894233703613e-01</leafValues></_>
    <_>
      <internalNodes>
        0 -1 5978 1879438300 -53349496 -251349588 -442724202 -461118972
        809009288 -1073708528 -735000150</internalNodes>
      <leafValues>
        -4.6047821640968323e-01 3.1754711270332336e-01</leafValues></_>
    <_>
      <internalNodes>
        0 -1 4374 -1073179404 -264761312 -671032836 1562415496
        -1610049399 -761757536 -92043119 -1121940516</internalNodes>
      <leafValues>
        -6.4566570520401001e-01 2.2983019053936005e-01</leafValues></_>
    <_>
      <internalNodes>
        0 -1 4795 -738147944 -66973360 1358987599 -645119219 -494248472
        -1163155215 713875867 -1414495438</internalNodes>
      <leafValues>
        -3.7685295939445496e-01 4.1505861282348633e-01</leafValues></_>
    <_>
      <internalNodes>
        0 -1 4246 -613491470 1495095277 1828454070 -680390967
        -1359161728 -1073807492 661407311 524488543</internalNodes>
      <leafValues>
        -3.2121288776397705e-01 4.5071592926979065e-01</leafValues></_>
    <_>
      <internalNodes>
        0 -1 691 -683288169 -802842146 16800204 1015024906 -1467577390
        -234772478 671583096 1692912395</internalNodes>
      <leafValues>
        -4.6935337781906128e-01 3.1587693095207214e-01</leafValues></_></weakClassifiers></stage3>
</opencv_storage>
