<?xml version="1.0"?>
<opencv_storage>
<stage0>
  <maxWeakCount>6</maxWeakCount>
  <stageThreshold>-9.2351514101028442e-01</stageThreshold>
  <weakClassifiers>
    <_>
      <internalNodes>
        0 -1 7509 -144703489 -14823209 352449567 2141149671 718092987
        -1081237354 843782719 2011110075</internalNodes>
      <leafValues>
        -8.2546198368072510e-01 5.7794678211212158e-01</leafValues></_>
    <_>
      <internalNodes>
        0 -1 3862 -1411932737 -1084292973 -2097146786 1057950862
        -1153322754 -73719679 706710415 1000286762</internalNodes>
      <leafValues>
        -7.7593791484832764e-01 3.9989197254180908e-01</leafValues></_>
    <_>
      <internalNodes>
        0 -1 1173 -758456624 2084667984 -1055796903 1573253522
        -767367170 -125767550 -108594449 -657453</internalNodes>
      <leafValues>
        -6.5244871377944946e-01 4.2429971694946289e-01</leafValues></_>
    <_>
      <internalNodes>
        0 -1 5598 -84574026 1964212635 -1828351777 -1088744938 34187950
        -661923672 -1178096742 1072605102</internalNodes>
      <leafValues>
        -5.6652438640594482e-01 4.3924194574356079e-01</leafValues></_>
    <_>
      <internalNodes>
        0 -1 7651 1544814912 1406472641 318767253 -169934825 -1203445592
        444596234 1100527646 798705695</internalNodes>
      <leafValues>
        -5.7898497581481934e-01 4.5700401067733765e-01</leafValues></_>
    <_>
      <internalNodes>
        0 -1 4813 -720857712 -654143360 268435548 1359499338 -670520958
        -1879011198 33557259 1895956624</internalNodes>
      <leafValues>
        -6.0465103387832642e-01 4.3408757448196411e-01</leafValues></_></weakClassifiers></stage0>
</opencv_storage>
