<?xml version="1.0"?>
<opencv_storage>
<stage5>
  <maxWeakCount>14</maxWeakCount>
  <stageThreshold>-1.0497629642486572e+00</stageThreshold>
  <weakClassifiers>
    <_>
      <internalNodes>
        0 -1 4577 -640303969 -250306511 -2124381127 -710701807
        -1325229671 -612249584 -535788365 -204042499</internalNodes>
      <leafValues>
        -5.3992742300033569e-01 2.3869346082210541e-01</leafValues></_>
    <_>
      <internalNodes>
        0 -1 8427 -209792003 2008525021 4319768 -904642086 -1040138104
        1067028493 -385312600 406880256</internalNodes>
      <leafValues>
        -4.4603368639945984e-01 3.0242261290550232e-01</leafValues></_>
    <_>
      <internalNodes>
        0 -1 1622 -275314838 -836950400 -1588592059 -174521176 729859104
        1401094178 705560067 -19427533</internalNodes>
      <leafValues>
        -3.6961019039154053e-01 3.7421405315399170e-01</leafValues></_>
    <_>
      <internalNodes>
        0 -1 4233 -250940672 -234829875 1900024100 1293087568 1720171022
        -6770455 2094970880 -118686792</internalNodes>
      <leafValues>
        -4.5414713025093079e-01 2.8479209542274475e-01</leafValues></_>
    <_>
      <internalNodes>
        0 -1 7058 578867410 -57781744 -1174347566 -16383486 -762649456
        -890535422 -511544972 2115750600</internalNodes>
      <leafValues>
        -5.3895765542984009e-01 2.9165297746658325e-01</leafValues></_>
    <_>
      <internalNodes>
        0 -1 3086 -1927202975 -2079592231 1762996533 150209997
        -267145136 268595522 78221446 -572199979</internalNodes>
      <leafValues>
        -4.0249994397163391e-01 3.1783923506736755e-01</leafValues></_>
    <_>
      <internalNodes>
        0 -1 5916 -1835868963 -1703215019 -2147446509 -1571815215
        -1986887465 -643104608 -486489583 739379235</internalNodes>
      <leafValues>
        -4.1811138391494751e-01 3.2740432024002075e-01</leafValues></_>
    <_>
      <internalNodes>
        0 -1 9476 -1016346624 -1951797532 -277938253 -262291 2147272616
        486473575 777377451 488058059</internalNodes>
      <leafValues>
        -2.9276758432388306e-01 4.4090509414672852e-01</leafValues></_>
    <_>
      <internalNodes>
        0 -1 7862 -1374843648 206441545 289429661 -289079220 742457888
        2107843073 58986622 710261743</internalNodes>
      <leafValues>
        -6.4481061697006226e-01 2.1325676143169403e-01</leafValues></_>
    <_>
      <internalNodes>
        0 -1 8180 -609686870 1702231797 1875787362 242069240 -747311675
        1341519734 1093461503 -282636297</internalNodes>
      <leafValues>
        -3.3817964792251587e-01 4.1624638438224792e-01</leafValues></_>
    <_>
      <internalNodes>
        0 -1 111 1222813472 -2040655428 19104955 1628869944 -1498401996
        8945672 -1341814744 1668538678</internalNodes>
      <leafValues>
        -5.9260094165802002e-01 2.3373030126094818e-01</leafValues></_>
    <_>
      <internalNodes>
        0 -1 9708 -163409079 -122793892 -1314846734 47334278 -744462000
        1914470414 -258072202 1763787266</internalNodes>
      <leafValues>
        -6.0038900375366211e-01 2.0371636748313904e-01</leafValues></_>
    <_>
      <internalNodes>
        0 -1 6370 -1088954152 -77856620 1393217971 -741731767 -393768785
        -1107132032 -1584742296 176721968</internalNodes>
      <leafValues>
        -3.8022974133491516e-01 3.6342579126358032e-01</leafValues></_>
    <_>
      <internalNodes>
        0 -1 128 1474842764 1938215302 -801075018 -624279224 -343760256
        966560282 -224279548 1358854202</internalNodes>
      <leafValues>
        -4.6985167264938354e-01 3.1434988975524902e-01</leafValues></_></weakClassifiers></stage5>
</opencv_storage>
