<?xml version="1.0"?>
<opencv_storage>
<stage10>
  <maxWeakCount>44</maxWeakCount>
  <stageThreshold>-1.1432746648788452e+00</stageThreshold>
  <weakClassifiers>
    <_>
      <internalNodes>
        0 -1 86440 1.9125189632177353e-02</internalNodes>
      <leafValues>
        -6.5156352519989014e-01 1.4654571190476418e-02</leafValues></_>
    <_>
      <internalNodes>
        0 -1 168666 2.4305842816829681e-02</internalNodes>
      <leafValues>
        -4.0804520249366760e-01 2.1814478933811188e-01</leafValues></_>
    <_>
      <internalNodes>
        0 -1 3096 -1.1006778106093407e-02</internalNodes>
      <leafValues>
        -5.6645768880844116e-01 1.2772098183631897e-01</leafValues></_>
    <_>
      <internalNodes>
        0 -1 30812 3.2561384141445160e-02</internalNodes>
      <leafValues>
        -9.6958577632904053e-02 5.3150898218154907e-01</leafValues></_>
    <_>
      <internalNodes>
        0 -1 83940 -6.4874380826950073e-02</internalNodes>
      <leafValues>
        -5.6846171617507935e-01 1.0183308273553848e-01</leafValues></_>
    <_>
      <internalNodes>
        0 -1 55921 3.8947362918406725e-04</internalNodes>
      <leafValues>
        1.1717430502176285e-01 -3.4334740042686462e-01</leafValues></_>
    <_>
      <internalNodes>
        0 -1 112984 1.4218033291399479e-02</internalNodes>
      <leafValues>
        8.0481752753257751e-02 -5.7063627243041992e-01</leafValues></_>
    <_>
      <internalNodes>
        0 -1 74362 -3.1914547085762024e-02</internalNodes>
      <leafValues>
        -6.0567349195480347e-01 6.1053950339555740e-02</leafValues></_>
    <_>
      <internalNodes>
        0 -1 116744 -3.2735572312958539e-04</internalNodes>
      <leafValues>
        2.0754994451999664e-01 -2.2224839031696320e-01</leafValues></_>
    <_>
      <internalNodes>
        0 -1 135035 -3.8561839610338211e-03</internalNodes>
      <leafValues>
        2.9047295451164246e-01 -1.5962752699851990e-01</leafValues></_>
    <_>
      <internalNodes>
        0 -1 126909 -1.0700535494834185e-03</internalNodes>
      <leafValues>
        3.4580579400062561e-01 -1.1160256713628769e-01</leafValues></_>
    <_>
      <internalNodes>
        0 -1 143942 7.1172980824485421e-04</internalNodes>
      <leafValues>
        1.4651915431022644e-01 -2.8932002186775208e-01</leafValues></_>
    <_>
      <internalNodes>
        0 -1 112800 4.1702076792716980e-02</internalNodes>
      <leafValues>
        6.5510675311088562e-02 -6.5153235197067261e-01</leafValues></_>
    <_>
      <internalNodes>
        0 -1 98905 1.4714936260133982e-03</internalNodes>
      <leafValues>
        1.2186802923679352e-01 -2.9873806238174438e-01</leafValues></_>
    <_>
      <internalNodes>
        0 -1 181541 1.4659985899925232e-03</internalNodes>
      <leafValues>
        -1.0096557438373566e-01 4.4670832157135010e-01</leafValues></_>
    <_>
      <internalNodes>
        0 -1 133027 1.1056463699787855e-03</internalNodes>
      <leafValues>
        8.6112409830093384e-02 -4.9984511733055115e-01</leafValues></_>
    <_>
      <internalNodes>
        0 -1 14681 1.3969079009257257e-04</internalNodes>
      <leafValues>
        1.5298050642013550e-01 -2.4898944795131683e-01</leafValues></_>
    <_>
      <internalNodes>
        0 -1 141062 -3.3575206180103123e-04</internalNodes>
      <leafValues>
        -2.6385426521301270e-01 1.4990189671516418e-01</leafValues></_>
    <_>
      <internalNodes>
        0 -1 15611 -1.5161657333374023e-01</internalNodes>
      <leafValues>
        -8.6314129829406738e-01 3.9671704173088074e-02</leafValues></_>
    <_>
      <internalNodes>
        0 -1 12821 7.6411992311477661e-02</internalNodes>
      <leafValues>
        3.7567548453807831e-02 -7.4507492780685425e-01</leafValues></_>
    <_>
      <internalNodes>
        0 -1 827 2.0647663623094559e-02</internalNodes>
      <leafValues>
        7.7884323894977570e-02 -4.1475942730903625e-01</leafValues></_>
    <_>
      <internalNodes>
        0 -1 83671 -1.7960134893655777e-02</internalNodes>
      <leafValues>
        -4.8163279891014099e-01 6.9671906530857086e-02</leafValues></_>
    <_>
      <internalNodes>
        0 -1 112477 1.2935751117765903e-02</internalNodes>
      <leafValues>
        -2.4503923952579498e-01 1.3904903829097748e-01</leafValues></_>
    <_>
      <internalNodes>
        0 -1 68067 1.6863157507032156e-03</internalNodes>
      <leafValues>
        -6.3697040081024170e-02 6.3538771867752075e-01</leafValues></_>
    <_>
      <internalNodes>
        0 -1 19124 1.1945290490984917e-02</internalNodes>
      <leafValues>
        -9.6184737980365753e-02 3.1636083126068115e-01</leafValues></_>
    <_>
      <internalNodes>
        0 -1 179283 1.9387459615245461e-03</internalNodes>
      <leafValues>
        -9.4208143651485443e-02 3.7222045660018921e-01</leafValues></_>
    <_>
      <internalNodes>
        0 -1 2506 1.4241004828363657e-03</internalNodes>
      <leafValues>
        1.2626312673091888e-01 -2.6800182461738586e-01</leafValues></_>
    <_>
      <internalNodes>
        0 -1 83863 -7.0696100592613220e-02</internalNodes>
      <leafValues>
        -6.4958345890045166e-01 4.6149391680955887e-02</leafValues></_>
    <_>
      <internalNodes>
        0 -1 91412 -2.5714822113513947e-03</internalNodes>
      <leafValues>
        3.8248810172080994e-01 -9.0337045490741730e-02</leafValues></_>
    <_>
      <internalNodes>
        0 -1 93516 6.3447467982769012e-02</internalNodes>
      <leafValues>
        7.3818176984786987e-02 -4.8135605454444885e-01</leafValues></_>
    <_>
      <internalNodes>
        0 -1 40474 -6.4005583524703979e-02</internalNodes>
      <leafValues>
        -7.1743714809417725e-01 3.9248306304216385e-02</leafValues></_>
    <_>
      <internalNodes>
        0 -1 153269 -5.5645679822191596e-04</internalNodes>
      <leafValues>
        4.0816661715507507e-01 -9.5817089080810547e-02</leafValues></_>
    <_>
      <internalNodes>
        0 -1 19236 -1.6311490908265114e-03</internalNodes>
      <leafValues>
        -3.8856583833694458e-01 7.9802557826042175e-02</leafValues></_>
    <_>
      <internalNodes>
        0 -1 25921 3.8348864763975143e-03</internalNodes>
      <leafValues>
        -7.0268444716930389e-02 4.9548292160034180e-01</leafValues></_>
    <_>
      <internalNodes>
        0 -1 158610 -2.7306247502565384e-03</internalNodes>
      <leafValues>
        -2.5171616673469543e-01 1.3704438507556915e-01</leafValues></_>
    <_>
      <internalNodes>
        0 -1 190715 -6.3356407918035984e-04</internalNodes>
      <leafValues>
        -2.2226467728614807e-01 1.5103155374526978e-01</leafValues></_>
    <_>
      <internalNodes>
        0 -1 186827 4.8395274206995964e-03</internalNodes>
      <leafValues>
        3.6168184131383896e-02 -8.7381231784820557e-01</leafValues></_>
    <_>
      <internalNodes>
        0 -1 170693 7.6823134440928698e-04</internalNodes>
      <leafValues>
        -6.6733159124851227e-02 5.6787675619125366e-01</leafValues></_>
    <_>
      <internalNodes>
        0 -1 66238 1.8290665745735168e-01</internalNodes>
      <leafValues>
        -3.2482754439115524e-02 8.2284218072891235e-01</leafValues></_>
    <_>
      <internalNodes>
        0 -1 127551 3.2546478323638439e-03</internalNodes>
      <leafValues>
        1.2906745076179504e-01 -3.0815264582633972e-01</leafValues></_>
    <_>
      <internalNodes>
        0 -1 164839 3.1866524368524551e-03</internalNodes>
      <leafValues>
        8.2833454012870789e-02 -4.1461020708084106e-01</leafValues></_>
    <_>
      <internalNodes>
        0 -1 179162 1.8659291090443730e-03</internalNodes>
      <leafValues>
        -1.0349811613559723e-01 3.8199603557586670e-01</leafValues></_>
    <_>
      <internalNodes>
        0 -1 149430 -1.2106369249522686e-03</internalNodes>
      <leafValues>
        1.7001345753669739e-01 -2.2194054722785950e-01</leafValues></_>
    <_>
      <internalNodes>
        0 -1 116809 -4.3523977510631084e-03</internalNodes>
      <leafValues>
        3.6168375611305237e-01 -1.0590757429599762e-01</leafValues></_></weakClassifiers></stage10>
</opencv_storage>
