<?xml version="1.0"?>
<opencv_storage>
<stage3>
  <maxWeakCount>70</maxWeakCount>
  <stageThreshold>-1.5879911184310913e+00</stageThreshold>
  <weakClassifiers>
    <_>
      <internalNodes>
        0 -1 82042 8.5725858807563782e-03</internalNodes>
      <leafValues>
        -5.4312354326248169e-01 -1.4374646544456482e-01</leafValues></_>
    <_>
      <internalNodes>
        0 -1 314 4.8673197627067566e-02</internalNodes>
      <leafValues>
        -2.5150996446609497e-01 1.7028009891510010e-01</leafValues></_>
    <_>
      <internalNodes>
        0 -1 100976 1.6564156860113144e-02</internalNodes>
      <leafValues>
        -2.4550119042396545e-01 1.5366378426551819e-01</leafValues></_>
    <_>
      <internalNodes>
        0 -1 101966 -3.6389347165822983e-02</internalNodes>
      <leafValues>
        -4.3944263458251953e-01 1.3075691461563110e-01</leafValues></_>
    <_>
      <internalNodes>
        0 -1 77601 -4.9291718751192093e-03</internalNodes>
      <leafValues>
        3.7636381387710571e-01 -1.0615108907222748e-01</leafValues></_>
    <_>
      <internalNodes>
        0 -1 38472 6.0014966875314713e-02</internalNodes>
      <leafValues>
        -1.2281621992588043e-01 2.6698020100593567e-01</leafValues></_>
    <_>
      <internalNodes>
        0 -1 86911 -1.9847811199724674e-03</internalNodes>
      <leafValues>
        3.7499397993087769e-01 -9.4309292733669281e-02</leafValues></_>
    <_>
      <internalNodes>
        0 -1 85503 2.8417747467756271e-02</internalNodes>
      <leafValues>
        -1.2640488147735596e-01 3.1418055295944214e-01</leafValues></_>
    <_>
      <internalNodes>
        0 -1 98206 7.1478933095932007e-03</internalNodes>
      <leafValues>
        9.0703144669532776e-02 -3.4475359320640564e-01</leafValues></_>
    <_>
      <internalNodes>
        0 -1 38808 -6.3694091513752937e-03</internalNodes>
      <leafValues>
        -5.9201389551162720e-01 5.0669234246015549e-02</leafValues></_>
    <_>
      <internalNodes>
        0 -1 85846 1.2707582674920559e-02</internalNodes>
      <leafValues>
        -7.4751183390617371e-02 3.8035422563552856e-01</leafValues></_>
    <_>
      <internalNodes>
        0 -1 31429 1.1015555262565613e-01</internalNodes>
      <leafValues>
        5.2581883966922760e-02 -4.8563024401664734e-01</leafValues></_>
    <_>
      <internalNodes>
        0 -1 93816 1.7443567514419556e-02</internalNodes>
      <leafValues>
        -1.6058959066867828e-01 2.0320986211299896e-01</leafValues></_>
    <_>
      <internalNodes>
        0 -1 144271 -2.8690371662378311e-02</internalNodes>
      <leafValues>
        3.5628527402877808e-01 -6.9492325186729431e-02</leafValues></_>
    <_>
      <internalNodes>
        0 -1 147472 -1.0976401390507817e-03</internalNodes>
      <leafValues>
        3.3390694856643677e-01 -7.2552174329757690e-02</leafValues></_>
    <_>
      <internalNodes>
        0 -1 79061 4.7904439270496368e-03</internalNodes>
      <leafValues>
        7.9953044652938843e-02 -3.0691915750503540e-01</leafValues></_>
    <_>
      <internalNodes>
        0 -1 113422 6.2229391187429428e-03</internalNodes>
      <leafValues>
        5.7753000408411026e-02 -4.8540011048316956e-01</leafValues></_>
    <_>
      <internalNodes>
        0 -1 8603 1.7044579610228539e-02</internalNodes>
      <leafValues>
        -9.0521417558193207e-02 2.9925045371055603e-01</leafValues></_>
    <_>
      <internalNodes>
        0 -1 151131 6.7353679332882166e-04</internalNodes>
      <leafValues>
        -8.0221191048622131e-02 3.0802300572395325e-01</leafValues></_>
    <_>
      <internalNodes>
        0 -1 98212 8.5475631058216095e-03</internalNodes>
      <leafValues>
        4.5415032655000687e-02 -5.9961557388305664e-01</leafValues></_>
    <_>
      <internalNodes>
        0 -1 53957 1.0164918005466461e-01</internalNodes>
      <leafValues>
        3.1419724225997925e-02 -5.8663910627365112e-01</leafValues></_>
    <_>
      <internalNodes>
        0 -1 102293 -8.9871548116207123e-03</internalNodes>
      <leafValues>
        3.0853509902954102e-01 -7.9287737607955933e-02</leafValues></_>
    <_>
      <internalNodes>
        0 -1 12526 -5.1394890993833542e-02</internalNodes>
      <leafValues>
        -5.7382327318191528e-01 4.6181652694940567e-02</leafValues></_>
    <_>
      <internalNodes>
        0 -1 116543 8.5353804752230644e-03</internalNodes>
      <leafValues>
        -8.0268256366252899e-02 2.9194557666778564e-01</leafValues></_>
    <_>
      <internalNodes>
        0 -1 86419 -1.6709305346012115e-03</internalNodes>
      <leafValues>
        2.5515535473823547e-01 -9.1836333274841309e-02</leafValues></_>
    <_>
      <internalNodes>
        0 -1 161264 -2.1308416035026312e-04</internalNodes>
      <leafValues>
        -2.1514160931110382e-01 1.0435585677623749e-01</leafValues></_>
    <_>
      <internalNodes>
        0 -1 161334 1.0496990580577403e-04</internalNodes>
      <leafValues>
        1.2091735750436783e-01 -1.8582540750503540e-01</leafValues></_>
    <_>
      <internalNodes>
        0 -1 65773 -2.2995064500719309e-03</internalNodes>
      <leafValues>
        1.9092424213886261e-01 -1.0526582598686218e-01</leafValues></_>
    <_>
      <internalNodes>
        0 -1 116070 2.2454105317592621e-02</internalNodes>
      <leafValues>
        4.6862646937370300e-02 -4.1729399561882019e-01</leafValues></_>
    <_>
      <internalNodes>
        0 -1 103958 6.3433706760406494e-02</internalNodes>
      <leafValues>
        -6.6131159663200378e-02 3.4322577714920044e-01</leafValues></_>
    <_>
      <internalNodes>
        0 -1 124942 2.6714123785495758e-02</internalNodes>
      <leafValues>
        -1.1982558667659760e-01 2.1529155969619751e-01</leafValues></_>
    <_>
      <internalNodes>
        0 -1 1092 -1.0147007554769516e-01</internalNodes>
      <leafValues>
        -2.8971201181411743e-01 8.3092980086803436e-02</leafValues></_>
    <_>
      <internalNodes>
        0 -1 162099 -5.2437128033488989e-05</internalNodes>
      <leafValues>
        -1.7449626326560974e-01 1.0681058466434479e-01</leafValues></_>
    <_>
      <internalNodes>
        0 -1 96174 -8.1088306615129113e-04</internalNodes>
      <leafValues>
        2.5350585579872131e-01 -7.6920352876186371e-02</leafValues></_>
    <_>
      <internalNodes>
        0 -1 20254 -8.4025882184505463e-02</internalNodes>
      <leafValues>
        -6.7787605524063110e-01 3.4171689301729202e-02</leafValues></_>
    <_>
      <internalNodes>
        0 -1 68123 -7.7931676059961319e-04</internalNodes>
      <leafValues>
        3.7242349982261658e-01 -5.8850795030593872e-02</leafValues></_>
    <_>
      <internalNodes>
        0 -1 13368 6.4711552113294601e-03</internalNodes>
      <leafValues>
        4.6823266893625259e-02 -4.2899316549301147e-01</leafValues></_>
    <_>
      <internalNodes>
        0 -1 68909 -5.2309699822217226e-04</internalNodes>
      <leafValues>
        3.1559151411056519e-01 -7.2080850601196289e-02</leafValues></_>
    <_>
      <internalNodes>
        0 -1 106270 7.7862944453954697e-03</internalNodes>
      <leafValues>
        4.0782015770673752e-02 -4.9246078729629517e-01</leafValues></_>
    <_>
      <internalNodes>
        0 -1 136038 -2.8333906084299088e-02</internalNodes>
      <leafValues>
        4.4569084048271179e-01 -4.9316558986902237e-02</leafValues></_>
    <_>
      <internalNodes>
        0 -1 108414 -1.8260370939970016e-02</internalNodes>
      <leafValues>
        2.0834760367870331e-01 -1.2466505169868469e-01</leafValues></_>
    <_>
      <internalNodes>
        0 -1 104875 4.5814709737896919e-03</internalNodes>
      <leafValues>
        9.7433917224407196e-02 -1.9711296260356903e-01</leafValues></_>
    <_>
      <internalNodes>
        0 -1 1 1.3396030408330262e-04</internalNodes>
      <leafValues>
        8.6031772196292877e-02 -2.1233436465263367e-01</leafValues></_>
    <_>
      <internalNodes>
        0 -1 122410 -2.7182660414837301e-04</internalNodes>
      <leafValues>
        -2.7552351355552673e-01 6.4777024090290070e-02</leafValues></_>
    <_>
      <internalNodes>
        0 -1 110705 -8.1420000642538071e-03</internalNodes>
      <leafValues>
        2.5060009956359863e-01 -7.4195772409439087e-02</leafValues></_>
    <_>
      <internalNodes>
        0 -1 9171 4.0088313817977905e-01</internalNodes>
      <leafValues>
        -4.7201056033372879e-02 3.5131123661994934e-01</leafValues></_>
    <_>
      <internalNodes>
        0 -1 68911 3.2712909160181880e-04</internalNodes>
      <leafValues>
        1.2610685825347900e-01 -1.6418312489986420e-01</leafValues></_>
    <_>
      <internalNodes>
        0 -1 68547 -3.3302395604550838e-04</internalNodes>
      <leafValues>
        2.3792944848537445e-01 -7.7947117388248444e-02</leafValues></_>
    <_>
      <internalNodes>
        0 -1 66848 -3.1534984707832336e-02</internalNodes>
      <leafValues>
        -5.2514594793319702e-01 3.5640921443700790e-02</leafValues></_>
    <_>
      <internalNodes>
        0 -1 121300 1.9938242621719837e-03</internalNodes>
      <leafValues>
        -4.2236316949129105e-02 4.2911380529403687e-01</leafValues></_>
    <_>
      <internalNodes>
        0 -1 94297 -1.2931261211633682e-02</internalNodes>
      <leafValues>
        3.3724391460418701e-01 -4.4238820672035217e-02</leafValues></_>
    <_>
      <internalNodes>
        0 -1 123866 -1.5166525263339281e-03</internalNodes>
      <leafValues>
        1.5148404240608215e-01 -1.3734146952629089e-01</leafValues></_>
    <_>
      <internalNodes>
        0 -1 66593 -2.8130356222391129e-02</internalNodes>
      <leafValues>
        -6.4217638969421387e-01 2.7902103960514069e-02</leafValues></_>
    <_>
      <internalNodes>
        0 -1 157714 -3.2637368887662888e-02</internalNodes>
      <leafValues>
        3.3326560258865356e-01 -5.1917117089033127e-02</leafValues></_>
    <_>
      <internalNodes>
        0 -1 121596 1.8759801983833313e-02</internalNodes>
      <leafValues>
        -6.6576935350894928e-02 2.5283572077751160e-01</leafValues></_>
    <_>
      <internalNodes>
        0 -1 154245 -7.5853907037526369e-04</internalNodes>
      <leafValues>
        2.8966253995895386e-01 -5.8943219482898712e-02</leafValues></_>
    <_>
      <internalNodes>
        0 -1 31033 2.3680847138166428e-02</internalNodes>
      <leafValues>
        2.6133412495255470e-02 -6.4715474843978882e-01</leafValues></_>
    <_>
      <internalNodes>
        0 -1 138495 -3.3652414567768574e-03</internalNodes>
      <leafValues>
        -2.2173826396465302e-01 6.7917242646217346e-02</leafValues></_>
    <_>
      <internalNodes>
        0 -1 132610 4.1933096945285797e-03</internalNodes>
      <leafValues>
        8.3892561495304108e-02 -2.0979574322700500e-01</leafValues></_>
    <_>
      <internalNodes>
        0 -1 77220 -3.2786079682409763e-03</internalNodes>
      <leafValues>
        1.7757061123847961e-01 -9.6735812723636627e-02</leafValues></_>
    <_>
      <internalNodes>
        0 -1 66286 -1.2963172048330307e-03</internalNodes>
      <leafValues>
        1.7246828973293304e-01 -1.0998757183551788e-01</leafValues></_>
    <_>
      <internalNodes>
        0 -1 37622 1.7027316614985466e-02</internalNodes>
      <leafValues>
        3.2564334571361542e-02 -5.3753376007080078e-01</leafValues></_>
    <_>
      <internalNodes>
        0 -1 143925 -9.8651531152427197e-04</internalNodes>
      <leafValues>
        2.4476440250873566e-01 -7.3360919952392578e-02</leafValues></_>
    <_>
      <internalNodes>
        0 -1 44032 -3.4964832011610270e-03</internalNodes>
      <leafValues>
        2.0271843671798706e-01 -7.7319763600826263e-02</leafValues></_>
    <_>
      <internalNodes>
        0 -1 45591 -7.3226675158366561e-04</internalNodes>
      <leafValues>
        2.4328687787055969e-01 -6.5043479204177856e-02</leafValues></_>
    <_>
      <internalNodes>
        0 -1 3126 -1.5022467076778412e-01</internalNodes>
      <leafValues>
        -3.8820391893386841e-01 4.1242185980081558e-02</leafValues></_>
    <_>
      <internalNodes>
        0 -1 89825 -1.4558914699591696e-04</internalNodes>
      <leafValues>
        -2.4393397569656372e-01 6.5579071640968323e-02</leafValues></_>
    <_>
      <internalNodes>
        0 -1 49957 1.6614653868600726e-03</internalNodes>
      <leafValues>
        1.0229349136352539e-01 -1.6309645771980286e-01</leafValues></_>
    <_>
      <internalNodes>
        0 -1 134172 -5.7853810489177704e-02</internalNodes>
      <leafValues>
        -6.5141397714614868e-01 2.5445878505706787e-02</leafValues></_>
    <_>
      <internalNodes>
        0 -1 121335 -9.7591150552034378e-04</internalNodes>
      <leafValues>
        3.5326248407363892e-01 -4.4903129339218140e-02</leafValues></_></weakClassifiers></stage3>
</opencv_storage>
