<?xml version="1.0"?>
<opencv_storage>
<stage3>
  <maxWeakCount>7</maxWeakCount>
  <stageThreshold>-8.6008763313293457e-01</stageThreshold>
  <weakClassifiers>
    <_>
      <internalNodes>
        0 -1 4943 -554452513 1561624973 -1862237921 -715848925 -91906113
        -387952576 -792555606 1609174959</internalNodes>
      <leafValues>
        -5.4844146966934204e-01 4.4521224498748779e-01</leafValues></_>
    <_>
      <internalNodes>
        0 -1 5553 1898444004 -1005928379 -2130698232 -283672191
        1078181956 268864057 -1031774204 -1059657310</internalNodes>
      <leafValues>
        -6.8943446874618530e-01 2.3901185393333435e-01</leafValues></_>
    <_>
      <internalNodes>
        0 -1 3408 -226126053 499765267 297963959 398669218 12694410
        -1817050960 -894596370 547424399</internalNodes>
      <leafValues>
        -5.8735167980194092e-01 2.7688738703727722e-01</leafValues></_>
    <_>
      <internalNodes>
        0 -1 63 1824462926 -1743058733 193462285 -183283369 84298014
        42483851 -939474193 -141831540</internalNodes>
      <leafValues>
        -4.4870784878730774e-01 4.2560356855392456e-01</leafValues></_>
    <_>
      <internalNodes>
        0 -1 7022 -244258343 -152797586 1878587889 460765069 -973961528
        -1175158974 -1654000504 258365572</internalNodes>
      <leafValues>
        -3.4757682681083679e-01 5.5957961082458496e-01</leafValues></_>
    <_>
      <internalNodes>
        0 -1 139 -1201425 -1375763992 -134217987 -34754576 1198821234
        746550655 -50653321 -570429569</internalNodes>
      <leafValues>
        -3.6759486794471741e-01 5.4372167587280273e-01</leafValues></_>
    <_>
      <internalNodes>
        0 -1 7873 -1068240888 1442938903 269488395 1615298693 10264
        454033408 -1584963408 729786895</internalNodes>
      <leafValues>
        -4.8551768064498901e-01 3.9046901464462280e-01</leafValues></_></weakClassifiers></stage3>
</opencv_storage>
