<?xml version="1.0"?>
<opencv_storage>
<stage23>
  <maxWeakCount>11</maxWeakCount>
  <stageThreshold>-8.8984698057174683e-01</stageThreshold>
  <weakClassifiers>
    <_>
      <internalNodes>
        0 -1 8075 -174227413 1501792514 1174446343 -2147385088
        -2130493416 1750138921 -1602123745 1137703083</internalNodes>
      <leafValues>
        -3.8999998569488525e-01 2.6800000667572021e-01</leafValues></_>
    <_>
      <internalNodes>
        0 -1 4879 169607712 207847562 175771780 -1751606528 285413505
        -1056817021 2114678530 -379737534</internalNodes>
      <leafValues>
        -6.6459459066390991e-01 1.5904560685157776e-01</leafValues></_>
    <_>
      <internalNodes>
        0 -1 3229 36611840 -1034375148 1694519563 1301971212 -2137339261
        1780596864 1094762633 -1734832961</internalNodes>
      <leafValues>
        -5.2249997854232788e-01 2.5637310743331909e-01</leafValues></_>
    <_>
      <internalNodes>
        0 -1 3115 -233979908 2147131114 1861414397 96742381 1865889528
        -437447463 -460202049 421492345</internalNodes>
      <leafValues>
        -3.2197308540344238e-01 3.9945164322853088e-01</leafValues></_>
    <_>
      <internalNodes>
        0 -1 7990 -479528952 2017263604 -1073958936 362000377 1986971371
        -1174816971 1664597930 962591374</internalNodes>
      <leafValues>
        -2.2227504849433899e-01 5.0999736785888672e-01</leafValues></_>
    <_>
      <internalNodes>
        0 -1 759 -259161496 -937494977 1073947395 -1027479027 1881217809
        814252186 -1073673982 -33709686</internalNodes>
      <leafValues>
        -3.9006009697914124e-01 3.1415224075317383e-01</leafValues></_>
    <_>
      <internalNodes>
        0 -1 6436 -559036710 -307282524 -33035 1005977529 -705300775
        2000090610 -721451894 -150219057</internalNodes>
      <leafValues>
        -2.0181590318679810e-01 6.5780955553054810e-01</leafValues></_>
    <_>
      <internalNodes>
        0 -1 4732 1799497622 -398326418 1073807844 2011222028
        -1853845372 -1141215055 -1048434492 -1201913516</internalNodes>
      <leafValues>
        -4.9664032459259033e-01 2.9355552792549133e-01</leafValues></_>
    <_>
      <internalNodes>
        0 -1 1940 -21541762 -2986257 1073643365 465683047 1978119488
        1198882685 1928732481 1967461903</internalNodes>
      <leafValues>
        -3.0808109045028687e-01 4.0965008735656738e-01</leafValues></_>
    <_>
      <internalNodes>
        0 -1 5024 -804249590 411144304 -1862172213 1149612299 536873633
        881885313 25217764 808577442</internalNodes>
      <leafValues>
        -5.6225502490997314e-01 2.0616739988327026e-01</leafValues></_>
    <_>
      <internalNodes>
        0 -1 2820 142090568 -543743993 276922628 -577944822 36249602
        -1735704446 545349632 31826693</internalNodes>
      <leafValues>
        -5.3293669223785400e-01 2.4229362607002258e-01</leafValues></_></weakClassifiers></stage23>
</opencv_storage>
