<?xml version="1.0"?>
<opencv_storage>
<stage24>
  <maxWeakCount>13</maxWeakCount>
  <stageThreshold>-1.0028330087661743e+00</stageThreshold>
  <weakClassifiers>
    <_>
      <internalNodes>
        0 -1 7351 -83165478 -202441440 788344419 1504779513 -148054645
        -17962049 -1356925985 -9444885</internalNodes>
      <leafValues>
        -2.4624791741371155e-01 6.0598504543304443e-01</leafValues></_>
    <_>
      <internalNodes>
        0 -1 7689 -791444837 1967505536 587252309 -1387954176
        -1337352696 915145672 -1886999924 -291581240</internalNodes>
      <leafValues>
        -3.0178025364875793e-01 3.5025915503501892e-01</leafValues></_>
    <_>
      <internalNodes>
        0 -1 665 995721648 -1698381687 16563 375214274 146385590
        956342474 822187176 21729403</internalNodes>
      <leafValues>
        -3.6736410856246948e-01 2.9632440209388733e-01</leafValues></_>
    <_>
      <internalNodes>
        0 -1 2373 -282224009 1602223950 -356586699 -178112452 -526506
        -461406865 -550007772 -270279595</internalNodes>
      <leafValues>
        -2.3353195190429688e-01 4.7604137659072876e-01</leafValues></_>
    <_>
      <internalNodes>
        0 -1 3734 1209045144 -509935232 -2130706167 98406416 -259868415
        3047458 -1191147390 -1442652136</internalNodes>
      <leafValues>
        -3.1457576155662537e-01 3.5735583305358887e-01</leafValues></_>
    <_>
      <internalNodes>
        0 -1 2687 632933621 -218107923 -1242040331 845757375 -151586849
        -1090519041 -537528457 -268456194</internalNodes>
      <leafValues>
        -2.3533073067665100e-01 5.1310116052627563e-01</leafValues></_>
    <_>
      <internalNodes>
        0 -1 4429 -268534279 -301989956 -822168435 -2063599643
        1048573361 -822133249 2109293816 -667173483</internalNodes>
      <leafValues>
        -3.4051048755645752e-01 3.7072905898094177e-01</leafValues></_>
    <_>
      <internalNodes>
        0 -1 1105 -1966297857 -85020738 -1145131281 -680153362 369053142
        1205825535 -8913293 1970796503</internalNodes>
      <leafValues>
        -3.4147998690605164e-01 3.8306424021720886e-01</leafValues></_>
    <_>
      <internalNodes>
        0 -1 8186 -4331928 -357695510 -352392327 -2133857172 -345600680
        -293634187 -1082196113 1351999195</internalNodes>
      <leafValues>
        -3.3026635646820068e-01 4.1223758459091187e-01</leafValues></_>
    <_>
      <internalNodes>
        0 -1 7806 -550998343 -274505858 2130604005 -8418440 -1104290162
        1206842742 -491342113 -7922593</internalNodes>
      <leafValues>
        -2.3833057284355164e-01 6.0041141510009766e-01</leafValues></_>
    <_>
      <internalNodes>
        0 -1 7078 1923798672 414037668 -21307404 2096340004 -296577204
        636256187 1564925944 -1878059707</internalNodes>
      <leafValues>
        -3.6678260564804077e-01 3.8563635945320129e-01</leafValues></_>
    <_>
      <internalNodes>
        0 -1 4663 -126381317 2113863677 -2014382311 -1376654027
        -16777353 1626830834 1867970264 -901662891</internalNodes>
      <leafValues>
        -2.5707435607910156e-01 5.3107845783233643e-01</leafValues></_>
    <_>
      <internalNodes>
        0 -1 3466 -30920772 750423999 -1074266115 -844257306 -537001998
        -536903681 -9060867 -5259393</internalNodes>
      <leafValues>
        -2.6010096073150635e-01 5.1803815364837646e-01</leafValues></_></weakClassifiers></stage24>
</opencv_storage>
