<?xml version="1.0"?>
<opencv_storage>
<stage14>
  <maxWeakCount>10</maxWeakCount>
  <stageThreshold>-8.9225554466247559e-01</stageThreshold>
  <weakClassifiers>
    <_>
      <internalNodes>
        0 -1 851 -985141349 109805570 1057112 -1035370239 1536006798
        198826 -889073021 -235934005</internalNodes>
      <leafValues>
        -4.4099378585815430e-01 4.0350878238677979e-01</leafValues></_>
    <_>
      <internalNodes>
        0 -1 5809 -514268201 1382613189 -763313966 1635881344 1220671227
        -1945857662 1968077039 1934053567</internalNodes>
      <leafValues>
        -4.2758762836456299e-01 4.3259924650192261e-01</leafValues></_>
    <_>
      <internalNodes>
        0 -1 6260 -1035828722 9079041 1895923718 34701443 -637308892
        -2071953279 -1743624190 -288366073</internalNodes>
      <leafValues>
        -4.5993727445602417e-01 3.2246682047843933e-01</leafValues></_>
    <_>
      <internalNodes>
        0 -1 8463 1230514666 1212989574 1140871303 71471106 -2009565174
        1611878474 -1040009078 1183898923</internalNodes>
      <leafValues>
        -5.3672295808792114e-01 2.8299522399902344e-01</leafValues></_>
    <_>
      <internalNodes>
        0 -1 699 -711737789 -1005342684 -2146924278 -1000148718
        -1744795111 1361133568 -763199344 -1002313725</internalNodes>
      <leafValues>
        -4.6809402108192444e-01 3.4615799784660339e-01</leafValues></_>
    <_>
      <internalNodes>
        0 -1 808 -1593389709 -1148582522 352797911 -279575668 193114319
        1151336552 -1562390345 1573355663</internalNodes>
      <leafValues>
        -4.7122994065284729e-01 3.4281414747238159e-01</leafValues></_>
    <_>
      <internalNodes>
        0 -1 7570 -116632336 -255065966 166029 1128366482 1099464872
        -478150517 -1340028725 289406976</internalNodes>
      <leafValues>
        -4.4642987847328186e-01 3.7656322121620178e-01</leafValues></_>
    <_>
      <internalNodes>
        0 -1 7264 -2050691876 -939368255 65588 -796606372 -922582612
        -1857314813 321135174 -213405958</internalNodes>
      <leafValues>
        -5.2671289443969727e-01 3.4170937538146973e-01</leafValues></_>
    <_>
      <internalNodes>
        0 -1 474 1313900996 2117238860 285348102 -1811929088 2078525985
        -804880256 -645816256 -593143038</internalNodes>
      <leafValues>
        -7.3130267858505249e-01 2.5022226572036743e-01</leafValues></_>
    <_>
      <internalNodes>
        0 -1 8029 -679242977 696474128 89 853676067 -913684405 201981954
        -394018246 925354114</internalNodes>
      <leafValues>
        -4.9091121554374695e-01 3.1528961658477783e-01</leafValues></_></weakClassifiers></stage14>
</opencv_storage>
