<?xml version="1.0"?>
<opencv_storage>
<stage12>
  <maxWeakCount>9</maxWeakCount>
  <stageThreshold>-8.5098528861999512e-01</stageThreshold>
  <weakClassifiers>
    <_>
      <internalNodes>
        0 -1 3966 -310690337 -107136547 -1035689521 -5273441 -1298126661
        -653598494 -662459506 -1182037334</internalNodes>
      <leafValues>
        -5.1147538423538208e-01 4.3265306949615479e-01</leafValues></_>
    <_>
      <internalNodes>
        0 -1 1079 -993331248 -1797831730 1544814858 -870858734 -62776800
        -534216703 -108690813 -135285825</internalNodes>
      <leafValues>
        -5.5123567581176758e-01 3.2148781418800354e-01</leafValues></_>
    <_>
      <internalNodes>
        0 -1 18 -1048581 -1419063442 -1358954765 -9372306 208653791
        212008895 74839646 -671615009</internalNodes>
      <leafValues>
        -3.7234601378440857e-01 4.5545431971549988e-01</leafValues></_>
    <_>
      <internalNodes>
        0 -1 7498 1879241216 1087340621 324 -447232758 1124845799
        -485668860 1762656295 -68290058</internalNodes>
      <leafValues>
        -5.2479082345962524e-01 3.2033577561378479e-01</leafValues></_>
    <_>
      <internalNodes>
        0 -1 822 -1122845488 -758638396 1427260356 -1576369441
        -1870625848 551583872 -2088597067 1602390470</internalNodes>
      <leafValues>
        -5.8638274669647217e-01 3.0116447806358337e-01</leafValues></_>
    <_>
      <internalNodes>
        0 -1 749 -1678177542 1973923566 -302022665 -604283236 787970007
        1694498815 1199527093 -571096074</internalNodes>
      <leafValues>
        -4.0521070361137390e-01 4.3586760759353638e-01</leafValues></_>
    <_>
      <internalNodes>
        0 -1 8004 -347614709 1275297794 1342717953 1073905664
        -1064769012 419594274 -2130140586 1883744651</internalNodes>
      <leafValues>
        -4.4870421290397644e-01 3.9971151947975159e-01</leafValues></_>
    <_>
      <internalNodes>
        0 -1 7057 1929695424 1595113708 1225310225 546836928 973136120
        -1744797294 -1543481186 463433886</internalNodes>
      <leafValues>
        -4.4403395056724548e-01 4.0348663926124573e-01</leafValues></_>
    <_>
      <internalNodes>
        0 -1 73 -550502529 804253607 2146369387 1332669226 -1342210562
        1694482301 1196897636 1378600191</internalNodes>
      <leafValues>
        -3.8894695043563843e-01 4.6695086359977722e-01</leafValues></_></weakClassifiers></stage12>
</opencv_storage>
