<?xml version="1.0"?>
<opencv_storage>
<stage19>
  <maxWeakCount>11</maxWeakCount>
  <stageThreshold>-9.2552727460861206e-01</stageThreshold>
  <weakClassifiers>
    <_>
      <internalNodes>
        0 -1 4512 -4105 -401 -98652 -34099282 -24641 -536888321
        -33632273 -135270514</internalNodes>
      <leafValues>
        -3.6516475677490234e-01 4.8106592893600464e-01</leafValues></_>
    <_>
      <internalNodes>
        0 -1 7861 1365620783 974341330 163968 1493975112 -653550566
        335577094 763560066 -1484001638</internalNodes>
      <leafValues>
        -3.5625869035720825e-01 3.7170064449310303e-01</leafValues></_>
    <_>
      <internalNodes>
        0 -1 20 -1455127772 7210198 1103110162 -149487615 620821071
        44642313 -352197709 -943201311</internalNodes>
      <leafValues>
        -4.7416180372238159e-01 2.8427642583847046e-01</leafValues></_>
    <_>
      <internalNodes>
        0 -1 6184 -784285350 1377321160 16782430 -1790934463 1351538879
        -394264569 177034011 1608773843</internalNodes>
      <leafValues>
        -3.9642715454101563e-01 3.2923153042793274e-01</leafValues></_>
    <_>
      <internalNodes>
        0 -1 6404 -173225816 1308536582 -121638938 -1188204808 489810268
        -1288642562 1282793115 -1779734626</internalNodes>
      <leafValues>
        -2.7106460928916931e-01 4.9244624376296997e-01</leafValues></_>
    <_>
      <internalNodes>
        0 -1 2227 -339242136 1309336144 1073811587 1677803984
        -2011905856 8913026 830640896 -781231824</internalNodes>
      <leafValues>
        -5.2494794130325317e-01 2.5189155340194702e-01</leafValues></_>
    <_>
      <internalNodes>
        0 -1 3674 -240823080 -959036541 1077944717 -24584160 1099711440
        956433657 -2012706048 1074221649</internalNodes>
      <leafValues>
        -5.6418502330780029e-01 2.8258302807807922e-01</leafValues></_>
    <_>
      <internalNodes>
        0 -1 3959 -1057331916 -633040872 553750853 2060372486
        -2139063640 -1995865943 777660000 1080725260</internalNodes>
      <leafValues>
        -6.7811709642410278e-01 1.6619248688220978e-01</leafValues></_>
    <_>
      <internalNodes>
        0 -1 736 -473172508 -733965295 -1610514288 -791691135
        -1596288861 196641 591429650 1091764234</internalNodes>
      <leafValues>
        -3.9449769258499146e-01 4.0666562318801880e-01</leafValues></_>
    <_>
      <internalNodes>
        0 -1 289 -906514692 1893813995 -1074286724 -621845764 1971175165
        159383039 -1397230480 2046121471</internalNodes>
      <leafValues>
        -3.6652299761772156e-01 4.0996640920639038e-01</leafValues></_>
    <_>
      <internalNodes>
        0 -1 7453 -1778161316 -1257045872 1610616009 -150994919
        -1433659320 -267320320 -1702644788 1259145355</internalNodes>
      <leafValues>
        -4.3201935291290283e-01 3.5598191618919373e-01</leafValues></_></weakClassifiers></stage19>
</opencv_storage>
