<?xml version="1.0"?>
<opencv_storage>
<stage22>
  <maxWeakCount>10</maxWeakCount>
  <stageThreshold>-9.0058255195617676e-01</stageThreshold>
  <weakClassifiers>
    <_>
      <internalNodes>
        0 -1 7369 -1607329 -75563943 -1073741837 -67403905 -545259939
        2086632822 -46219522 -537141329</internalNodes>
      <leafValues>
        -3.8705036044120789e-01 4.1728395223617554e-01</leafValues></_>
    <_>
      <internalNodes>
        0 -1 5002 -728717951 -774729579 -1023409138 -145980415
        1083179517 -129482416 -1392498684 1995869444</internalNodes>
      <leafValues>
        -5.4861336946487427e-01 2.7836471796035767e-01</leafValues></_>
    <_>
      <internalNodes>
        0 -1 119 585563556 -1861169135 255984896 362380611 654320318
        71303185 -934679575 1920360145</internalNodes>
      <leafValues>
        -5.5402421951293945e-01 2.4483543634414673e-01</leafValues></_>
    <_>
      <internalNodes>
        0 -1 4381 -369140313 -153231508 -133377 -1501589814 1056423213
        -4202530 1681630635 -63206878</internalNodes>
      <leafValues>
        -3.2374739646911621e-01 4.6957325935363770e-01</leafValues></_>
    <_>
      <internalNodes>
        0 -1 3730 -7809008 -9499834 989239927 -611512582 -298171322
        1853775732 1455048074 286458955</internalNodes>
      <leafValues>
        -3.3994230628013611e-01 4.0718388557434082e-01</leafValues></_>
    <_>
      <internalNodes>
        0 -1 2017 -1851278456 -385052519 33624130 -788459519 445612372
        146801688 805568787 1383055563</internalNodes>
      <leafValues>
        -4.0816548466682434e-01 3.5933417081832886e-01</leafValues></_>
    <_>
      <internalNodes>
        0 -1 193 536936541 746914818 -1056955170 1694704408 1535157089
        193595904 -805262465 1965251677</internalNodes>
      <leafValues>
        -6.3411092758178711e-01 2.5288152694702148e-01</leafValues></_>
    <_>
      <internalNodes>
        0 -1 59 402676386 -1677588223 -1845231588 379049221 570957985
        570949760 -267927063 1647028422</internalNodes>
      <leafValues>
        -6.2928122282028198e-01 1.9744603335857391e-01</leafValues></_>
    <_>
      <internalNodes>
        0 -1 4511 -1257193232 -527249334 352424023 160071680 -1928216390
        -1165377533 -1473586816 -1816467040</internalNodes>
      <leafValues>
        -4.8939147591590881e-01 3.1059142947196960e-01</leafValues></_>
    <_>
      <internalNodes>
        0 -1 7206 1308676288 55434 1090683474 -83238319 -2138879102
        -670431222 940771814 -944385909</internalNodes>
      <leafValues>
        -5.9140455722808838e-01 2.7658250927925110e-01</leafValues></_></weakClassifiers></stage22>
</opencv_storage>
