<?xml version="1.0"?>
<opencv_storage>
<stage16>
  <maxWeakCount>10</maxWeakCount>
  <stageThreshold>-1.1389939785003662e+00</stageThreshold>
  <weakClassifiers>
    <_>
      <internalNodes>
        0 -1 3443 -1202629154 -1743728623 1275105757 718615 -1996455761
        823230593 -1995994481 11637049</internalNodes>
      <leafValues>
        -6.0434782505035400e-01 2.7812498807907104e-01</leafValues></_>
    <_>
      <internalNodes>
        0 -1 2234 -582876416 -1660006006 1610891354 -786432000 138439257
        1755349153 -1459617152 2004026197</internalNodes>
      <leafValues>
        -5.6161832809448242e-01 2.5342896580696106e-01</leafValues></_>
    <_>
      <internalNodes>
        0 -1 4196 -776873761 -1086784280 2130550769 -542546809
        -1880314184 -1091076238 1552711112 -1207397048</internalNodes>
      <leafValues>
        -2.6318579912185669e-01 5.3987628221511841e-01</leafValues></_>
    <_>
      <internalNodes>
        0 -1 1434 715793420 -1820044968 145108480 -733789233 -2138552012
        1090519050 -1459131939 -1229944687</internalNodes>
      <leafValues>
        -5.8776581287384033e-01 2.5608929991722107e-01</leafValues></_>
    <_>
      <internalNodes>
        0 -1 842 1676803021 18825547 -2129614656 -217003376 144494616
        4296707 537100816 1142151904</internalNodes>
      <leafValues>
        -4.3688607215881348e-01 3.2224324345588684e-01</leafValues></_>
    <_>
      <internalNodes>
        0 -1 7974 -66021428 -7766372 1022324041 -837287974 -1380135448
        1467924470 1424407786 622581159</internalNodes>
      <leafValues>
        -3.2076436281204224e-01 4.4300282001495361e-01</leafValues></_>
    <_>
      <internalNodes>
        0 -1 3880 1078336562 1434521859 17928533 475629900 1077948831
        -268398523 29986218 717406088</internalNodes>
      <leafValues>
        -5.9642553329467773e-01 2.5616270303726196e-01</leafValues></_>
    <_>
      <internalNodes>
        0 -1 3093 -786714182 -124090600 268537869 1919287296 8493346
        -1306425335 -788002677 148021920</internalNodes>
      <leafValues>
        -4.5808821916580200e-01 3.4746101498603821e-01</leafValues></_>
    <_>
      <internalNodes>
        0 -1 3744 -554873006 2139049518 -822345885 961789189 -1083810711
        -1528504355 -8585650 -618926213</internalNodes>
      <leafValues>
        -3.1032496690750122e-01 5.5446451902389526e-01</leafValues></_>
    <_>
      <internalNodes>
        0 -1 5229 -245636023 1580583980 -1124270099 1106110638
        -422789545 -436871564 1945294399 -1717109557</internalNodes>
      <leafValues>
        -2.6070895791053772e-01 5.5017536878585815e-01</leafValues></_></weakClassifiers></stage16>
</opencv_storage>
