<?xml version="1.0"?>
<opencv_storage>
<stage2>
  <maxWeakCount>6</maxWeakCount>
  <stageThreshold>-7.9055827856063843e-01</stageThreshold>
  <weakClassifiers>
    <_>
      <internalNodes>
        0 -1 3914 -245893665 961634535 2244703 -1224011745 121547
        -1028652350 1908509067 836446943</internalNodes>
      <leafValues>
        -6.2284678220748901e-01 4.4393801689147949e-01</leafValues></_>
    <_>
      <internalNodes>
        0 -1 3845 1901406398 -1187437224 -1052703362 600378330
        1682022558 -1014726648 445845404 -63810</internalNodes>
      <leafValues>
        -6.1248183250427246e-01 3.3344796299934387e-01</leafValues></_>
    <_>
      <internalNodes>
        0 -1 7165 -725422072 2076954654 -1056799604 1527873695
        -762199808 1376092161 -2013231096 1631568011</internalNodes>
      <leafValues>
        -6.0537379980087280e-01 3.3014753460884094e-01</leafValues></_>
    <_>
      <internalNodes>
        0 -1 1561 1077970532 -1425615605 -1056927720 1292152840
        -218054492 -1816035189 -1073036610 -1013583177</internalNodes>
      <leafValues>
        -6.2210518121719360e-01 3.2699248194694519e-01</leafValues></_>
    <_>
      <internalNodes>
        0 -1 850 -846726310 8553032 65544 -986447102 17010830 81928
        17367049 1264265335</internalNodes>
      <leafValues>
        -6.1718493700027466e-01 3.3813336491584778e-01</leafValues></_>
    <_>
      <internalNodes>
        0 -1 3887 408009975 -666533735 -2130701121 142947656 -1609779567
        -2130177720 -1970749588 467635874</internalNodes>
      <leafValues>
        -5.0074356794357300e-01 4.0798306465148926e-01</leafValues></_></weakClassifiers></stage2>
</opencv_storage>
