<?xml version="1.0"?>
<opencv_storage>
<stage17>
  <maxWeakCount>11</maxWeakCount>
  <stageThreshold>-1.4463804960250854e+00</stageThreshold>
  <weakClassifiers>
    <_>
      <internalNodes>
        0 -1 27 -788076926 -2147352496 -788529152 -682469035 35778584
        1112604816 1153861665 -136906065</internalNodes>
      <leafValues>
        -5.1868730783462524e-01 3.3454215526580811e-01</leafValues></_>
    <_>
      <internalNodes>
        0 -1 6869 -189325167 -268533961 -16861508 -33587330 822052236
        -1477485187 -34088452 -319562243</internalNodes>
      <leafValues>
        -3.3825010061264038e-01 4.7368967533111572e-01</leafValues></_>
    <_>
      <internalNodes>
        0 -1 2832 -1904075859 1805731973 -1985376834 -1210121327
        -1845259035 1393561729 -2138367207 1761604754</internalNodes>
      <leafValues>
        -3.9418479800224304e-01 3.9455139636993408e-01</leafValues></_>
    <_>
      <internalNodes>
        0 -1 120 -168472244 -208305491 1745913289 -1165737211 967418396
        -1501462391 -1459224318 1434768023</internalNodes>
      <leafValues>
        -4.1972705721855164e-01 3.3724993467330933e-01</leafValues></_>
    <_>
      <internalNodes>
        0 -1 3965 -268263280 -801091119 1107396063 185336124 -855604694
        1881440384 -2111272256 -544169892</internalNodes>
      <leafValues>
        -4.2195457220077515e-01 3.3833095431327820e-01</leafValues></_>
    <_>
      <internalNodes>
        0 -1 3675 -184188449 -799731711 285675839 -2044702622 1075534027
        -918650797 579466116 -201196079</internalNodes>
      <leafValues>
        -3.6777985095977783e-01 3.7949112057685852e-01</leafValues></_>
    <_>
      <internalNodes>
        0 -1 1750 -1010793736 -712961264 -1727971187 419532881
        -1610083389 1073807496 -1877991313 813912576</internalNodes>
      <leafValues>
        -3.9351308345794678e-01 3.5620385408401489e-01</leafValues></_>
    <_>
      <internalNodes>
        0 -1 3995 276857183 840388681 -1001307137 -708815550 67707537
        860061841 -1459609400 1084681926</internalNodes>
      <leafValues>
        -4.8687347769737244e-01 3.0610865354537964e-01</leafValues></_>
    <_>
      <internalNodes>
        0 -1 7124 -133906294 1879265414 790 -1577058094 88671492
        428360475 1250616814 -874476709</internalNodes>
      <leafValues>
        -4.2694872617721558e-01 3.2621634006500244e-01</leafValues></_>
    <_>
      <internalNodes>
        0 -1 7010 361513288 2065416343 1358975001 865140807 1703413976
        -71237630 -1164926423 -1156823040</internalNodes>
      <leafValues>
        -4.2297393083572388e-01 3.5247126221656799e-01</leafValues></_>
    <_>
      <internalNodes>
        0 -1 2698 76125056 369169303 -1199550132 99447199 -771530525
        -1862237176 1640728583 -69367661</internalNodes>
      <leafValues>
        -4.4032236933708191e-01 3.5527575016021729e-01</leafValues></_></weakClassifiers></stage17>
</opencv_storage>
