<?xml version="1.0"?>
<opencv_storage>
<stage21>
  <maxWeakCount>12</maxWeakCount>
  <stageThreshold>-1.0363922119140625e+00</stageThreshold>
  <weakClassifiers>
    <_>
      <internalNodes>
        0 -1 5509 -716397526 -1789407015 -1056062036 -821178047
        -796866130 -268398447 -763324416 -1612191933</internalNodes>
      <leafValues>
        -5.0599998235702515e-01 2.5499999523162842e-01</leafValues></_>
    <_>
      <internalNodes>
        0 -1 4494 -997001892 -2013261568 -736010758 -1810557679
        -1590117392 -173520888 1625965936 -1058209898</internalNodes>
      <leafValues>
        -4.9836823344230652e-01 2.3980538547039032e-01</leafValues></_>
    <_>
      <internalNodes>
        0 -1 3672 -179055873 1343947722 -2146348936 -16097092
        -1744387445 -326454786 -1318345920 -1073164224</internalNodes>
      <leafValues>
        -4.4548788666725159e-01 2.7524673938751221e-01</leafValues></_>
    <_>
      <internalNodes>
        0 -1 3208 1909113024 144343344 -805253119 -937932519 813697154
        1242038278 1350716170 1617412635</internalNodes>
      <leafValues>
        -4.4656044244766235e-01 2.8361579775810242e-01</leafValues></_>
    <_>
      <internalNodes>
        0 -1 7621 -584047128 -1125413662 -8388919 1681506160 -1909542982
        933953390 338859519 797115819</internalNodes>
      <leafValues>
        -2.8957784175872803e-01 4.4455015659332275e-01</leafValues></_>
    <_>
      <internalNodes>
        0 -1 5024 1598013216 -54546434 -147537 -856694993 2113372047
        1022885869 -306 -143131145</internalNodes>
      <leafValues>
        -3.4270468354225159e-01 3.8308343291282654e-01</leafValues></_>
    <_>
      <internalNodes>
        0 -1 4390 -22832449 -285310357 2130683631 -1111592988 2145869491
        -8929345 1995946547 -287888650</internalNodes>
      <leafValues>
        -3.2576408982276917e-01 4.0675237774848938e-01</leafValues></_>
    <_>
      <internalNodes>
        0 -1 1961 -5509724 -8704913 -1426162456 1004924803 1190657623
        -1040779916 2125797342 -753160641</internalNodes>
      <leafValues>
        -2.7290940284729004e-01 5.4229372739791870e-01</leafValues></_>
    <_>
      <internalNodes>
        0 -1 5291 22086209 -934756325 -536293337 -637402799 -1874689935
        -1073708911 -1207539030 -485826359</internalNodes>
      <leafValues>
        -3.6854487657546997e-01 3.7596762180328369e-01</leafValues></_>
    <_>
      <internalNodes>
        0 -1 7309 -45975588 -683671342 1090547931 843186498 1485367976
        -507391968 -1723792376 206475805</internalNodes>
      <leafValues>
        -4.1461476683616638e-01 3.2302224636077881e-01</leafValues></_>
    <_>
      <internalNodes>
        0 -1 1584 -2143038689 -1493008057 1090568211 -183715710
        1216930824 234947211 -267255550 -210505041</internalNodes>
      <leafValues>
        -3.6820927262306213e-01 3.9821800589561462e-01</leafValues></_>
    <_>
      <internalNodes>
        0 -1 6400 -778328841 -2121334716 -795803536 -497151976
        -2013026172 1770358986 -1848106960 -1480068160</internalNodes>
      <leafValues>
        -4.6241992712020874e-01 3.2513657212257385e-01</leafValues></_></weakClassifiers></stage21>
</opencv_storage>
