<?xml version="1.0"?>
<opencv_storage>
<stage13>
  <maxWeakCount>9</maxWeakCount>
  <stageThreshold>-8.7822580337524414e-01</stageThreshold>
  <weakClassifiers>
    <_>
      <internalNodes>
        0 -1 857 -799421461 -939357950 285311237 -251526400 -1538675797
        -854160238 -390009398 -236456313</internalNodes>
      <leafValues>
        -4.8171702027320862e-01 4.3099787831306458e-01</leafValues></_>
    <_>
      <internalNodes>
        0 -1 5881 -17958919 -202375169 -1073774593 -4219090 2113306619
        2139062271 -671649361 1742829483</internalNodes>
      <leafValues>
        -3.9566588401794434e-01 4.6393904089927673e-01</leafValues></_>
    <_>
      <internalNodes>
        0 -1 7967 -542981 -1883312150 -1082687756 -4361 -1795818072
        -1930445067 1421270288 -715657222</internalNodes>
      <leafValues>
        -3.6173573136329651e-01 4.7203907370567322e-01</leafValues></_>
    <_>
      <internalNodes>
        0 -1 97 267816188 206121173 1114397 101843794 -854365230
        -1585237246 -1710684151 1067334215</internalNodes>
      <leafValues>
        -6.9817548990249634e-01 2.3427703976631165e-01</leafValues></_>
    <_>
      <internalNodes>
        0 -1 4342 -1408585196 -1297050942 1342182492 -149503914
        -744650419 -1702690805 -225934696 -172717555</internalNodes>
      <leafValues>
        -6.2554597854614258e-01 2.8124240040779114e-01</leafValues></_>
    <_>
      <internalNodes>
        0 -1 8240 -632635128 -842362874 262284 1671283333 554410240
        8519936 -922582866 -1448099785</internalNodes>
      <leafValues>
        -4.5834982395172119e-01 3.7594988942146301e-01</leafValues></_>
    <_>
      <internalNodes>
        0 -1 1320 -611733094 -577650598 1099436040 1384681857 -503004908
        2014412800 -1073528188 -536687989</internalNodes>
      <leafValues>
        -4.5240828394889832e-01 3.8056951761245728e-01</leafValues></_>
    <_>
      <internalNodes>
        0 -1 1632 -1026709293 1430569216 1476464651 -1283259094
        -108927841 134277378 -913532643 2136603507</internalNodes>
      <leafValues>
        -3.9165359735488892e-01 4.6445909142494202e-01</leafValues></_>
    <_>
      <internalNodes>
        0 -1 4001 -1929241954 -1802399743 -661349939 -1311208691
        -1174158947 830588032 1900020620 -1341462611</internalNodes>
      <leafValues>
        -4.2081466317176819e-01 4.2739048600196838e-01</leafValues></_></weakClassifiers></stage13>
</opencv_storage>
