<?xml version="1.0"?>
<opencv_storage>
<cascade>
  <stageType>BOOST</stageType>
  <featureType>LBP</featureType>
  <height>24</height>
  <width>24</width>
  <stageParams>
    <boostType>GAB</boostType>
    <minHitRate>9.9500000476837158e-01</minHitRate>
    <maxFalseAlarm>3.0000001192092896e-01</maxFalseAlarm>
    <weightTrimRate>9.4999999999999996e-01</weightTrimRate>
    <maxDepth>1</maxDepth>
    <maxWeakCount>100</maxWeakCount></stageParams>
  <featureParams>
    <maxCatCount>256</maxCatCount>
    <featSize>1</featSize></featureParams>
  <stageNum>12</stageNum>
  <stages>
    <!-- stage 0 -->
    <_>
      <maxWeakCount>3</maxWeakCount>
      <stageThreshold>-1.2251803874969482e+00</stageThreshold>
      <weakClassifiers>
        <_>
          <internalNodes>
            0 -1 38 -246575681 -753336295 1090617611 1024524673
            -1736277265 -106430455 721422510 1067385391</internalNodes>
          <leafValues>
            -8.9542484283447266e-01 6.5517240762710571e-01</leafValues></_>
        <_>
          <internalNodes>
            0 -1 22 -78907937 1058374019 16847883 521208211 1250150555
            186753032 -2145866081 926913163</internalNodes>
          <leafValues>
            -8.6784881353378296e-01 6.3392353057861328e-01</leafValues></_>
        <_>
          <internalNodes>
            0 -1 25 2077733279 -744939373 1090523540 1024524310
            -1976985445 -134217588 1476593838 2075066411</internalNodes>
          <leafValues>
            -8.3261948823928833e-01 5.3809326887130737e-01</leafValues></_></weakClassifiers></_>
    <!-- stage 1 -->
    <_>
      <maxWeakCount>4</maxWeakCount>
      <stageThreshold>-7.5546580553054810e-01</stageThreshold>
      <weakClassifiers>
        <_>
          <internalNodes>
            0 -1 52 -241830913 -721174503 268533773 -682294957
            -582622533 -939523959 -1475671413 2143748727</internalNodes>
          <leafValues>
            -8.7620359659194946e-01 5.0105708837509155e-01</leafValues></_>
        <_>
          <internalNodes>
            0 -1 37 -773347954 -246054377 -788429556 -1122959313
            -804290402 -242089847 -209614454 -1075861105</internalNodes>
          <leafValues>
            -8.7266045808792114e-01 3.8776826858520508e-01</leafValues></_>
        <_>
          <internalNodes>
            0 -1 9 -640625953 -709459945 1224811784 -398146286
            -893353829 -74252285 -1048045041 -205211530</internalNodes>
          <leafValues>
            -7.7682971954345703e-01 4.7555160522460938e-01</leafValues></_>
        <_>
          <internalNodes>
            0 -1 32 2035380431 1494323604 1090598221 2106962201
            -1342074238 -2134898552 -939508803 8604303</internalNodes>
          <leafValues>
            -7.4258208274841309e-01 5.2465248107910156e-01</leafValues></_></weakClassifiers></_>
    <!-- stage 2 -->
    <_>
      <maxWeakCount>4</maxWeakCount>
      <stageThreshold>-7.0623928308486938e-01</stageThreshold>
      <weakClassifiers>
        <_>
          <internalNodes>
            0 -1 61 -71044641 -548826405 -1878982583 -142094261
            1136889227 -1205813238 403122333 793752555</internalNodes>
          <leafValues>
            -8.0645161867141724e-01 3.5934290289878845e-01</leafValues></_>
        <_>
          <internalNodes>
            0 -1 41 -137916673 -212782695 -918498871 -616200805
            -1996255058 -1459584877 1266793402 -136333314</internalNodes>
          <leafValues>
            -6.4113962650299072e-01 5.2661961317062378e-01</leafValues></_>
        <_>
          <internalNodes>
            0 -1 69 1461034786 465932294 -1878798181 -446988261
            102632486 1548025858 -1878816726 2140125819</internalNodes>
          <leafValues>
            -7.9318481683731079e-01 4.2447805404663086e-01</leafValues></_>
        <_>
          <internalNodes>
            0 -1 8 -404887410 262536 -754925312 1351716871 1653117483
            134357057 134818311 1267679759</internalNodes>
          <leafValues>
            -7.7636289596557617e-01 3.6874225735664368e-01</leafValues></_></weakClassifiers></_>
    <!-- stage 3 -->
    <_>
      <maxWeakCount>6</maxWeakCount>
      <stageThreshold>-7.8677159547805786e-01</stageThreshold>
      <weakClassifiers>
        <_>
          <internalNodes>
            0 -1 28 -734281733 -1677475757 -1862159074 -1752451629
            -1870293569 -1719432757 -758538437 -33585510</internalNodes>
          <leafValues>
            -7.4386918544769287e-01 3.1330472230911255e-01</leafValues></_>
        <_>
          <internalNodes>
            0 -1 13 207399608 1569014017 806375569 -6483888 1208012963
            -1451130871 1745456027 -342916693</internalNodes>
          <leafValues>
            -7.0596921443939209e-01 3.3529618382453918e-01</leafValues></_>
        <_>
          <internalNodes>
            0 -1 26 -749743383 1552990438 83968267 1561940249 557088
            -1583874046 956318346 1410987338</internalNodes>
          <leafValues>
            -6.5648221969604492e-01 3.8954567909240723e-01</leafValues></_>
        <_>
          <internalNodes>
            0 -1 64 -799092348 1879937026 -2130608068 1433600004
            268468969 -402390968 -1073706615 12337190</internalNodes>
          <leafValues>
            -6.6750633716583252e-01 4.0139526128768921e-01</leafValues></_>
        <_>
          <internalNodes>
            0 -1 60 -2132952790 533156050 67178497 -1039417323 753668
            1889067008 -1832865069 -2099277137</internalNodes>
          <leafValues>
            -6.1571544408798218e-01 4.5983940362930298e-01</leafValues></_>
        <_>
          <internalNodes>
            0 -1 57 -254941307 -1864595454 -1069219833 -1059683700
            -2138971886 -1998815216 -1601615216 -1024352056</internalNodes>
          <leafValues>
            -5.4169642925262451e-01 5.1513415575027466e-01</leafValues></_></weakClassifiers></_>
    <!-- stage 4 -->
    <_>
      <maxWeakCount>7</maxWeakCount>
      <stageThreshold>-1.2285225391387939e+00</stageThreshold>
      <weakClassifiers>
        <_>
          <internalNodes>
            0 -1 53 -687344363 -591281711 73871 -708316927 -83661881
            692235465 -802586430 -57047351</internalNodes>
          <leafValues>
            -7.0083099603652954e-01 2.2175732254981995e-01</leafValues></_>
        <_>
          <internalNodes>
            0 -1 63 -620367376 1393623108 289771957 938938626
            -1048410904 -838266752 -73260803 185866312</internalNodes>
          <leafValues>
            -6.0704767704010010e-01 3.9802911877632141e-01</leafValues></_>
        <_>
          <internalNodes>
            0 -1 43 -787090978 -247250847 -2147454587 -775389174
            -796860256 -1198876539 -2003813976 -83615604</internalNodes>
          <leafValues>
            -7.9874062538146973e-01 2.9477709531784058e-01</leafValues></_>
        <_>
          <internalNodes>
            0 -1 30 -1864957923 16843096 403904921 -1853124096 79758519
            -1257832446 156447100 -623969322</internalNodes>
          <leafValues>
            -5.9330707788467407e-01 4.4155600666999817e-01</leafValues></_>
        <_>
          <internalNodes>
            0 -1 39 -547883820 -263171824 1073799170 873500685
            -254767016 -267649024 -1207862624 -1304374655</internalNodes>
          <leafValues>
            -6.0001748800277710e-01 4.2876711487770081e-01</leafValues></_>
        <_>
          <internalNodes>
            0 -1 23 -652951835 -1179666 -65537 -1 -1209729034 -2097281
            -8454155 -9437185</internalNodes>
          <leafValues>
            -4.4503802061080933e-01 6.4368617534637451e-01</leafValues></_>
        <_>
          <internalNodes>
            0 -1 12 -1056849460 781239124 1073745938 -872054783
            -2097117015 578920456 40967 874455067</internalNodes>
          <leafValues>
            -7.5215095281600952e-01 3.9287206530570984e-01</leafValues></_></weakClassifiers></_>
    <!-- stage 5 -->
    <_>
      <maxWeakCount>8</maxWeakCount>
      <stageThreshold>-8.7268763780593872e-01</stageThreshold>
      <weakClassifiers>
        <_>
          <internalNodes>
            0 -1 24 -218048320 -720633712 4418 957284499 -2097119062
            -636846048 -1073674001 -816081457</internalNodes>
          <leafValues>
            -5.7330417633056641e-01 4.3356642127037048e-01</leafValues></_>
        <_>
          <internalNodes>
            0 -1 19 84204397 201298735 -2130051054 2137774487 1094812163
            1110118408 -1048315893 -806501976</internalNodes>
          <leafValues>
            -5.4132974147796631e-01 4.1533148288726807e-01</leafValues></_>
        <_>
          <internalNodes>
            0 -1 18 -402594314 -1605860974 1090621784 -690712041
            1115717800 570495113 -1072976999 -620001137</internalNodes>
          <leafValues>
            -6.7291331291198730e-01 3.4134978055953979e-01</leafValues></_>
        <_>
          <internalNodes>
            0 -1 45 -116805508 1907528346 -1861184932 496275488
            -1316253264 -1055350648 1619038568 614470274</internalNodes>
          <leafValues>
            -6.4395451545715332e-01 3.5589477419853210e-01</leafValues></_>
        <_>
          <internalNodes>
            0 -1 71 -670916100 -536870192 -1610589836 -1017870285
            -1073560876 1083211785 -1173765123 757301291</internalNodes>
          <leafValues>
            -5.7965135574340820e-01 4.6671178936958313e-01</leafValues></_>
        <_>
          <internalNodes>
            0 -1 65 -654184187 -1946156856 -1056946738 -1677654784
            -1568431395 -1073541120 -1442315004 -438583997</internalNodes>
          <leafValues>
            -6.6022926568984985e-01 4.5119038224220276e-01</leafValues></_>
        <_>
          <internalNodes>
            0 -1 59 -779628111 847282196 16778329 -1725808640 402720916
            1761673226 151505096 416131082</internalNodes>
          <leafValues>
            -5.1244086027145386e-01 5.0812411308288574e-01</leafValues></_>
        <_>
          <internalNodes>
            0 -1 50 1667987434 1359184259 -2147418110 1099285251
            1393045614 -1605918590 1218980156 1533611951</internalNodes>
          <leafValues>
            -7.0600116252899170e-01 3.8253375887870789e-01</leafValues></_></weakClassifiers></_>
    <!-- stage 6 -->
    <_>
      <maxWeakCount>9</maxWeakCount>
      <stageThreshold>-6.1930805444717407e-01</stageThreshold>
      <weakClassifiers>
        <_>
          <internalNodes>
            0 -1 51 1079014213 1003742154 -536805373 -1205614526
            2137732223 -1473787513 -348460465 -348278689</internalNodes>
          <leafValues>
            -6.7277854681015015e-01 1.5682281553745270e-01</leafValues></_>
        <_>
          <internalNodes>
            0 -1 46 -804003593 -788147818 1141014795 -137342897
            285279564 -805255022 1115743216 -799488692</internalNodes>
          <leafValues>
            -5.5864930152893066e-01 3.3997064828872681e-01</leafValues></_>
        <_>
          <internalNodes>
            0 -1 68 1393710152 -376725099 545393410 -108920820
            -1835464680 -1086160352 -2012507924 -1623218133</internalNodes>
          <leafValues>
            -6.6146492958068848e-01 3.3885949850082397e-01</leafValues></_>
        <_>
          <internalNodes>
            0 -1 27 -779565808 -2137779968 -788201201 1090715905
            -1719559903 714312584 -1600450541 56044417</internalNodes>
          <leafValues>
            -5.7508713006973267e-01 4.0036755800247192e-01</leafValues></_>
        <_>
          <internalNodes>
            0 -1 20 577973024 -1090449325 -1433553507 -968261550
            -1795026402 1107329291 -385529168 -1140193910</internalNodes>
          <leafValues>
            -7.2879844903945923e-01 3.0548462271690369e-01</leafValues></_>
        <_>
          <internalNodes>
            0 -1 55 1755402435 688384 0 -783040373 1073893505
            -2146959358 55080994 1124819759</internalNodes>
          <leafValues>
            -5.2355462312698364e-01 4.2762014269828796e-01</leafValues></_>
        <_>
          <internalNodes>
            0 -1 33 -1902313514 1789594184 -2105530227 -1727853909
            -1048444887 671678528 164490 -24690046</internalNodes>
          <leafValues>
            -5.5853289365768433e-01 3.9807000756263733e-01</leafValues></_>
        <_>
          <internalNodes>
            0 -1 73 -294785053 804126708 2130182133 787570683 -423635851
            1039662965 -277111171 1567086199</internalNodes>
          <leafValues>
            -4.5738166570663452e-01 5.2274554967880249e-01</leafValues></_>
        <_>
          <internalNodes>
            0 -1 4 -245156385 471105798 623650 210042881 659490
            193038337 1076515073 1002887752</internalNodes>
          <leafValues>
            -6.2600958347320557e-01 3.9783221483230591e-01</leafValues></_></weakClassifiers></_>
    <!-- stage 7 -->
    <_>
      <maxWeakCount>6</maxWeakCount>
      <stageThreshold>-6.0031974315643311e-01</stageThreshold>
      <weakClassifiers>
        <_>
          <internalNodes>
            0 -1 31 -1022321705 1346498961 286364947 -1651437161
            -633286159 -796684263 1208648851 206026589</internalNodes>
          <leafValues>
            -7.3043477535247803e-01 2.0392157137393951e-01</leafValues></_>
        <_>
          <internalNodes>
            0 -1 58 -582422312 -1644179721 2147467263 -67108865
            -142606370 -167772161 2147336175 -16385</internalNodes>
          <leafValues>
            -4.2143076658248901e-01 6.2880235910415649e-01</leafValues></_>
        <_>
          <internalNodes>
            0 -1 6 -960102296 -1973673768 -2097082334 -151948744
            1184256552 847282219 -1878875987 -452205374</internalNodes>
          <leafValues>
            -7.8025263547897339e-01 3.2082638144493103e-01</leafValues></_>
        <_>
          <internalNodes>
            0 -1 70 -601162516 -75502156 2146953977 -180392131
            -864240164 -570491427 -629672773 -1884340849</internalNodes>
          <leafValues>
            -3.2737582921981812e-01 7.5212341547012329e-01</leafValues></_>
        <_>
          <internalNodes>
            0 -1 36 -783043952 -644557375 -788523668 -1727818608
            1109496200 1207959762 -770996782 2011008862</internalNodes>
          <leafValues>
            -6.3903975486755371e-01 4.3184927105903625e-01</leafValues></_>
        <_>
          <internalNodes>
            0 -1 10 1390238016 1888485651 2327024 1310741888 -2138992623
            287313920 -2147443895 1965273861</internalNodes>
          <leafValues>
            -7.9652053117752075e-01 3.1362453103065491e-01</leafValues></_></weakClassifiers></_>
    <!-- stage 8 -->
    <_>
      <maxWeakCount>6</maxWeakCount>
      <stageThreshold>-6.5595251321792603e-01</stageThreshold>
      <weakClassifiers>
        <_>
          <internalNodes>
            0 -1 47 -390006060 -1056325568 1090768968 -2147385341
            -285164900 -1316454400 -1948196972 -1177843199</internalNodes>
          <leafValues>
            -7.2348994016647339e-01 3.0549451708793640e-01</leafValues></_>
        <_>
          <internalNodes>
            0 -1 2 -582654041 38282509 -1861734325 -959641428 553685003
            134225920 -805266773 -563479878</internalNodes>
          <leafValues>
            -6.8514126539230347e-01 4.2575225234031677e-01</leafValues></_>
        <_>
          <internalNodes>
            0 -1 17 -146804230 -78245630 17003822 -1442122428 -528445264
            -1694007071 -1308065612 -1810376704</internalNodes>
          <leafValues>
            -6.2821912765502930e-01 4.4187766313552856e-01</leafValues></_>
        <_>
          <internalNodes>
            0 -1 16 -195964523 1905295361 1895846049 761876689
            -805246810 11554953 -1912518631 995610973</internalNodes>
          <leafValues>
            -6.9358414411544800e-01 4.3298944830894470e-01</leafValues></_>
        <_>
          <internalNodes>
            0 -1 1 1158893978 -1857744214 -2147479547 -452116476
            1745551369 1645805568 1073995779 1355278559</internalNodes>
          <leafValues>
            -5.7870912551879883e-01 5.3943967819213867e-01</leafValues></_>
        <_>
          <internalNodes>
            0 -1 35 -108743204 -2572136 1409356069 428413059 -2130171247
            -1702330239 1241520280 704651264</internalNodes>
          <leafValues>
            -5.3715759515762329e-01 5.5410987138748169e-01</leafValues></_></weakClassifiers></_>
    <!-- stage 9 -->
    <_>
      <maxWeakCount>6</maxWeakCount>
      <stageThreshold>-6.7143118381500244e-01</stageThreshold>
      <weakClassifiers>
        <_>
          <internalNodes>
            0 -1 15 -245761537 -183009022 1342212421 1431503394
            -1869959749 1476624576 -1870552945 -68160685</internalNodes>
          <leafValues>
            -6.3251668214797974e-01 5.5629140138626099e-01</leafValues></_>
        <_>
          <internalNodes>
            0 -1 48 -50204417 -100614128 -843036385 -48529306 1887466169
            2015117482 -494851905 2131714635</internalNodes>
          <leafValues>
            -6.9897150993347168e-01 4.2925375699996948e-01</leafValues></_>
        <_>
          <internalNodes>
            0 -1 72 1268241183 1833267207 545358357 805814295 1779151939
            1476493826 -242654706 857166410</internalNodes>
          <leafValues>
            -7.2301536798477173e-01 4.0739685297012329e-01</leafValues></_>
        <_>
          <internalNodes>
            0 -1 49 -2076081617 5427637 1107296391 -1445216115
            -670911989 -796098560 -247215830 -354960281</internalNodes>
          <leafValues>
            -6.6506952047348022e-01 4.7432830929756165e-01</leafValues></_>
        <_>
          <internalNodes>
            0 -1 5 -1042286613 2046965766 268716042 -1204518904
            -762658301 286327016 1891746306 -714739513</internalNodes>
          <leafValues>
            -6.4618337154388428e-01 5.1464271545410156e-01</leafValues></_>
        <_>
          <internalNodes>
            0 -1 11 -159190054 -2070785854 90393 -1053556736 1880664570
            1895858304 1082384513 -207648023</internalNodes>
          <leafValues>
            -7.0371001958847046e-01 4.6287190914154053e-01</leafValues></_></weakClassifiers></_>
    <!-- stage 10 -->
    <_>
      <maxWeakCount>8</maxWeakCount>
      <stageThreshold>-8.8185828924179077e-01</stageThreshold>
      <weakClassifiers>
        <_>
          <internalNodes>
            0 -1 29 -727597569 1124090949 274009591 -1606089387
            -1698590433 -2147409372 411800875 -7612796</internalNodes>
          <leafValues>
            -6.3861387968063354e-01 2.9591837525367737e-01</leafValues></_>
        <_>
          <internalNodes>
            0 -1 40 -76285985 -768421888 1105293817 1721417991 -74463092
            -1833414653 -1451171136 -167196487</internalNodes>
          <leafValues>
            -4.6922338008880615e-01 4.2575690150260925e-01</leafValues></_>
        <_>
          <internalNodes>
            0 -1 34 806368720 245942372 293798033 181438593 680034559
            1538306184 134250653 436734008</internalNodes>
          <leafValues>
            -7.1643072366714478e-01 2.8745338320732117e-01</leafValues></_>
        <_>
          <internalNodes>
            0 -1 21 -1811693475 475582729 165273 -532606912 -2147188726
            -267877760 -2080135037 1347377440</internalNodes>
          <leafValues>
            -7.3915451765060425e-01 3.2179939746856689e-01</leafValues></_>
        <_>
          <internalNodes>
            0 -1 3 109245879 -373191407 -2147450743 2030285064 235383681
            592128 1368031746 1233386523</internalNodes>
          <leafValues>
            -5.4932266473770142e-01 4.0296024084091187e-01</leafValues></_>
        <_>
          <internalNodes>
            0 -1 62 -1811846835 -1342140352 -1073704823 -2079326064
            -402603608 -1065320448 -2147437877 148488331</internalNodes>
          <leafValues>
            -5.3955906629562378e-01 4.4861185550689697e-01</leafValues></_>
        <_>
          <internalNodes>
            0 -1 67 -164174862 -206143490 -1140850964 -17006986
            -1891174409 -276889603 519438207 -1665696717</internalNodes>
          <leafValues>
            -4.8156493902206421e-01 5.4162710905075073e-01</leafValues></_>
        <_>
          <internalNodes>
            0 -1 66 -1325381332 -19495514 -1341355880 -1648606692
            -1876860844 1522794560 -2130149132 1107708592</internalNodes>
          <leafValues>
            -7.5328093767166138e-01 3.4713840484619141e-01</leafValues></_></weakClassifiers></_>
    <!-- stage 11 -->
    <_>
      <maxWeakCount>7</maxWeakCount>
      <stageThreshold>-4.8559519648551941e-01</stageThreshold>
      <weakClassifiers>
        <_>
          <internalNodes>
            0 -1 44 1364376279 -649997887 285217137 -787279603
            -1874273799 -125529975 -48591986 -610037874</internalNodes>
          <leafValues>
            -6.9688767194747925e-01 2.4945770204067230e-01</leafValues></_>
        <_>
          <internalNodes>
            0 -1 7 -880688654 1151385738 -1064251370 -753741422
            2021757119 1075085952 -791897980 -336344910</internalNodes>
          <leafValues>
            -6.6852682828903198e-01 3.3311530947685242e-01</leafValues></_>
        <_>
          <internalNodes>
            0 -1 14 152528675 83862975 1139508493 91185575 -762646169
            -527491069 -394657229 -173718425</internalNodes>
          <leafValues>
            -5.6825643777847290e-01 4.2285153269767761e-01</leafValues></_>
        <_>
          <internalNodes>
            0 -1 42 -1048850131 -1005993762 -2130312854 -452935667
            67336255 -1451229176 1309161785 1626120737</internalNodes>
          <leafValues>
            -5.9904605150222778e-01 4.3739077448844910e-01</leafValues></_>
        <_>
          <internalNodes>
            0 -1 56 -66022948 1351090328 35041 1980796955 -1341603336
            -653590390 -1993278561 470050880</internalNodes>
          <leafValues>
            -6.4029282331466675e-01 3.8036361336708069e-01</leafValues></_>
        <_>
          <internalNodes>
            0 -1 0 -1043756669 1996554626 -1873800950 -654311416
            -1878947840 1805648304 -1711079420 748919139</internalNodes>
          <leafValues>
            -6.2566596269607544e-01 4.1728556156158447e-01</leafValues></_>
        <_>
          <internalNodes>
            0 -1 54 1644483027 -1861099518 5341296 1141297995 1225044068
            1650493443 -1014902780 -946406796</internalNodes>
          <leafValues>
            -6.7477011680603027e-01 3.5497084259986877e-01</leafValues></_></weakClassifiers></_></stages>
  <features>
    <_>
      <rect>
        0 1 1 1</rect></_>
    <_>
      <rect>
        0 1 2 3</rect></_>
    <_>
      <rect>
        0 1 3 4</rect></_>
    <_>
      <rect>
        0 2 2 5</rect></_>
    <_>
      <rect>
        0 10 1 2</rect></_>
    <_>
      <rect>
        0 11 2 3</rect></_>
    <_>
      <rect>
        1 1 3 7</rect></_>
    <_>
      <rect>
        1 2 3 3</rect></_>
    <_>
      <rect>
        1 3 2 3</rect></_>
    <_>
      <rect>
        1 12 4 4</rect></_>
    <_>
      <rect>
        1 15 3 3</rect></_>
    <_>
      <rect>
        2 2 2 2</rect></_>
    <_>
      <rect>
        2 4 1 1</rect></_>
    <_>
      <rect>
        2 9 3 2</rect></_>
    <_>
      <rect>
        3 2 4 6</rect></_>
    <_>
      <rect>
        3 3 2 3</rect></_>
    <_>
      <rect>
        3 5 4 3</rect></_>
    <_>
      <rect>
        3 11 4 3</rect></_>
    <_>
      <rect>
        4 1 2 2</rect></_>
    <_>
      <rect>
        4 3 3 6</rect></_>
    <_>
      <rect>
        4 4 6 5</rect></_>
    <_>
      <rect>
        4 5 3 2</rect></_>
    <_>
      <rect>
        4 5 3 3</rect></_>
    <_>
      <rect>
        4 9 2 3</rect></_>
    <_>
      <rect>
        4 14 1 1</rect></_>
    <_>
      <rect>
        5 2 4 4</rect></_>
    <_>
      <rect>
        5 7 2 1</rect></_>
    <_>
      <rect>
        5 15 2 1</rect></_>
    <_>
      <rect>
        6 2 4 5</rect></_>
    <_>
      <rect>
        6 3 4 5</rect></_>
    <_>
      <rect>
        6 3 5 5</rect></_>
    <_>
      <rect>
        6 4 3 3</rect></_>
    <_>
      <rect>
        6 7 2 1</rect></_>
    <_>
      <rect>
        6 9 2 3</rect></_>
    <_>
      <rect>
        6 11 2 1</rect></_>
    <_>
      <rect>
        6 12 2 1</rect></_>
    <_>
      <rect>
        7 4 3 4</rect></_>
    <_>
      <rect>
        7 6 3 2</rect></_>
    <_>
      <rect>
        7 6 4 2</rect></_>
    <_>
      <rect>
        7 15 2 3</rect></_>
    <_>
      <rect>
        7 15 3 3</rect></_>
    <_>
      <rect>
        8 1 3 5</rect></_>
    <_>
      <rect>
        8 2 5 6</rect></_>
    <_>
      <rect>
        8 4 3 2</rect></_>
    <_>
      <rect>
        8 5 3 2</rect></_>
    <_>
      <rect>
        8 20 1 1</rect></_>
    <_>
      <rect>
        9 12 2 4</rect></_>
    <_>
      <rect>
        10 6 2 4</rect></_>
    <_>
      <rect>
        10 6 3 2</rect></_>
    <_>
      <rect>
        10 7 1 1</rect></_>
    <_>
      <rect>
        11 2 3 6</rect></_>
    <_>
      <rect>
        11 3 3 6</rect></_>
    <_>
      <rect>
        11 4 2 3</rect></_>
    <_>
      <rect>
        11 4 4 6</rect></_>
    <_>
      <rect>
        11 10 3 4</rect></_>
    <_>
      <rect>
        11 18 1 1</rect></_>
    <_>
      <rect>
        12 13 2 1</rect></_>
    <_>
      <rect>
        12 15 2 3</rect></_>
    <_>
      <rect>
        13 9 2 2</rect></_>
    <_>
      <rect>
        13 11 3 2</rect></_>
    <_>
      <rect>
        14 1 3 6</rect></_>
    <_>
      <rect>
        14 4 2 3</rect></_>
    <_>
      <rect>
        14 8 2 1</rect></_>
    <_>
      <rect>
        14 12 1 1</rect></_>
    <_>
      <rect>
        14 13 1 1</rect></_>
    <_>
      <rect>
        14 15 3 3</rect></_>
    <_>
      <rect>
        14 17 2 2</rect></_>
    <_>
      <rect>
        14 18 1 1</rect></_>
    <_>
      <rect>
        15 2 2 2</rect></_>
    <_>
      <rect>
        15 3 3 5</rect></_>
    <_>
      <rect>
        16 15 1 1</rect></_>
    <_>
      <rect>
        16 16 1 1</rect></_>
    <_>
      <rect>
        18 1 2 3</rect></_>
    <_>
      <rect>
        20 10 1 3</rect></_></features></cascade>
</opencv_storage>
