<?xml version="1.0"?>
<opencv_storage>
<cascade>
  <stageType>BOOST</stageType>
  <featureType>LBP</featureType>
  <height>24</height>
  <width>24</width>
  <stageParams>
    <boostType>GAB</boostType>
    <minHitRate>9.9500000476837158e-01</minHitRate>
    <maxFalseAlarm>3.0000001192092896e-01</maxFalseAlarm>
    <weightTrimRate>9.4999999999999996e-01</weightTrimRate>
    <maxDepth>1</maxDepth>
    <maxWeakCount>100</maxWeakCount></stageParams>
  <featureParams>
    <maxCatCount>256</maxCatCount>
    <featSize>1</featSize></featureParams>
  <stageNum>12</stageNum>
  <stages>
    <!-- stage 0 -->
    <_>
      <maxWeakCount>6</maxWeakCount>
      <stageThreshold>-9.7117656469345093e-01</stageThreshold>
      <weakClassifiers>
        <_>
          <internalNodes>
            0 -1 60 -178929665 -686325549 21168409 1058472201
            -1152734785 -1131216821 1003097514 1072630283</internalNodes>
          <leafValues>
            -8.4316265583038330e-01 5.8459740877151489e-01</leafValues></_>
        <_>
          <internalNodes>
            0 -1 34 -1142966849 1059033538 16946335 521240991 2055456959
            455188623 545894111 868215487</internalNodes>
          <leafValues>
            -7.1233385801315308e-01 4.6719977259635925e-01</leafValues></_>
        <_>
          <internalNodes>
            0 -1 56 1170920000 -720858088 1413600990 -138717931
            -888488971 -222584830 1218046716 -270663981</internalNodes>
          <leafValues>
            -7.2716915607452393e-01 4.1572967171669006e-01</leafValues></_>
        <_>
          <internalNodes>
            0 -1 31 -805285744 -50331175 -805256784 -585396146
            -2147358471 -393535448 -796224583 -1952473605</internalNodes>
          <leafValues>
            -6.0555011034011841e-01 4.5488888025283813e-01</leafValues></_>
        <_>
          <internalNodes>
            0 -1 22 -253890364 -698957498 117440824 21376 -788111104
            -783709990 -904998096 1227936666</internalNodes>
          <leafValues>
            -7.1047115325927734e-01 4.3335843086242676e-01</leafValues></_>
        <_>
          <internalNodes>
            0 -1 63 2062622906 890478610 16778714 890737934 -389774872
            -1163427702 1083804078 1072645166</internalNodes>
          <leafValues>
            -6.8583464622497559e-01 4.2417263984680176e-01</leafValues></_></weakClassifiers></_>
    <!-- stage 1 -->
    <_>
      <maxWeakCount>8</maxWeakCount>
      <stageThreshold>-8.4078234434127808e-01</stageThreshold>
      <weakClassifiers>
        <_>
          <internalNodes>
            0 -1 86 -612895745 -70018725 -654206691 -7532153 -108945665
            -125500798 2074815679 2144285375</internalNodes>
          <leafValues>
            -7.3623561859130859e-01 4.1766110062599182e-01</leafValues></_>
        <_>
          <internalNodes>
            0 -1 54 -672360449 -45048877 -1753182817 -1492875233
            -506804052 -1315858238 -746420084 -1079046482</internalNodes>
          <leafValues>
            -5.4760771989822388e-01 4.2259892821311951e-01</leafValues></_>
        <_>
          <internalNodes>
            0 -1 94 -484056064 677343350 -1727883195 -309608184
            251723776 1568917921 473974895 -831521865</internalNodes>
          <leafValues>
            -6.7147755622863770e-01 3.4236800670623779e-01</leafValues></_>
        <_>
          <internalNodes>
            0 -1 14 -1014527898 4604288 -1862217454 -1445527418
            1192138923 134357059 184636182 1529856879</internalNodes>
          <leafValues>
            -6.3222432136535645e-01 3.3308604359626770e-01</leafValues></_>
        <_>
          <internalNodes>
            0 -1 76 335600400 1015064771 553687900 -641429458 1837736899
            -637533694 -984397687 -73415765</internalNodes>
          <leafValues>
            -5.7772761583328247e-01 3.7108141183853149e-01</leafValues></_>
        <_>
          <internalNodes>
            0 -1 109 -718827378 1427718922 -2063544289 1763033161
            -2126413824 679477254 -1207392128 1456330219</internalNodes>
          <leafValues>
            -5.5168586969375610e-01 3.9565101265907288e-01</leafValues></_>
        <_>
          <internalNodes>
            0 -1 48 -39788822 -760951682 -16886106 1374641328
            -1092624468 -1635928195 952090537 -1874640657</internalNodes>
          <leafValues>
            -4.1143831610679626e-01 5.5053102970123291e-01</leafValues></_>
        <_>
          <internalNodes>
            0 -1 74 1910024440 -775487470 1699029207 -1354292928
            155783219 -1174077438 1187976058 1666430878</internalNodes>
          <leafValues>
            -5.4404824972152710e-01 4.1238245368003845e-01</leafValues></_></weakClassifiers></_>
    <!-- stage 2 -->
    <_>
      <maxWeakCount>10</maxWeakCount>
      <stageThreshold>-9.9415290355682373e-01</stageThreshold>
      <weakClassifiers>
        <_>
          <internalNodes>
            0 -1 73 -11288833 -247258161 -721177121 -167791341
            -1727285313 -780075824 -1076121682 -68173938</internalNodes>
          <leafValues>
            -6.5245068073272705e-01 2.7141132950782776e-01</leafValues></_>
        <_>
          <internalNodes>
            0 -1 64 -733945856 -1067477872 587110365 -18165253
            -904295663 -894722047 -1073158371 -42667011</internalNodes>
          <leafValues>
            -7.6398855447769165e-01 1.8318486213684082e-01</leafValues></_>
        <_>
          <internalNodes>
            0 -1 118 -472928 1352822736 -268697632 1135394388
            -1074210852 1476263413 -594855777 829366543</internalNodes>
          <leafValues>
            -4.0159192681312561e-01 4.7055712342262268e-01</leafValues></_>
        <_>
          <internalNodes>
            0 -1 43 -213541925 491909457 1342475143 21432582 -2046762804
            571549426 -802584102 548995151</internalNodes>
          <leafValues>
            -6.5744739770889282e-01 3.2017454504966736e-01</leafValues></_>
        <_>
          <internalNodes>
            0 -1 8 -325856269 -129215155 1225790222 1010882842
            -1065128300 -535716989 1644728638 -168050813</internalNodes>
          <leafValues>
            -5.0662380456924438e-01 3.5133275389671326e-01</leafValues></_>
        <_>
          <internalNodes>
            0 -1 38 -23012648 1576690418 -1090851062 2032750205
            -1678442620 1461469182 -270519059 152786383</internalNodes>
          <leafValues>
            -3.5925513505935669e-01 5.3920596837997437e-01</leafValues></_>
        <_>
          <internalNodes>
            0 -1 120 -515434488 1505841163 -1073659897 1161904130
            -1065136056 680067202 -100652338 -1707750822</internalNodes>
          <leafValues>
            -4.8914921283721924e-01 3.7538871169090271e-01</leafValues></_>
        <_>
          <internalNodes>
            0 -1 70 -120793318 1224893190 -1610604412 -775861943
            -1073700852 687996928 -133516384 -159325984</internalNodes>
          <leafValues>
            -5.5621707439422607e-01 3.3172425627708435e-01</leafValues></_>
        <_>
          <internalNodes>
            0 -1 108 -1755728342 1926127814 -2147418019 1279738122
            -95932097 813760584 1086597270 1320127118</internalNodes>
          <leafValues>
            -5.1643294095993042e-01 3.7285611033439636e-01</leafValues></_>
        <_>
          <internalNodes>
            0 -1 98 -707410440 -1689124864 1360036126 1865551896
            846914216 -752941938 9967754 153139852</internalNodes>
          <leafValues>
            -5.3523010015487671e-01 3.4378343820571899e-01</leafValues></_></weakClassifiers></_>
    <!-- stage 3 -->
    <_>
      <maxWeakCount>12</maxWeakCount>
      <stageThreshold>-8.7235248088836670e-01</stageThreshold>
      <weakClassifiers>
        <_>
          <internalNodes>
            0 -1 27 -169620329 -205225342 1090552013 -1047520 572298
            1937817601 -795506041 -539020717</internalNodes>
          <leafValues>
            -6.2847459316253662e-01 1.3729730248451233e-01</leafValues></_>
        <_>
          <internalNodes>
            0 -1 80 -141962616 -44380024 1090576832 2076525978
            -1190211358 -1878228864 -247408630 446794</internalNodes>
          <leafValues>
            -4.6350440382957458e-01 3.3706900477409363e-01</leafValues></_>
        <_>
          <internalNodes>
            0 -1 90 1474242252 -791332849 1359122604 -1849358066
            1380547457 1359126538 432159481 1608334581</internalNodes>
          <leafValues>
            -6.8019366264343262e-01 2.4926082789897919e-01</leafValues></_>
        <_>
          <internalNodes>
            0 -1 36 985007612 1467797196 1072573755 -676565265 905627288
            -1082688009 -1661665809 -1144621068</internalNodes>
          <leafValues>
            -3.6960136890411377e-01 4.3590927124023438e-01</leafValues></_>
        <_>
          <internalNodes>
            0 -1 122 -799228888 1142800707 4194443 4669443 58796288
            34603011 -2062477078 582995215</internalNodes>
          <leafValues>
            -6.4056944847106934e-01 2.5082129240036011e-01</leafValues></_>
        <_>
          <internalNodes>
            0 -1 78 -784270881 -1451079192 20975960 -1042923280
            -779493376 297310945 -1958502316 -691686664</internalNodes>
          <leafValues>
            -4.9028590321540833e-01 3.4008058905601501e-01</leafValues></_>
        <_>
          <internalNodes>
            0 -1 115 -1229786816 -140674132 -134370051 1940487417
            -277547041 -1405485193 -682229762 -1089266081</internalNodes>
          <leafValues>
            -3.3180692791938782e-01 5.4440456628799438e-01</leafValues></_>
        <_>
          <internalNodes>
            0 -1 47 -251604492 1889538128 1880097033 -855638015
            -1853854784 -1841775694 855814681 662834016</internalNodes>
          <leafValues>
            -4.3319001793861389e-01 4.0453946590423584e-01</leafValues></_>
        <_>
          <internalNodes>
            0 -1 97 -1782558704 -742309840 1090564891 -854753231
            -1442836072 411633792 -905828182 -905050040</internalNodes>
          <leafValues>
            -4.0331581234931946e-01 4.2632114887237549e-01</leafValues></_>
        <_>
          <internalNodes>
            0 -1 19 -1044201063 -2004447086 -805240819 1226052784
            1098963115 428384392 1879443525 1170540227</internalNodes>
          <leafValues>
            -6.4847141504287720e-01 2.7317276597023010e-01</leafValues></_>
        <_>
          <internalNodes>
            0 -1 52 -2133456893 -368752819 1044910388 -2075717550
            1098934318 -1865432894 837363029 -1311051003</internalNodes>
          <leafValues>
            -5.0316160917282104e-01 3.3615750074386597e-01</leafValues></_>
        <_>
          <internalNodes>
            0 -1 39 -13394779 1407708926 -1073811474 -1656872970
            2097039068 2004350844 -1266879265 1396641610</internalNodes>
          <leafValues>
            -3.2572814822196960e-01 5.5306231975555420e-01</leafValues></_></weakClassifiers></_>
    <!-- stage 4 -->
    <_>
      <maxWeakCount>12</maxWeakCount>
      <stageThreshold>-8.5615730285644531e-01</stageThreshold>
      <weakClassifiers>
        <_>
          <internalNodes>
            0 -1 7 -1795033129 -581369597 1233704318 970185626
            -1879010662 -384622573 -1818697744 -214313165</internalNodes>
          <leafValues>
            -6.0108178853988647e-01 9.6634089946746826e-02</leafValues></_>
        <_>
          <internalNodes>
            0 -1 119 -651633160 -212702028 1857547001 2105503669
            -1002656002 1962474719 947053755 725554959</internalNodes>
          <leafValues>
            -3.3248797059059143e-01 4.5952549576759338e-01</leafValues></_>
        <_>
          <internalNodes>
            0 -1 0 -419168705 -370889830 -736959872 -464363492
            1380618334 747151619 18833671 1087365310</internalNodes>
          <leafValues>
            -5.2214157581329346e-01 2.8755515813827515e-01</leafValues></_>
        <_>
          <internalNodes>
            0 -1 72 -1738688854 911717847 -805203756 526223825
            1163038938 -1056866303 -1316248945 1028013909</internalNodes>
          <leafValues>
            -5.4005175828933716e-01 2.6950708031654358e-01</leafValues></_>
        <_>
          <internalNodes>
            0 -1 77 503371928 -527694832 1208093148 1238216704
            -1283159606 -131071872 772311212 -1199566456</internalNodes>
          <leafValues>
            -4.4735771417617798e-01 3.6021059751510620e-01</leafValues></_>
        <_>
          <internalNodes>
            0 -1 125 -77872475 -1996472304 1074073920 -984579840
            268607928 9634465 1218876432 -782116250</internalNodes>
          <leafValues>
            -5.4120230674743652e-01 2.9342085123062134e-01</leafValues></_>
        <_>
          <internalNodes>
            0 -1 13 -958488574 127500435 1258586699 1108713552
            1913160579 1904939019 1673224 -119699581</internalNodes>
          <leafValues>
            -5.3304034471511841e-01 2.6229417324066162e-01</leafValues></_>
        <_>
          <internalNodes>
            0 -1 100 1385165546 -259435569 285872908 -2100834140
            537026816 822509698 -486506322 543392322</internalNodes>
          <leafValues>
            -4.3000027537345886e-01 3.7386900186538696e-01</leafValues></_>
        <_>
          <internalNodes>
            0 -1 51 -7330880 1477775637 1073771720 -106540733
            -1962376974 -1584885592 -2003651335 -662269953</internalNodes>
          <leafValues>
            -5.7157945632934570e-01 2.7904710173606873e-01</leafValues></_>
        <_>
          <internalNodes>
            0 -1 83 1897648217 1399381251 151760 -133119973 1216470088
            -2130624128 1228984976 -467086314</internalNodes>
          <leafValues>
            -4.2708960175514221e-01 3.8965553045272827e-01</leafValues></_>
        <_>
          <internalNodes>
            0 -1 68 -861865348 523206014 -1208025362 972377131
            -307445829 -65577 -805523525 -768603606</internalNodes>
          <leafValues>
            -3.7698620557785034e-01 4.3189048767089844e-01</leafValues></_>
        <_>
          <internalNodes>
            0 -1 128 -832188953 -2068840452 1593278443 1056004859
            1816026326 2130149237 -2021990690 1843908351</internalNodes>
          <leafValues>
            -2.9681262373924255e-01 5.4197376966476440e-01</leafValues></_></weakClassifiers></_>
    <!-- stage 5 -->
    <_>
      <maxWeakCount>12</maxWeakCount>
      <stageThreshold>-1.2695111036300659e+00</stageThreshold>
      <weakClassifiers>
        <_>
          <internalNodes>
            0 -1 35 -744294448 -243236596 -872374885 -544037888
            -2122208846 -441933263 -1702763778 -10263759</internalNodes>
          <leafValues>
            -6.0932147502899170e-01 9.4580233097076416e-02</leafValues></_>
        <_>
          <internalNodes>
            0 -1 87 1383268368 1091166680 1678159950 -636503602
            1518824416 1811972096 2131209120 -654338351</internalNodes>
          <leafValues>
            -5.7893246412277222e-01 2.1510507166385651e-01</leafValues></_>
        <_>
          <internalNodes>
            0 -1 112 -97993224 -76918938 1069154295 2012835005
            -2081108022 -97136673 515674062 203228507</internalNodes>
          <leafValues>
            -3.3918458223342896e-01 3.8533711433410645e-01</leafValues></_>
        <_>
          <internalNodes>
            0 -1 41 -436018336 1587835362 -1795157728 -2146426108
            1663304258 1997683228 555522818 1147198242</internalNodes>
          <leafValues>
            -7.3590582609176636e-01 2.3131074011325836e-01</leafValues></_>
        <_>
          <internalNodes>
            0 -1 101 -984550058 -686165653 335561029 -108133885
            -1643467583 -636944373 -1012361016 -281683317</internalNodes>
          <leafValues>
            -3.8367810845375061e-01 3.6940923333168030e-01</leafValues></_>
        <_>
          <internalNodes>
            0 -1 129 -538510134 -352895108 -591941 -1300496620
            1458863942 746552923 -42533473 1999486719</internalNodes>
          <leafValues>
            -3.4873741865158081e-01 3.9949914813041687e-01</leafValues></_>
        <_>
          <internalNodes>
            0 -1 89 -11085095 -1144078793 -1140921109 159722220
            2136762264 -1766391809 1865903706 -229673186</internalNodes>
          <leafValues>
            -3.1349533796310425e-01 4.5633023977279663e-01</leafValues></_>
        <_>
          <internalNodes>
            0 -1 37 -357771345 -337058068 -553857283 -14644018
            -1896448258 -1614290978 2129960924 -580737836</internalNodes>
          <leafValues>
            -3.5679674148559570e-01 4.0985417366027832e-01</leafValues></_>
        <_>
          <internalNodes>
            0 -1 3 1766039975 -1514109222 17891648 598306 1090544395
            423633411 -671060918 1402036923</internalNodes>
          <leafValues>
            -7.1779549121856689e-01 2.1579217910766602e-01</leafValues></_>
        <_>
          <internalNodes>
            0 -1 102 -173998180 -105185410 -1073955594 -202146436
            -29845320 -276857346 -1227031410 -273146117</internalNodes>
          <leafValues>
            -3.1057676672935486e-01 5.0974559783935547e-01</leafValues></_>
        <_>
          <internalNodes>
            0 -1 24 1170564865 96809167 554795371 99467580 872489538
            276955778 -486307734 1996340261</internalNodes>
          <leafValues>
            -4.5667964220046997e-01 3.5543367266654968e-01</leafValues></_>
        <_>
          <internalNodes>
            0 -1 58 -575103555 -575308040 -19071577 866766509 -298524803
            -214532259 -1975617910 -1433397757</internalNodes>
          <leafValues>
            -3.4972557425498962e-01 4.3129801750183105e-01</leafValues></_></weakClassifiers></_>
    <!-- stage 6 -->
    <_>
      <maxWeakCount>9</maxWeakCount>
      <stageThreshold>-9.1515463590621948e-01</stageThreshold>
      <weakClassifiers>
        <_>
          <internalNodes>
            0 -1 99 -176293921 -1284275828 1259571407 -758349620
            -1363614724 176291840 1247979724 -1002389424</internalNodes>
          <leafValues>
            -6.9042772054672241e-01 2.3408845067024231e-01</leafValues></_>
        <_>
          <internalNodes>
            0 -1 12 -515396824 -980211674 1067008 -221150720 1627452674
            1132472842 -108986618 -573051441</internalNodes>
          <leafValues>
            -4.9682030081748962e-01 4.3671718239784241e-01</leafValues></_>
        <_>
          <internalNodes>
            0 -1 66 -851073529 -36699773 -863401692 -582483584
            -901717829 -519532343 -931083541 -1751974709</internalNodes>
          <leafValues>
            -5.1281714439392090e-01 3.9074143767356873e-01</leafValues></_>
        <_>
          <internalNodes>
            0 -1 28 2121989586 214962564 -1148561964 -468696760
            138809460 -1733656543 -2099899760 1488246084</internalNodes>
          <leafValues>
            -6.4049655199050903e-01 2.7917468547821045e-01</leafValues></_>
        <_>
          <internalNodes>
            0 -1 110 -787115093 2013331456 -2146381735 -1047183227
            742570158 -1233104880 142780548 -1126698038</internalNodes>
          <leafValues>
            -4.0433725714683533e-01 4.6714153885841370e-01</leafValues></_>
        <_>
          <internalNodes>
            0 -1 105 -554051363 -1817354898 1810726893 1537985437
            -283077158 -1360760834 -462270738 297927687</internalNodes>
          <leafValues>
            -3.3682200312614441e-01 5.3342598676681519e-01</leafValues></_>
        <_>
          <internalNodes>
            0 -1 40 -377044888 1342537882 -2130705912 -583663438
            1996628608 236683342 -1593164785 -856039185</internalNodes>
          <leafValues>
            -4.4270280003547668e-01 4.1153433918952942e-01</leafValues></_>
        <_>
          <internalNodes>
            0 -1 25 -68944199 1000483770 -75 2129342274 1065156479
            -1343918081 -65553 -226234442</internalNodes>
          <leafValues>
            -3.7664186954498291e-01 5.0747835636138916e-01</leafValues></_>
        <_>
          <internalNodes>
            0 -1 18 612670464 -158207856 -1202515123 -1281425187
            -2100665603 -1802993503 -506860153 -224202295</internalNodes>
          <leafValues>
            -5.6180393695831299e-01 3.7424409389495850e-01</leafValues></_></weakClassifiers></_>
    <!-- stage 7 -->
    <_>
      <maxWeakCount>10</maxWeakCount>
      <stageThreshold>-9.7515058517456055e-01</stageThreshold>
      <weakClassifiers>
        <_>
          <internalNodes>
            0 -1 88 -35654657 -242233128 -721303041 -1731442 -792691985
            1145700546 -745581667 2133552875</internalNodes>
          <leafValues>
            -6.8315505981445313e-01 2.4557521939277649e-01</leafValues></_>
        <_>
          <internalNodes>
            0 -1 11 -170987126 -1356299646 -251539008 -518651432
            1258735826 1140918282 1519227578 -706958885</internalNodes>
          <leafValues>
            -6.1651188135147095e-01 2.8576481342315674e-01</leafValues></_>
        <_>
          <internalNodes>
            0 -1 16 -169872673 -708848865 -2121531378 -352959966
            -217321321 1754204867 -1819163605 -203950014</internalNodes>
          <leafValues>
            -4.6291458606719971e-01 4.1088560223579407e-01</leafValues></_>
        <_>
          <internalNodes>
            0 -1 117 -1659396350 -1650751268 -2147415651 -1918771043
            -2087610177 369118344 1888082602 -1164064114</internalNodes>
          <leafValues>
            -4.7869661450386047e-01 3.8354334235191345e-01</leafValues></_>
        <_>
          <internalNodes>
            0 -1 59 -255153188 -616378150 -788446461 -195730303
            -771735159 -79626223 -649223446 12380846</internalNodes>
          <leafValues>
            -5.5733412504196167e-01 3.4923034906387329e-01</leafValues></_>
        <_>
          <internalNodes>
            0 -1 45 -797255743 1076969629 -1877864171 1279610881
            -1827020112 -2000158205 25823364 1600113099</internalNodes>
          <leafValues>
            -4.3191105127334595e-01 4.4531086087226868e-01</leafValues></_>
        <_>
          <internalNodes>
            0 -1 65 5341482 -1861132120 -922694386 -706965491 1073803402
            -257916768 -134050932 -260375349</internalNodes>
          <leafValues>
            -6.0371667146682739e-01 3.0904701352119446e-01</leafValues></_>
        <_>
          <internalNodes>
            0 -1 10 1857490935 -501337745 -1945098942 980580676
            -477701993 -132071422 1099555471 -1063275179</internalNodes>
          <leafValues>
            -4.5785629749298096e-01 4.0569397807121277e-01</leafValues></_>
        <_>
          <internalNodes>
            0 -1 9 -1517766872 -519991292 285249602 554991635 193649410
            311099458 -1878552287 929016589</internalNodes>
          <leafValues>
            -5.4682183265686035e-01 3.6237716674804688e-01</leafValues></_>
        <_>
          <internalNodes>
            0 -1 35 1187008704 -1874294772 -988704418 -1761147548
            -1836987399 1925744768 -645890037 1527870276</internalNodes>
          <leafValues>
            -5.5344605445861816e-01 3.2293695211410522e-01</leafValues></_></weakClassifiers></_>
    <!-- stage 8 -->
    <_>
      <maxWeakCount>14</maxWeakCount>
      <stageThreshold>-9.5901823043823242e-01</stageThreshold>
      <weakClassifiers>
        <_>
          <internalNodes>
            0 -1 61 -754716265 -183380407 -721380971 -537542399
            -770518511 -685404032 -50231093 -925900085</internalNodes>
          <leafValues>
            -5.1026856899261475e-01 3.3732533454895020e-01</leafValues></_>
        <_>
          <internalNodes>
            0 -1 91 141517125 1237959082 -477811831 1795285643 804208511
            -471621621 -814893002 1565066075</internalNodes>
          <leafValues>
            -4.8662331700325012e-01 2.6777759194374084e-01</leafValues></_>
        <_>
          <internalNodes>
            0 -1 103 -1124154019 -570425385 -1090719747 -268501635
            -1766472236 -1092618763 -1429930356 -1610879553</internalNodes>
          <leafValues>
            -3.4208604693412781e-01 3.9956989884376526e-01</leafValues></_>
        <_>
          <internalNodes>
            0 -1 29 -384305696 -187634398 1954830346 704693728 -83213566
            -1735610148 859883718 1347600208</internalNodes>
          <leafValues>
            -7.2904789447784424e-01 2.0448867976665497e-01</leafValues></_>
        <_>
          <internalNodes>
            0 -1 113 -123939160 -34046600 -25272363 -821334 -537116994
            1599987695 -1150320998 550192314</internalNodes>
          <leafValues>
            -3.2934117317199707e-01 4.3048143386840820e-01</leafValues></_>
        <_>
          <internalNodes>
            0 -1 4 -1581137521 -1071636088 69792 -1013147512 402715259
            16794115 -1426005445 -112403593</internalNodes>
          <leafValues>
            -4.8990327119827271e-01 3.0833518505096436e-01</leafValues></_>
        <_>
          <internalNodes>
            0 -1 93 1682209008 1451294723 1141017997 1426161994
            1647592048 -1459421175 -77591765 -359602106</internalNodes>
          <leafValues>
            -6.5257591009140015e-01 2.1940442919731140e-01</leafValues></_>
        <_>
          <internalNodes>
            0 -1 104 -892449797 2113240062 -1360081257 2147315256
            2145376136 -403247140 -1883456232 789128967</internalNodes>
          <leafValues>
            -3.4045261144638062e-01 4.2504110932350159e-01</leafValues></_>
        <_>
          <internalNodes>
            0 -1 106 -1425741105 -1899032429 1493797452 -332725975
            -113542460 -668434423 -260044315 -1068267989</internalNodes>
          <leafValues>
            -4.7059085965156555e-01 3.2835644483566284e-01</leafValues></_>
        <_>
          <internalNodes>
            0 -1 123 -997968760 -757279607 1073803416 -1941581547
            -259987374 117964935 -1197307234 -270818597</internalNodes>
          <leafValues>
            -3.5640487074851990e-01 4.0178588032722473e-01</leafValues></_>
        <_>
          <internalNodes>
            0 -1 85 575940063 1367445575 -268333033 1342308435 12809066
            -1274904000 1789600524 1771923886</internalNodes>
          <leafValues>
            -4.9712398648262024e-01 3.1380847096443176e-01</leafValues></_>
        <_>
          <internalNodes>
            0 -1 67 -50209547 -1624315094 -889880789 -1652730531
            -1224737122 -1304559745 2146434415 1751965668</internalNodes>
          <leafValues>
            -3.4148034453392029e-01 4.8773542046546936e-01</leafValues></_>
        <_>
          <internalNodes>
            0 -1 17 1510169012 2018738560 319834382 380646674
            -2147253460 1233361064 -2012574787 1170454123</internalNodes>
          <leafValues>
            -5.2764934301376343e-01 3.1609961390495300e-01</leafValues></_>
        <_>
          <internalNodes>
            0 -1 114 -741233137 1206817546 1073812446 471077254
            440423390 -1001324146 142651948 -780686424</internalNodes>
          <leafValues>
            -4.6532672643661499e-01 3.4957793354988098e-01</leafValues></_></weakClassifiers></_>
    <!-- stage 9 -->
    <_>
      <maxWeakCount>14</maxWeakCount>
      <stageThreshold>-7.7551883459091187e-01</stageThreshold>
      <weakClassifiers>
        <_>
          <internalNodes>
            0 -1 44 -787090987 -708715888 -805251811 -615230371
            -133504550 -199178880 -129971974 340778970</internalNodes>
          <leafValues>
            -5.8485805988311768e-01 1.5582822263240814e-01</leafValues></_>
        <_>
          <internalNodes>
            0 -1 1 23503017 369547138 1358975120 -1291455846 713050208
            16831235 1090871616 1145565007</internalNodes>
          <leafValues>
            -5.6257385015487671e-01 2.3424467444419861e-01</leafValues></_>
        <_>
          <internalNodes>
            0 -1 33 -488292963 1100302407 -1626759236 -281859629
            -1744814859 -650111989 -1424992966 -33432534</internalNodes>
          <leafValues>
            -3.5361960530281067e-01 3.5838490724563599e-01</leafValues></_>
        <_>
          <internalNodes>
            0 -1 82 -68199589 -774814823 285360385 -1434304482
            -1557841183 428065634 -237795114 -326047856</internalNodes>
          <leafValues>
            -4.0606361627578735e-01 3.2614281773567200e-01</leafValues></_>
        <_>
          <internalNodes>
            0 -1 30 -1957413504 -1910950585 -1446836423 669981661
            436367492 -1500983288 681819622 -907237517</internalNodes>
          <leafValues>
            -3.6945101618766785e-01 3.6805623769760132e-01</leafValues></_>
        <_>
          <internalNodes>
            0 -1 84 -591399253 1287617392 1859039148 431058670
            1820129150 1433599870 -1657385857 1537963931</internalNodes>
          <leafValues>
            -2.9867830872535706e-01 4.7493937611579895e-01</leafValues></_>
        <_>
          <internalNodes>
            0 -1 71 -119490464 -1064582152 290877720 328646836
            -369095616 1107566595 1216356444 -752180750</internalNodes>
          <leafValues>
            -5.4236459732055664e-01 2.7111965417861938e-01</leafValues></_>
        <_>
          <internalNodes>
            0 -1 23 1018994848 223593744 -2041597630 -214974186
            -1845368815 597166122 918639185 1192200935</internalNodes>
          <leafValues>
            -4.4869935512542725e-01 3.3195072412490845e-01</leafValues></_>
        <_>
          <internalNodes>
            0 -1 79 -1183007785 -563370307 1726326521 1947852517
            -1342704281 2054807404 -1460619437 -283119888</internalNodes>
          <leafValues>
            -3.3116760849952698e-01 4.3067234754562378e-01</leafValues></_>
        <_>
          <internalNodes>
            0 -1 116 -531029718 -1175334460 -805158822 -1407860544
            1128311086 503488519 -1467881344 -822817591</internalNodes>
          <leafValues>
            -4.7340825200080872e-01 3.1367474794387817e-01</leafValues></_>
        <_>
          <internalNodes>
            0 -1 124 -277828200 -6784036 1055911181 -1625292833
            -1077940839 -1518945418 502570395 923393319</internalNodes>
          <leafValues>
            -3.2140353322029114e-01 4.7534722089767456e-01</leafValues></_>
        <_>
          <internalNodes>
            0 -1 50 158839091 205898887 356521731 -209380347 -515687861
            -1039957887 -124561693 -872733762</internalNodes>
          <leafValues>
            -4.3499261140823364e-01 3.5492196679115295e-01</leafValues></_>
        <_>
          <internalNodes>
            0 -1 53 2085509637 -1438416878 411407967 -1593593216
            -1953982437 -243073016 708359100 -1033387958</internalNodes>
          <leafValues>
            -4.2016783356666565e-01 3.6661309003829956e-01</leafValues></_>
        <_>
          <internalNodes>
            0 -1 57 483679384 -1769734118 -2130112283 484741464
            -2088719671 -1190559614 444607210 520882176</internalNodes>
          <leafValues>
            -5.6379967927932739e-01 2.7410349249839783e-01</leafValues></_></weakClassifiers></_>
    <!-- stage 10 -->
    <_>
      <maxWeakCount>13</maxWeakCount>
      <stageThreshold>-1.3849509954452515e+00</stageThreshold>
      <weakClassifiers>
        <_>
          <internalNodes>
            0 -1 75 -717160457 -654191155 1477547501 -585784959
            -534121485 -2013144429 -922645618 -140006522</internalNodes>
          <leafValues>
            -6.3337546586990356e-01 2.4694377183914185e-01</leafValues></_>
        <_>
          <internalNodes>
            0 -1 5 1573744963 25661574 -1073383027 -680966678
            -1190022471 1174456736 -779377984 1978379467</internalNodes>
          <leafValues>
            -4.5181596279144287e-01 3.1589019298553467e-01</leafValues></_>
        <_>
          <internalNodes>
            0 -1 6 2020350818 -155680438 -1689644688 -1467465526
            813929074 621981824 -880082299 -570697945</internalNodes>
          <leafValues>
            -6.8070435523986816e-01 2.1560010313987732e-01</leafValues></_>
        <_>
          <internalNodes>
            0 -1 126 -1074268321 461356670 -803853 548568947 -708880421
            804781951 -51130401 1397979122</internalNodes>
          <leafValues>
            -3.6098438501358032e-01 4.1406056284904480e-01</leafValues></_>
        <_>
          <internalNodes>
            0 -1 107 -1491042188 313851093 1140850420 -176628188
            -1908283393 1065025405 -1904417301 521108523</internalNodes>
          <leafValues>
            -3.5989972949028015e-01 4.0491890907287598e-01</leafValues></_>
        <_>
          <internalNodes>
            0 -1 55 -1257053288 -748908011 470390013 1443486344
            -1870597479 -1851096941 -2004836003 -194991220</internalNodes>
          <leafValues>
            -4.4779336452484131e-01 3.4695953130722046e-01</leafValues></_>
        <_>
          <internalNodes>
            0 -1 2 -430729950 286282049 -1650250737 -776761115 278954239
            1073815688 1687858104 -1040987623</internalNodes>
          <leafValues>
            -4.9807596206665039e-01 3.1359532475471497e-01</leafValues></_>
        <_>
          <internalNodes>
            0 -1 96 -1610492518 -1761492799 -788479730 -544948151
            -536847131 -1593311226 1094755054 565641287</internalNodes>
          <leafValues>
            -4.3812313675880432e-01 3.5114547610282898e-01</leafValues></_>
        <_>
          <internalNodes>
            0 -1 20 -1622522006 1703044224 -787951394 -165385982
            -1047916177 1761820891 1208993321 1476350315</internalNodes>
          <leafValues>
            -5.3941643238067627e-01 2.9231911897659302e-01</leafValues></_>
        <_>
          <internalNodes>
            0 -1 46 -1714474089 1277825304 -1825500483 1817609307
            671252553 -2110259158 -1163741248 1312856769</internalNodes>
          <leafValues>
            -5.0244379043579102e-01 3.1051909923553467e-01</leafValues></_>
        <_>
          <internalNodes>
            0 -1 95 1274153228 1124745364 -2142088830 1415934090
            576782910 -1867677566 660347759 852512269</internalNodes>
          <leafValues>
            -7.3026853799819946e-01 2.3059384524822235e-01</leafValues></_>
        <_>
          <internalNodes>
            0 -1 42 1073597937 -1241563138 2147432188 -872415297
            1073741779 -1258357377 -545665092 -658706979</internalNodes>
          <leafValues>
            -3.4821262955665588e-01 4.8392549157142639e-01</leafValues></_>
        <_>
          <internalNodes>
            0 -1 32 -1043213534 -1978715648 -1258282558 211714257
            -1316253437 185139232 -402636130 495913515</internalNodes>
          <leafValues>
            -5.5071032047271729e-01 3.0628776550292969e-01</leafValues></_></weakClassifiers></_>
    <!-- stage 11 -->
    <_>
      <maxWeakCount>11</maxWeakCount>
      <stageThreshold>-1.2300463914871216e+00</stageThreshold>
      <weakClassifiers>
        <_>
          <internalNodes>
            0 -1 62 -799559169 -204877753 -784329179 -573734131
            -267201605 -91627333 -246226001 -134223954</internalNodes>
          <leafValues>
            -5.7382744550704956e-01 2.8380385041236877e-01</leafValues></_>
        <_>
          <internalNodes>
            0 -1 111 -205391566 1021301017 -1878699823 -351071856
            -628407984 1413560345 -1339907384 -243279319</internalNodes>
          <leafValues>
            -5.8416610956192017e-01 2.5224414467811584e-01</leafValues></_>
        <_>
          <internalNodes>
            0 -1 81 -1005108396 1138016660 -1592669473 -36613803
            881803442 1753993513 285941795 54115775</internalNodes>
          <leafValues>
            -6.1575615406036377e-01 2.3260487616062164e-01</leafValues></_>
        <_>
          <internalNodes>
            0 -1 49 -44377966 -1307834 1878433519 1598889722 1454535886
            251584374 1459144139 1562074331</internalNodes>
          <leafValues>
            -3.0278456211090088e-01 5.4800462722778320e-01</leafValues></_>
        <_>
          <internalNodes>
            0 -1 15 -2000377158 1493246722 -1924657953 525062533
            1219584102 445022336 -746405189 2145112075</internalNodes>
          <leafValues>
            -5.9950381517410278e-01 2.7280983328819275e-01</leafValues></_>
        <_>
          <internalNodes>
            0 -1 92 -1000619729 537956867 -1862238076 138772889
            -1878429638 -2013232000 -1836944634 -425729242</internalNodes>
          <leafValues>
            -4.5017108321189880e-01 3.7236428260803223e-01</leafValues></_>
        <_>
          <internalNodes>
            0 -1 69 -761752616 -615284622 20886 1363263647 268472456
            -2122309606 860074508 2314311</internalNodes>
          <leafValues>
            -4.6351093053817749e-01 3.6188617348670959e-01</leafValues></_>
        <_>
          <internalNodes>
            0 -1 127 -115082833 -1090519564 -1073745924 1861943286
            -1610955876 2147418078 1593016248 -682765286</internalNodes>
          <leafValues>
            -3.0810645222663879e-01 5.1388937234878540e-01</leafValues></_>
        <_>
          <internalNodes>
            0 -1 26 -1839606101 306480078 -787425476 42994576 8693821
            1350697611 592711 1693050397</internalNodes>
          <leafValues>
            -5.9244757890701294e-01 3.0780231952667236e-01</leafValues></_>
        <_>
          <internalNodes>
            0 -1 121 -2067859537 520471090 1219 1402065045 -554743544
            1526929779 172589844 1458168667</internalNodes>
          <leafValues>
            -5.4387557506561279e-01 3.0303630232810974e-01</leafValues></_>
        <_>
          <internalNodes>
            0 -1 21 -1844003953 -417918132 285278214 -763183016
            957335838 1451954335 2331146 -187830192</internalNodes>
          <leafValues>
            -4.6276506781578064e-01 3.6090883612632751e-01</leafValues></_></weakClassifiers></_></stages>
  <features>
    <_>
      <rect>
        0 0 2 3</rect></_>
    <_>
      <rect>
        0 0 2 5</rect></_>
    <_>
      <rect>
        0 0 8 7</rect></_>
    <_>
      <rect>
        0 2 4 5</rect></_>
    <_>
      <rect>
        0 3 3 3</rect></_>
    <_>
      <rect>
        0 4 2 2</rect></_>
    <_>
      <rect>
        0 9 5 4</rect></_>
    <_>
      <rect>
        0 12 8 4</rect></_>
    <_>
      <rect>
        0 14 4 3</rect></_>
    <_>
      <rect>
        0 20 1 1</rect></_>
    <_>
      <rect>
        1 0 6 7</rect></_>
    <_>
      <rect>
        1 1 3 3</rect></_>
    <_>
      <rect>
        1 1 3 6</rect></_>
    <_>
      <rect>
        1 2 3 7</rect></_>
    <_>
      <rect>
        1 3 2 3</rect></_>
    <_>
      <rect>
        1 8 3 2</rect></_>
    <_>
      <rect>
        1 12 4 4</rect></_>
    <_>
      <rect>
        1 13 3 3</rect></_>
    <_>
      <rect>
        2 0 7 8</rect></_>
    <_>
      <rect>
        2 2 2 2</rect></_>
    <_>
      <rect>
        2 4 2 2</rect></_>
    <_>
      <rect>
        2 11 4 4</rect></_>
    <_>
      <rect>
        2 15 3 3</rect></_>
    <_>
      <rect>
        2 21 1 1</rect></_>
    <_>
      <rect>
        3 1 4 7</rect></_>
    <_>
      <rect>
        3 2 2 3</rect></_>
    <_>
      <rect>
        3 2 3 3</rect></_>
    <_>
      <rect>
        3 3 2 3</rect></_>
    <_>
      <rect>
        3 10 5 3</rect></_>
    <_>
      <rect>
        3 15 3 3</rect></_>
    <_>
      <rect>
        4 0 4 7</rect></_>
    <_>
      <rect>
        4 0 6 3</rect></_>
    <_>
      <rect>
        4 2 1 1</rect></_>
    <_>
      <rect>
        4 3 5 5</rect></_>
    <_>
      <rect>
        4 5 3 3</rect></_>
    <_>
      <rect>
        4 6 2 1</rect></_>
    <_>
      <rect>
        4 11 2 1</rect></_>
    <_>
      <rect>
        4 11 2 2</rect></_>
    <_>
      <rect>
        4 14 1 1</rect></_>
    <_>
      <rect>
        4 17 1 1</rect></_>
    <_>
      <rect>
        4 17 2 2</rect></_>
    <_>
      <rect>
        4 18 2 2</rect></_>
    <_>
      <rect>
        5 2 6 3</rect></_>
    <_>
      <rect>
        5 4 3 3</rect></_>
    <_>
      <rect>
        5 6 3 2</rect></_>
    <_>
      <rect>
        5 8 4 5</rect></_>
    <_>
      <rect>
        5 11 5 4</rect></_>
    <_>
      <rect>
        5 14 2 1</rect></_>
    <_>
      <rect>
        5 15 1 1</rect></_>
    <_>
      <rect>
        5 17 1 1</rect></_>
    <_>
      <rect>
        6 0 1 1</rect></_>
    <_>
      <rect>
        6 0 5 3</rect></_>
    <_>
      <rect>
        6 0 5 7</rect></_>
    <_>
      <rect>
        6 2 6 6</rect></_>
    <_>
      <rect>
        6 3 4 3</rect></_>
    <_>
      <rect>
        6 4 3 2</rect></_>
    <_>
      <rect>
        6 7 6 5</rect></_>
    <_>
      <rect>
        6 11 1 1</rect></_>
    <_>
      <rect>
        6 13 1 1</rect></_>
    <_>
      <rect>
        7 4 2 2</rect></_>
    <_>
      <rect>
        7 4 4 3</rect></_>
    <_>
      <rect>
        7 5 2 2</rect></_>
    <_>
      <rect>
        7 5 3 2</rect></_>
    <_>
      <rect>
        7 5 3 3</rect></_>
    <_>
      <rect>
        7 6 4 6</rect></_>
    <_>
      <rect>
        7 7 3 1</rect></_>
    <_>
      <rect>
        7 8 4 1</rect></_>
    <_>
      <rect>
        7 11 2 1</rect></_>
    <_>
      <rect>
        7 12 1 1</rect></_>
    <_>
      <rect>
        7 15 1 1</rect></_>
    <_>
      <rect>
        7 15 1 3</rect></_>
    <_>
      <rect>
        8 0 4 4</rect></_>
    <_>
      <rect>
        8 2 2 5</rect></_>
    <_>
      <rect>
        8 3 3 4</rect></_>
    <_>
      <rect>
        8 3 3 5</rect></_>
    <_>
      <rect>
        8 5 3 2</rect></_>
    <_>
      <rect>
        8 9 2 2</rect></_>
    <_>
      <rect>
        8 11 1 1</rect></_>
    <_>
      <rect>
        8 15 4 3</rect></_>
    <_>
      <rect>
        8 18 3 1</rect></_>
    <_>
      <rect>
        8 21 1 1</rect></_>
    <_>
      <rect>
        9 3 5 3</rect></_>
    <_>
      <rect>
        9 11 3 4</rect></_>
    <_>
      <rect>
        9 15 2 3</rect></_>
    <_>
      <rect>
        9 18 1 1</rect></_>
    <_>
      <rect>
        10 0 3 7</rect></_>
    <_>
      <rect>
        10 4 3 3</rect></_>
    <_>
      <rect>
        10 5 2 4</rect></_>
    <_>
      <rect>
        10 6 3 2</rect></_>
    <_>
      <rect>
        10 15 2 1</rect></_>
    <_>
      <rect>
        11 0 2 6</rect></_>
    <_>
      <rect>
        11 4 3 5</rect></_>
    <_>
      <rect>
        11 7 1 1</rect></_>
    <_>
      <rect>
        11 9 2 3</rect></_>
    <_>
      <rect>
        12 0 4 8</rect></_>
    <_>
      <rect>
        12 1 3 6</rect></_>
    <_>
      <rect>
        12 7 2 1</rect></_>
    <_>
      <rect>
        12 10 3 1</rect></_>
    <_>
      <rect>
        12 11 2 2</rect></_>
    <_>
      <rect>
        12 11 2 3</rect></_>
    <_>
      <rect>
        12 15 1 2</rect></_>
    <_>
      <rect>
        13 1 2 2</rect></_>
    <_>
      <rect>
        13 11 1 1</rect></_>
    <_>
      <rect>
        14 3 2 2</rect></_>
    <_>
      <rect>
        14 12 2 1</rect></_>
    <_>
      <rect>
        14 13 1 1</rect></_>
    <_>
      <rect>
        14 17 3 2</rect></_>
    <_>
      <rect>
        14 18 1 1</rect></_>
    <_>
      <rect>
        15 0 3 7</rect></_>
    <_>
      <rect>
        15 1 3 4</rect></_>
    <_>
      <rect>
        15 2 2 4</rect></_>
    <_>
      <rect>
        15 2 3 2</rect></_>
    <_>
      <rect>
        15 13 1 1</rect></_>
    <_>
      <rect>
        15 14 1 1</rect></_>
    <_>
      <rect>
        15 15 2 3</rect></_>
    <_>
      <rect>
        15 16 1 1</rect></_>
    <_>
      <rect>
        16 5 2 2</rect></_>
    <_>
      <rect>
        16 7 2 2</rect></_>
    <_>
      <rect>
        16 14 1 1</rect></_>
    <_>
      <rect>
        16 15 1 1</rect></_>
    <_>
      <rect>
        17 1 1 2</rect></_>
    <_>
      <rect>
        17 2 2 3</rect></_>
    <_>
      <rect>
        17 3 2 3</rect></_>
    <_>
      <rect>
        17 7 1 1</rect></_>
    <_>
      <rect>
        17 14 1 1</rect></_>
    <_>
      <rect>
        17 14 2 3</rect></_>
    <_>
      <rect>
        18 0 2 3</rect></_>
    <_>
      <rect>
        18 11 1 4</rect></_>
    <_>
      <rect>
        20 10 1 3</rect></_>
    <_>
      <rect>
        20 21 1 1</rect></_></features></cascade>
</opencv_storage>
