<?xml version="1.0"?>
<opencv_storage>
<stage0>
  <maxWeakCount>14</maxWeakCount>
  <stageThreshold>-1.5259953737258911e+00</stageThreshold>
  <weakClassifiers>
    <_>
      <internalNodes>
        0 -1 3390 -279617 -59425 251724811 1061094175 -1414546501
        -1157653569 261818155 1069498303</internalNodes>
      <leafValues>
        -7.0266783237457275e-01 3.5884085297584534e-01</leafValues></_>
    <_>
      <internalNodes>
        0 -1 4038 134217744 -34535184 -1386738504 -1086520312 865839787
        -4502851 732629674 1068437163</internalNodes>
      <leafValues>
        -6.7322176694869995e-01 2.2992870211601257e-01</leafValues></_>
    <_>
      <internalNodes>
        0 -1 171 -145425680 -103722889 -1977807840 587924759 -206918662
        -1111971137 51053631 1073474811</internalNodes>
      <leafValues>
        -4.3580728769302368e-01 3.6886367201805115e-01</leafValues></_>
    <_>
      <internalNodes>
        0 -1 6719 -3146028 -868090286 -1616871200 -817371122 -824786764
        1083560168 27541508 -993533440</internalNodes>
      <leafValues>
        -5.1625227928161621e-01 2.6331022381782532e-01</leafValues></_>
    <_>
      <internalNodes>
        0 -1 5169 -218048320 -712456160 -1729882744 1561659680
        -1540820856 -1341338432 -2147319378 287506722</internalNodes>
      <leafValues>
        -2.9176589846611023e-01 3.6542147397994995e-01</leafValues></_>
    <_>
      <internalNodes>
        0 -1 6267 1477446840 970242752 2080375762 1997341448 -620479576
        -1098024758 -1025749542 2102876175</internalNodes>
      <leafValues>
        -3.9278149604797363e-01 2.6058018207550049e-01</leafValues></_>
    <_>
      <internalNodes>
        0 -1 475 -230360198 -257626144 1400958484 -1073689856 1880351346
        -1511997168 -475925434 -310912462</internalNodes>
      <leafValues>
        -3.9615210890769958e-01 2.5584903359413147e-01</leafValues></_>
    <_>
      <internalNodes>
        0 -1 8463 -795321106 -194309695 1074877019 1078792207 -396842966
        1107853610 1384824831 1932088747</internalNodes>
      <leafValues>
        -3.3304965496063232e-01 3.0562493205070496e-01</leafValues></_>
    <_>
      <internalNodes>
        0 -1 3214 -153104254 -949904928 -425969120 1162187784 -733417920
        1193756480 342417538 1997004299</internalNodes>
      <leafValues>
        -2.9100438952445984e-01 3.3611953258514404e-01</leafValues></_>
    <_>
      <internalNodes>
        0 -1 3996 -34031462 366322863 -909820707 499115374 -1150568017
        1067351199 -1078228949 671600266</internalNodes>
      <leafValues>
        -3.2596009969711304e-01 3.1228184700012207e-01</leafValues></_>
    <_>
      <internalNodes>
        0 -1 7168 -10638824 946937629 -2053136197 555078622 781066746
        1666402882 306455262 1574285115</internalNodes>
      <leafValues>
        -3.1891965866088867e-01 3.1234094500541687e-01</leafValues></_>
    <_>
      <internalNodes>
        0 -1 7790 -634744584 -781169272 645032035 -710949644 -2008889910
        105401641 -1937473397 219086879</internalNodes>
      <leafValues>
        -2.2022938728332520e-01 4.3836754560470581e-01</leafValues></_>
    <_>
      <internalNodes>
        0 -1 728 -1122388283 -378420059 -227809536 -680692187 -135794022
        -542613808 -1861118557 1402557833</internalNodes>
      <leafValues>
        -2.8047785162925720e-01 3.5169205069541931e-01</leafValues></_>
    <_>
      <internalNodes>
        0 -1 4270 -671029032 -675335168 397559602 1362591905 -129572638
        1578618129 -1908860536 461570223</internalNodes>
      <leafValues>
        -2.3522900044918060e-01 3.9123347401618958e-01</leafValues></_></weakClassifiers></stage0>
</opencv_storage>
