<?xml version="1.0"?>
<opencv_storage>
<stage6>
  <maxWeakCount>37</maxWeakCount>
  <stageThreshold>-1.3065181970596313e+00</stageThreshold>
  <weakClassifiers>
    <_>
      <internalNodes>
        0 -1 822 -91553836 -359993642 -164450720 705301030 -1877021697
        -822091019 -341586433 -1049394</internalNodes>
      <leafValues>
        -6.6739368438720703e-01 -8.4310442209243774e-02</leafValues></_>
    <_>
      <internalNodes>
        0 -1 624 -203432449 -127191977 -334049784 1107359328 -630472128
        1717533286 -890246840 -244844966</internalNodes>
      <leafValues>
        -3.5975205898284912e-01 2.0429553091526031e-01</leafValues></_>
    <_>
      <internalNodes>
        0 -1 5858 1969560829 1600503679 -1613816321 -620097632
        1472488190 2051647887 1336491695 1394803107</internalNodes>
      <leafValues>
        -3.4012395143508911e-01 2.3378682136535645e-01</leafValues></_>
    <_>
      <internalNodes>
        0 -1 2186 -341578861 -349535574 -335696111 -142597600 1306779351
        1294167492 -784341065 -705306927</internalNodes>
      <leafValues>
        -1.8916450440883636e-01 2.8567424416542053e-01</leafValues></_>
    <_>
      <internalNodes>
        0 -1 2661 -744751926 -987240448 820600930 1298261003 -861158334
        1161973570 1954338131 1397749707</internalNodes>
      <leafValues>
        -2.2230345010757446e-01 2.5640588998794556e-01</leafValues></_>
    <_>
      <internalNodes>
        0 -1 7324 -243207976 -783002240 -746408303 1468532290
        -1658416966 -1015225016 -1499812417 -1348796277</internalNodes>
      <leafValues>
        -1.6026648879051208e-01 3.4731292724609375e-01</leafValues></_>
    <_>
      <internalNodes>
        0 -1 7816 -679742496 -768882912 1447540788 -717410716
        -1473859922 -1729400944 -1759780949 -1056182069</internalNodes>
      <leafValues>
        -1.2733261287212372e-01 3.8340508937835693e-01</leafValues></_>
    <_>
      <internalNodes>
        0 -1 7834 824672290 626481270 -787094558 73541495 -1165131486
        1424903047 -2088593278 -474808553</internalNodes>
      <leafValues>
        -2.6529964804649353e-01 2.0005293190479279e-01</leafValues></_>
    <_>
      <internalNodes>
        0 -1 6300 -658389846 -2106140128 509130387 -713431290 -196851611
        938917749 -281937402 -67633305</internalNodes>
      <leafValues>
        -1.9661891460418701e-01 2.6440587639808655e-01</leafValues></_>
    <_>
      <internalNodes>
        0 -1 898 -1885108814 44073866 -603801337 -552730112 569553066
        1090477022 541401844 1374507039</internalNodes>
      <leafValues>
        -3.1672438979148865e-01 1.7224614322185516e-01</leafValues></_>
    <_>
      <internalNodes>
        0 -1 351 2137224 303081354 -656659510 483759889 2070908196
        2106575072 2111220564 -589432101</internalNodes>
      <leafValues>
        -3.7725782394409180e-01 1.3601513206958771e-01</leafValues></_>
    <_>
      <internalNodes>
        0 -1 8002 -628426552 1189808290 -2097393600 1375853140
        -463547573 1650484042 -714087445 1393551563</internalNodes>
      <leafValues>
        -2.0819211006164551e-01 2.5583630800247192e-01</leafValues></_>
    <_>
      <internalNodes>
        0 -1 7546 403718544 528482764 287578257 487686732 -1406135124
        362758322 2051210936 713560064</internalNodes>
      <leafValues>
        -3.6140510439872742e-01 1.3442827761173248e-01</leafValues></_>
    <_>
      <internalNodes>
        0 -1 2619 -584662904 -764182366 -726735800 1397214452 -957118322
        1107965052 2102793486 1192445135</internalNodes>
      <leafValues>
        -1.9440723955631256e-01 2.7071037888526917e-01</leafValues></_>
    <_>
      <internalNodes>
        0 -1 3995 -1365034928 2049635867 -350975556 1348779520 790399885
        997939186 -1918727028 1619848576</internalNodes>
      <leafValues>
        -3.2356709241867065e-01 1.5235503017902374e-01</leafValues></_>
    <_>
      <internalNodes>
        0 -1 176 -713460227 2006583685 -118016013 -545539897 -1249137
        -2073889034 -1319443542 1371076283</internalNodes>
      <leafValues>
        -1.3582645356655121e-01 3.5421234369277954e-01</leafValues></_>
    <_>
      <internalNodes>
        0 -1 753 -1348423832 -2103389814 -833106872 -2080059256
        253649163 1162264602 1204799605 1104658491</internalNodes>
      <leafValues>
        -4.8370710015296936e-01 1.0793361067771912e-01</leafValues></_>
    <_>
      <internalNodes>
        0 -1 5997 -119669282 -797552552 -1848342076 -868097856
        -148049584 -326128904 -929565184 -1799099381</internalNodes>
      <leafValues>
        -2.9625046253204346e-01 1.6754545271396637e-01</leafValues></_>
    <_>
      <internalNodes>
        0 -1 5659 -83773280 1357089505 2075879965 -706924795 -1926130808
        284047772 -910631505 -543198833</internalNodes>
      <leafValues>
        -1.5311227738857269e-01 3.6012157797813416e-01</leafValues></_>
    <_>
      <internalNodes>
        0 -1 247 -966228998 -1711297554 -239002027 2113864072 1327642370
        -1383650462 -789583577 1540321183</internalNodes>
      <leafValues>
        -2.2966708242893219e-01 2.2529378533363342e-01</leafValues></_>
    <_>
      <internalNodes>
        0 -1 7022 -1799339816 1425073084 532394225 1453903820 1714442440
        -1677953744 -560399730 -1960619960</internalNodes>
      <leafValues>
        -2.2082448005676270e-01 2.3373201489448547e-01</leafValues></_>
    <_>
      <internalNodes>
        0 -1 7489 -1296398712 -1331776004 -857519032 -723386217
        -250559232 -718561010 -1937732984 684105215</internalNodes>
      <leafValues>
        -2.9323688149452209e-01 1.7799098789691925e-01</leafValues></_>
    <_>
      <internalNodes>
        0 -1 1345 -1141247812 1399950892 -424134410 1343603854
        -573930040 2007914272 895786891 1433388271</internalNodes>
      <leafValues>
        -2.0018677413463593e-01 2.6838958263397217e-01</leafValues></_>
    <_>
      <internalNodes>
        0 -1 3126 -1493963305 -1500849407 -491807656 -1025082788
        -1308896688 -793230445 -88382960 -837103056</internalNodes>
      <leafValues>
        -3.1311008334159851e-01 1.6822612285614014e-01</leafValues></_>
    <_>
      <internalNodes>
        0 -1 5261 -1430508496 -1440952548 -1128391272 1181635372
        -607423644 424003096 1997297836 -42683539</internalNodes>
      <leafValues>
        -3.9838379621505737e-01 1.2390239536762238e-01</leafValues></_>
    <_>
      <internalNodes>
        0 -1 8371 -873312049 -1060959048 -1744710234 -1059897328
        -1039236274 1814734848 -850354677 1420185723</internalNodes>
      <leafValues>
        -2.9396206140518188e-01 1.6924408078193665e-01</leafValues></_>
    <_>
      <internalNodes>
        0 -1 3445 -1460654024 309093369 -1588551192 1605713240
        1581268948 -1417889112 -1348949846 469732330</internalNodes>
      <leafValues>
        -3.5273626446723938e-01 1.4493881165981293e-01</leafValues></_>
    <_>
      <internalNodes>
        0 -1 6412 -91565424 -1740022072 169875957 -1246804556 755050090
        1568827764 -1640976453 -1081147137</internalNodes>
      <leafValues>
        -1.6428807377815247e-01 3.2134851813316345e-01</leafValues></_>
    <_>
      <internalNodes>
        0 -1 5912 -369835640 -2011393010 1821358890 130318552 2030057270
        -1339301510 -216700395 -527961754</internalNodes>
      <leafValues>
        -2.4655552208423615e-01 2.0619979500770569e-01</leafValues></_>
    <_>
      <internalNodes>
        0 -1 2662 1918956426 -385035252 336121162 -970145760 -257392058
        1108136550 1979721806 1699119839</internalNodes>
      <leafValues>
        -3.4994548559188843e-01 1.4084032177925110e-01</leafValues></_>
    <_>
      <internalNodes>
        0 -1 6516 -188082988 1569592588 -2011255585 -268129779
        2043623616 -624754135 552482032 1672536737</internalNodes>
      <leafValues>
        -3.0891680717468262e-01 1.5788732469081879e-01</leafValues></_>
    <_>
      <internalNodes>
        0 -1 5098 -668407680 1353828784 -254813367 -577935119 868110218
        -1080705346 -999757939 -930505112</internalNodes>
      <leafValues>
        -2.0065464079380035e-01 2.4438731372356415e-01</leafValues></_>
    <_>
      <internalNodes>
        0 -1 6791 -947330865 1112588492 -1811687852 -905390270 58785164
        1773338816 -842400872 -859587448</internalNodes>
      <leafValues>
        -2.2409702837467194e-01 2.2370590269565582e-01</leafValues></_>
    <_>
      <internalNodes>
        0 -1 94 -1465520238 2124579142 -1254095648 1634961604 130540277
        63879391 1345572094 -571177737</internalNodes>
      <leafValues>
        -2.3999914526939392e-01 1.9991184771060944e-01</leafValues></_>
    <_>
      <internalNodes>
        0 -1 8071 -717642389 1366032155 1673520935 237139440 2136938383
        1433556343 -1656837478 -1746668565</internalNodes>
      <leafValues>
        -1.7704994976520538e-01 2.8098988533020020e-01</leafValues></_>
    <_>
      <internalNodes>
        0 -1 7357 -481692798 -4112799 1140449856 1359568740 2108095723
        -1008743040 1300925899 -552599633</internalNodes>
      <leafValues>
        -1.0990199446678162e-01 4.3475452065467834e-01</leafValues></_>
    <_>
      <internalNodes>
        0 -1 53 -1493588224 697960923 267529478 146743908 801404858
        1212881145 991420862 -151887563</internalNodes>
      <leafValues>
        -3.6051198840141296e-01 1.4343194663524628e-01</leafValues></_></weakClassifiers></stage6>
</opencv_storage>
