<?xml version="1.0"?>
<opencv_storage>
<stage2>
  <maxWeakCount>32</maxWeakCount>
  <stageThreshold>-1.3863199949264526e+00</stageThreshold>
  <weakClassifiers>
    <_>
      <internalNodes>
        0 -1 786 -21561608 -136914465 -38613836 -7617057 -234977538
        -5817345 -650908161 -795137</internalNodes>
      <leafValues>
        -5.9304273128509521e-01 -3.2724641263484955e-02</leafValues></_>
    <_>
      <internalNodes>
        0 -1 3927 -209419820 -33946915 -6972963 1067593247 -1425761096
        -33574409 -1342897767 798494363</internalNodes>
      <leafValues>
        -3.3573046326637268e-01 2.2567716240882874e-01</leafValues></_>
    <_>
      <internalNodes>
        0 -1 454 -1058343868 -267134339 -2564764 -708386963 -1878658572
        -191696206 -504308271 -254017805</internalNodes>
      <leafValues>
        -4.6775689721107483e-01 1.6003665328025818e-01</leafValues></_>
    <_>
      <internalNodes>
        0 -1 4944 -665811792 1568507598 -1080549953 -1136712306
        2063383429 -120474739 1052590014 1072629674</internalNodes>
      <leafValues>
        -3.2482290267944336e-01 2.2140045464038849e-01</leafValues></_>
    <_>
      <internalNodes>
        0 -1 7802 -804205872 -175215328 813446321 -745209820 -1843346702
        813446231 -1576740934 386601994</internalNodes>
      <leafValues>
        -2.1971893310546875e-01 3.0917087197303772e-01</leafValues></_>
    <_>
      <internalNodes>
        0 -1 8004 -3146230 1758462991 -1772776286 6958402 -338086400
        83971592 -522865066 1394071995</internalNodes>
      <leafValues>
        -3.6626857519149780e-01 1.8339312076568604e-01</leafValues></_>
    <_>
      <internalNodes>
        0 -1 6367 -212879386 -2008615706 377911756 174205104 -876697884
        1413691923 -598424508 -991637820</internalNodes>
      <leafValues>
        -4.3160355091094971e-01 1.5359500050544739e-01</leafValues></_>
    <_>
      <internalNodes>
        0 -1 3700 -668937992 -137046908 2078696510 1402297077
        -1007382872 -1284208788 -1205301829 -1282211381</internalNodes>
      <leafValues>
        -1.7277482151985168e-01 3.7824016809463501e-01</leafValues></_>
    <_>
      <internalNodes>
        0 -1 6679 -1863318480 1951723676 -2052907503 -1117914287
        1490305240 1220542484 304372120 1748979740</internalNodes>
      <leafValues>
        -3.5658043622970581e-01 1.7978464066982269e-01</leafValues></_>
    <_>
      <internalNodes>
        0 -1 8371 -672415510 -728527172 -1192234270 1895516700
        -468915382 1817178628 1727856010 1438636031</internalNodes>
      <leafValues>
        -2.1389669179916382e-01 2.9726696014404297e-01</leafValues></_>
    <_>
      <internalNodes>
        0 -1 2706 786836773 74387439 -1965422313 -1359206095 -1225521353
        1292846559 -1393481801 -524809</internalNodes>
      <leafValues>
        -2.7687570452690125e-01 2.2404159605503082e-01</leafValues></_>
    <_>
      <internalNodes>
        0 -1 4566 493655472 -1137911012 -762004452 -1113023172
        2003611532 -1164289143 -1977316440 967561098</internalNodes>
      <leafValues>
        -3.1940010190010071e-01 1.9440996646881104e-01</leafValues></_>
    <_>
      <internalNodes>
        0 -1 7784 -1014966144 -784726976 -335855931 -546740367
        -922189144 -1396410356 -1916262005 219087499</internalNodes>
      <leafValues>
        -2.0752158761024475e-01 3.0996423959732056e-01</leafValues></_>
    <_>
      <internalNodes>
        0 -1 6509 -51460928 -36785702 -678784116 -40072310 -1302746204
        -121251327 -2004308823 547691042</internalNodes>
      <leafValues>
        -3.1658098101615906e-01 1.9460636377334595e-01</leafValues></_>
    <_>
      <internalNodes>
        0 -1 3190 -781265688 -9976548 -807640933 1564724316 -1708481893
        1575437653 1759960458 -16314901</internalNodes>
      <leafValues>
        -1.3698112964630127e-01 4.3113705515861511e-01</leafValues></_>
    <_>
      <internalNodes>
        0 -1 7496 -776735232 2098540287 -1356033988 -1416101953
        -1774221112 340221207 -1829991224 -141821269</internalNodes>
      <leafValues>
        -1.9878563284873962e-01 3.0439993739128113e-01</leafValues></_>
    <_>
      <internalNodes>
        0 -1 671 -220375674 -50935397 1745538638 182730 -435053534
        553060984 -1005953780 -1073497381</internalNodes>
      <leafValues>
        -3.9341682195663452e-01 1.5983515977859497e-01</leafValues></_>
    <_>
      <internalNodes>
        0 -1 4234 -593440592 -699187008 286787619 1362444813 -1962879524
        -708636508 -1961846081 556076800</internalNodes>
      <leafValues>
        -2.4415241181850433e-01 2.4303030967712402e-01</leafValues></_>
    <_>
      <internalNodes>
        0 -1 4779 -678823872 -945593790 1493275904 21877508 -1311189952
        1640011554 -533945786 1107690094</internalNodes>
      <leafValues>
        -3.1320032477378845e-01 1.7934766411781311e-01</leafValues></_>
    <_>
      <internalNodes>
        0 -1 3815 -160538472 1414999197 -192904679 -713585909
        -1130753775 -797473961 151650331 -1460105160</internalNodes>
      <leafValues>
        -2.7846539020538330e-01 2.0880603790283203e-01</leafValues></_>
    <_>
      <internalNodes>
        0 -1 2834 1747075076 748743253 673939634 -1278272628 1119696130
        -683195615 -833174832 -260011408</internalNodes>
      <leafValues>
        -4.6795874834060669e-01 1.2165429443120956e-01</leafValues></_>
    <_>
      <internalNodes>
        0 -1 6780 -777354534 411784424 1651153257 -40031695 -864661369
        243934274 329297854 -675555445</internalNodes>
      <leafValues>
        -1.6777561604976654e-01 3.8736048340797424e-01</leafValues></_>
    <_>
      <internalNodes>
        0 -1 850 -914180333 -1554612094 -719566385 -1216993536
        1124913595 706021677 1342390836 -389975469</internalNodes>
      <leafValues>
        -2.4607674777507782e-01 2.3119163513183594e-01</leafValues></_>
    <_>
      <internalNodes>
        0 -1 696 -1087255524 1404390768 -230913876 -824088 -1669866260
        -1038207787 848611752 559275213</internalNodes>
      <leafValues>
        -2.2295786440372467e-01 2.5431421399116516e-01</leafValues></_>
    <_>
      <internalNodes>
        0 -1 6704 -565125904 -580915335 2143084575 -1081385824 364398842
        -275472738 -1140151157 -1949646705</internalNodes>
      <leafValues>
        -1.6199804842472076e-01 3.5794147849082947e-01</leafValues></_>
    <_>
      <internalNodes>
        0 -1 5984 -804728087 2106158136 1034712912 2042502348 -683352926
        1587965028 -2036138258 -1171532126</internalNodes>
      <leafValues>
        -1.6773487627506256e-01 3.3768573403358459e-01</leafValues></_>
    <_>
      <internalNodes>
        0 -1 2243 1281369538 1073556415 -1544639533 802538980 309719385
        106540000 1147607999 804067199</internalNodes>
      <leafValues>
        -3.0999371409416199e-01 1.8815816938877106e-01</leafValues></_>
    <_>
      <internalNodes>
        0 -1 8463 1209560293 -706345120 1652717726 1077432455 707323970
        1632785186 1420069627 1085822899</internalNodes>
      <leafValues>
        -3.4865012764930725e-01 1.6480232775211334e-01</leafValues></_>
    <_>
      <internalNodes>
        0 -1 7158 -196834026 -606175913 -1543451474 1607948318
        -1023095288 143446141 -1476097396 1310784469</internalNodes>
      <leafValues>
        -3.0944210290908813e-01 1.8978080153465271e-01</leafValues></_>
    <_>
      <internalNodes>
        0 -1 7796 -1067385616 -1332688672 -435815983 -148772268
        -316100709 -1428492580 202425529 1057439803</internalNodes>
      <leafValues>
        -1.9095107913017273e-01 3.0452883243560791e-01</leafValues></_>
    <_>
      <internalNodes>
        0 -1 8380 529587192 1749796812 -1789074230 -469314224
        -2055156097 1075448451 -1610235337 1397049585</internalNodes>
      <leafValues>
        -3.5707607865333557e-01 1.6337603330612183e-01</leafValues></_>
    <_>
      <internalNodes>
        0 -1 2336 -727010691 -1140893091 -309437283 86464018 -1887584327
        -647201 -2022225207 -144194145</internalNodes>
      <leafValues>
        -1.5975634753704071e-01 3.7146291136741638e-01</leafValues></_></weakClassifiers></stage2>
</opencv_storage>
