<?xml version="1.0"?>
<opencv_storage>
<stage4>
  <maxWeakCount>35</maxWeakCount>
  <stageThreshold>-1.3642505407333374e+00</stageThreshold>
  <weakClassifiers>
    <_>
      <internalNodes>
        0 -1 5405 -724270912 -580934835 -369154074 -134277586 2034614148
        -92212339 2058731448 -17478</internalNodes>
      <leafValues>
        -6.0754030942916870e-01 -2.6343518868088722e-02</leafValues></_>
    <_>
      <internalNodes>
        0 -1 756 -2086631542 243404296 -120977649 2111704104 3383199
        168174490 1307113327 -265</internalNodes>
      <leafValues>
        -3.7205764651298523e-01 2.2311322391033173e-01</leafValues></_>
    <_>
      <internalNodes>
        0 -1 4065 -2004835280 288949051 -2048647337 287380749 -977558869
        989526033 -1435989810 714065036</internalNodes>
      <leafValues>
        -3.7320154905319214e-01 1.9947814941406250e-01</leafValues></_>
    <_>
      <internalNodes>
        0 -1 3655 1473238871 -1071329168 1137631488 136336640 -145596096
        -1438942889 -528456188 -870002352</internalNodes>
      <leafValues>
        -4.0592682361602783e-01 1.6358366608619690e-01</leafValues></_>
    <_>
      <internalNodes>
        0 -1 5432 -746263045 -560529474 -673796327 -754153974 1694509042
        1926457989 1967654280 1890059786</internalNodes>
      <leafValues>
        -2.4638690054416656e-01 2.2694750130176544e-01</leafValues></_>
    <_>
      <internalNodes>
        0 -1 4324 -1540645209 -1503671603 -1701445590 -1504201588
        -1913847805 1112772871 459085173 1464584335</internalNodes>
      <leafValues>
        -2.9344576597213745e-01 1.9807723164558411e-01</leafValues></_>
    <_>
      <internalNodes>
        0 -1 2977 -252675472 -254122925 -1678626467 70320479 -1555913325
        -1428194552 50674495 -1349815297</internalNodes>
      <leafValues>
        -2.3711547255516052e-01 2.3451471328735352e-01</leafValues></_>
    <_>
      <internalNodes>
        0 -1 2017 -93798104 1742424576 923261536 -439495839 116642896
        1102446657 839176212 1124848511</internalNodes>
      <leafValues>
        -2.6737901568412781e-01 2.1371686458587646e-01</leafValues></_>
    <_>
      <internalNodes>
        0 -1 1418 -1914753025 1289174501 -1897027626 768950221
        -1640761578 -1052091210 -2032058402 -283690</internalNodes>
      <leafValues>
        -2.2144500911235809e-01 2.5923594832420349e-01</leafValues></_>
    <_>
      <internalNodes>
        0 -1 3368 -152379563 860280699 1536405911 275111157 -465785891
        -1188826822 -1343249528 546015369</internalNodes>
      <leafValues>
        -2.2564208507537842e-01 2.2826570272445679e-01</leafValues></_>
    <_>
      <internalNodes>
        0 -1 7806 -654247784 -474812768 -1434551848 1471103201
        -167475986 271359234 -1535064646 252119195</internalNodes>
      <leafValues>
        -1.9115485250949860e-01 2.7177053689956665e-01</leafValues></_>
    <_>
      <internalNodes>
        0 -1 7128 688300064 1820035198 483710395 -296735398 960147106
        988558213 307529298 -1428100117</internalNodes>
      <leafValues>
        -3.3674496412277222e-01 1.5758308768272400e-01</leafValues></_>
    <_>
      <internalNodes>
        0 -1 1180 242150267 2091506396 2104016906 -599372096 1863037821
        -2037310864 -1039807882 -713572208</internalNodes>
      <leafValues>
        -2.4982054531574249e-01 2.0574775338172913e-01</leafValues></_>
    <_>
      <internalNodes>
        0 -1 8279 -386676507 -237766935 1391980622 -494367379
        -1683316949 170650190 -257688597 1965022943</internalNodes>
      <leafValues>
        -1.9780242443084717e-01 2.8050833940505981e-01</leafValues></_>
    <_>
      <internalNodes>
        0 -1 7069 638116504 -655340364 425132116 1373577700 -31148626
        2009888209 369795003 -1083486257</internalNodes>
      <leafValues>
        -1.6306072473526001e-01 3.0955296754837036e-01</leafValues></_>
    <_>
      <internalNodes>
        0 -1 6765 -778444945 -938966712 1888843919 -732764330
        -1291792108 -1618651024 -882394020 -520819116</internalNodes>
      <leafValues>
        -2.5343179702758789e-01 1.9883453845977783e-01</leafValues></_>
    <_>
      <internalNodes>
        0 -1 7282 -57355048 -5156912 1601490749 -605868103 -1273827912
        -14518401 -696207169 -349552389</internalNodes>
      <leafValues>
        -1.4747199416160583e-01 3.6088088154792786e-01</leafValues></_>
    <_>
      <internalNodes>
        0 -1 5221 -142091051 499510528 870882611 425282845 -464076262
        548631633 1534347563 1560500043</internalNodes>
      <leafValues>
        -1.6423937678337097e-01 3.1644389033317566e-01</leafValues></_>
    <_>
      <internalNodes>
        0 -1 63 1635820804 468955455 75629060 521629518 958619835
        858310908 239373371 2095573110</internalNodes>
      <leafValues>
        -3.6296084523200989e-01 1.4580185711383820e-01</leafValues></_>
    <_>
      <internalNodes>
        0 -1 8188 -551816514 -1027006425 -635464184 546104346 -339317169
        1231703467 -239692953 1359335386</internalNodes>
      <leafValues>
        -2.9712289571762085e-01 1.7594271898269653e-01</leafValues></_>
    <_>
      <internalNodes>
        0 -1 248 -380785158 418616305 1170153180 -101074440 -915294270
        754806134 -1375763338 1354083519</internalNodes>
      <leafValues>
        -2.1233676373958588e-01 2.5254818797111511e-01</leafValues></_>
    <_>
      <internalNodes>
        0 -1 3016 -909845028 -685643084 -719945857 -544144352 224472226
        -1628164675 1566989147 177491650</internalNodes>
      <leafValues>
        -1.8335384130477905e-01 2.6699990034103394e-01</leafValues></_>
    <_>
      <internalNodes>
        0 -1 728 -1189546748 -299701631 -511806591 1869604749 -540681851
        -1951821641 -1299017307 1100992681</internalNodes>
      <leafValues>
        -2.4362780153751373e-01 2.0373730361461639e-01</leafValues></_>
    <_>
      <internalNodes>
        0 -1 5253 -1466955983 -1535596840 -1248831198 1594628174
        -1714800032 -855617403 -819215667 -50417075</internalNodes>
      <leafValues>
        -3.1803783774375916e-01 1.5067073702812195e-01</leafValues></_>
    <_>
      <internalNodes>
        0 -1 3329 504149424 1153781650 4733691 625032602 1530247091
        141250733 734236018 915521150</internalNodes>
      <leafValues>
        -3.2566934823989868e-01 1.4409601688385010e-01</leafValues></_>
    <_>
      <internalNodes>
        0 -1 1380 -571345251 105834423 -1428908852 13121815 -1324908506
        1146659235 1171838244 363257990</internalNodes>
      <leafValues>
        -3.3491456508636475e-01 1.4209257066249847e-01</leafValues></_>
    <_>
      <internalNodes>
        0 -1 3730 -706680612 -745075660 -826926366 2042711291 1923744192
        -1795719475 -1686589541 1426820782</internalNodes>
      <leafValues>
        -1.8214114010334015e-01 2.8040987253189087e-01</leafValues></_>
    <_>
      <internalNodes>
        0 -1 8056 -305398023 -207755391 1258273763 1634844574 1417111180
        2079969075 -865227606 -545574509</internalNodes>
      <leafValues>
        -1.3500672578811646e-01 3.5644462704658508e-01</leafValues></_>
    <_>
      <internalNodes>
        0 -1 4917 -854543408 -632121526 -300716037 -215338744
        -1996055592 -741858477 2136604851 1603931528</internalNodes>
      <leafValues>
        -2.3147265613079071e-01 2.1074967086315155e-01</leafValues></_>
    <_>
      <internalNodes>
        0 -1 8372 513333499 -487134200 -91426504 1844238568 845346295
        1089178379 -1144298685 522700896</internalNodes>
      <leafValues>
        -2.6576107740402222e-01 1.8526010215282440e-01</leafValues></_>
    <_>
      <internalNodes>
        0 -1 3743 -431312700 1082348892 1136850968 1134622280
        -1222506656 -974490845 173064578 1073775058</internalNodes>
      <leafValues>
        -3.4219712018966675e-01 1.4406447112560272e-01</leafValues></_>
    <_>
      <internalNodes>
        0 -1 7980 -9841720 -758813655 -1105920692 1698912283 -1533754408
        1697302473 -360531062 -1625061054</internalNodes>
      <leafValues>
        -1.6662283241748810e-01 3.0776649713516235e-01</leafValues></_>
    <_>
      <internalNodes>
        0 -1 2724 -349791242 -39538906 -163976423 1599749474 1567617443
        775225341 1170722557 -774519313</internalNodes>
      <leafValues>
        -1.8165849149227142e-01 2.7544593811035156e-01</leafValues></_>
    <_>
      <internalNodes>
        0 -1 2500 1948040888 1525829888 -1067042464 -2007053124
        -1593730058 -1343843345 1807921856 -1998137263</internalNodes>
      <leafValues>
        -3.5129937529563904e-01 1.4653816819190979e-01</leafValues></_>
    <_>
      <internalNodes>
        0 -1 8455 1264592112 -137145516 -1825384199 -1848571404 54546839
        1229685277 1546739955 392169803</internalNodes>
      <leafValues>
        -2.6196637749671936e-01 1.8806780874729156e-01</leafValues></_></weakClassifiers></stage4>
</opencv_storage>
