<?xml version="1.0"?>
<opencv_storage>
<stage9>
  <maxWeakCount>48</maxWeakCount>
  <stageThreshold>-1.2562925815582275e+00</stageThreshold>
  <weakClassifiers>
    <_>
      <internalNodes>
        0 -1 3966 -513 -579000999 -2846818 -13008853 -242877543
        -673856803 -169242965 -5537621</internalNodes>
      <leafValues>
        -5.1622998714447021e-01 8.2303285598754883e-02</leafValues></_>
    <_>
      <internalNodes>
        0 -1 2074 -1132481536 872878629 -1403978352 -686563363
        1367475830 70264845 -951860769 -571285507</internalNodes>
      <leafValues>
        -3.7365004420280457e-01 1.3337777554988861e-01</leafValues></_>
    <_>
      <internalNodes>
        0 -1 4096 -55511120 -732939819 -1913574607 -168434079 -807993913
        -72434049 -1095720009 1543493423</internalNodes>
      <leafValues>
        -2.1433052420616150e-01 2.1226021647453308e-01</leafValues></_>
    <_>
      <internalNodes>
        0 -1 305 -290267400 -725987700 -335225132 40543782 1048636402
        1055046402 746652795 2009026803</internalNodes>
      <leafValues>
        -2.9111993312835693e-01 1.5003524720668793e-01</leafValues></_>
    <_>
      <internalNodes>
        0 -1 6093 72089611 315296030 1650915071 2114948137 416747359
        -1432215365 259869279 2115866303</internalNodes>
      <leafValues>
        -2.6679685711860657e-01 1.8170376121997833e-01</leafValues></_>
    <_>
      <internalNodes>
        0 -1 7582 -244289328 -231598664 -1117034015 -206509139
        -1157457270 -627775205 2001251211 -1576926198</internalNodes>
      <leafValues>
        -1.8314011394977570e-01 2.4433434009552002e-01</leafValues></_>
    <_>
      <internalNodes>
        0 -1 4739 -7677736 -574252460 -535008528 -653934448 367043770
        -1832956710 409129387 52121643</internalNodes>
      <leafValues>
        -1.6829864680767059e-01 2.5189334154129028e-01</leafValues></_>
    <_>
      <internalNodes>
        0 -1 1265 -182596129 -227050501 1075049952 -260943710
        -1819354878 -8429012 -1698970624 -246160816</internalNodes>
      <leafValues>
        -2.4880713224411011e-01 1.8454980850219727e-01</leafValues></_>
    <_>
      <internalNodes>
        0 -1 7886 -199033441 2136604478 -1346998599 857993190 1072150284
        826226001 -1399805816 -1300827202</internalNodes>
      <leafValues>
        -1.7390237748622894e-01 2.3813912272453308e-01</leafValues></_>
    <_>
      <internalNodes>
        0 -1 2716 -2022721949 167811196 -1039685492 -1000398476
        -1010081471 1280018848 -1052905232 118870258</internalNodes>
      <leafValues>
        -3.5385811328887939e-01 1.0677358508110046e-01</leafValues></_>
    <_>
      <internalNodes>
        0 -1 7818 -1023681912 -1073051576 165892 -1039286108 -2024889784
        68150312 -732729084 1097594880</internalNodes>
      <leafValues>
        -3.3988830447196960e-01 1.2881834805011749e-01</leafValues></_>
    <_>
      <internalNodes>
        0 -1 5932 -668415616 -1265046144 -615824508 -371330619 161157152
        -795147572 -231735254 -355503261</internalNodes>
      <leafValues>
        -1.9816085696220398e-01 1.9404259324073792e-01</leafValues></_>
    <_>
      <internalNodes>
        0 -1 3287 300321 469724133 -1720340041 1008028268 797750293
        -72826741 -1616527578 966822714</internalNodes>
      <leafValues>
        -2.8950682282447815e-01 1.3852639496326447e-01</leafValues></_>
    <_>
      <internalNodes>
        0 -1 7345 -938811176 -149023276 384447881 -719733739 -1240955750
        -250325266 -1654590069 -1147445829</internalNodes>
      <leafValues>
        -1.3187132775783539e-01 3.2386201620101929e-01</leafValues></_>
    <_>
      <internalNodes>
        0 -1 7581 -281035561 -1352171815 -1112015747 -403199252
        -958965285 -537141274 88687756 -574363954</internalNodes>
      <leafValues>
        -1.4284339547157288e-01 2.8136792778968811e-01</leafValues></_>
    <_>
      <internalNodes>
        0 -1 728 759804941 -983376895 -1022234528 -1055400820 -385223164
        196184137 822138407 1393546597</internalNodes>
      <leafValues>
        -2.8385713696479797e-01 1.4210876822471619e-01</leafValues></_>
    <_>
      <internalNodes>
        0 -1 6271 -1157584720 -639129180 -577631975 2022266624
        1521044921 2109093996 -125289880 1675748910</internalNodes>
      <leafValues>
        -2.2214458882808685e-01 1.7074653506278992e-01</leafValues></_>
    <_>
      <internalNodes>
        0 -1 5184 -610740508 -242248516 -790965467 -574497396 773883598
        -242047600 1574251822 -955029317</internalNodes>
      <leafValues>
        -1.4281858503818512e-01 2.6750126481056213e-01</leafValues></_>
    <_>
      <internalNodes>
        0 -1 433 1786801364 -923113272 663231975 1831043351 1903555447
        1668546593 1185864347 2125037786</internalNodes>
      <leafValues>
        -3.1244933605194092e-01 1.2614676356315613e-01</leafValues></_>
    <_>
      <internalNodes>
        0 -1 8462 1824017645 1406622460 343890158 82077 2079362124
        1783636265 -744582421 387980239</internalNodes>
      <leafValues>
        -2.3966027796268463e-01 1.6747039556503296e-01</leafValues></_>
    <_>
      <internalNodes>
        0 -1 7283 1423444184 -582098911 -2138237873 1722336525
        1866258828 -1153472000 -1460081862 -2146146040</internalNodes>
      <leafValues>
        -3.0339178442955017e-01 1.2858277559280396e-01</leafValues></_>
    <_>
      <internalNodes>
        0 -1 63 2143288591 330410797 117121154 -715653124 1764254107
        393567728 -1528381969 -1200630579</internalNodes>
      <leafValues>
        -1.5603753924369812e-01 2.8049820661544800e-01</leafValues></_>
    <_>
      <internalNodes>
        0 -1 5129 -1258910089 -1490865767 -515071048 -1000979022
        797318257 -847546317 -807090608 -222892336</internalNodes>
      <leafValues>
        -2.3466093838214874e-01 1.7890478670597076e-01</leafValues></_>
    <_>
      <internalNodes>
        0 -1 616 -90112935 1368739232 -1200854829 1910623716 1241445786
        -1093771280 -2023731667 1035492795</internalNodes>
      <leafValues>
        -1.6302302479743958e-01 2.6273262500762939e-01</leafValues></_>
    <_>
      <internalNodes>
        0 -1 747 -1915842256 -978845424 -666406463 -145873710 267252351
        32495927 1155871158 -681057806</internalNodes>
      <leafValues>
        -2.2407101094722748e-01 1.8605397641658783e-01</leafValues></_>
    <_>
      <internalNodes>
        0 -1 3485 -367378864 412877925 -377191379 1939118888 1049742296
        -1213011053 -507019127 1971514633</internalNodes>
      <leafValues>
        -2.3224654793739319e-01 1.8540745973587036e-01</leafValues></_>
    <_>
      <internalNodes>
        0 -1 7994 -553059136 -1109051472 -1232105566 1402417356
        -2015853670 461957525 1846663562 84657306</internalNodes>
      <leafValues>
        -1.7347273230552673e-01 2.4377475678920746e-01</leafValues></_>
    <_>
      <internalNodes>
        0 -1 645 -48270165 874755751 1799734026 1076147746 -1955599548
        -1925051519 -324034152 -259930115</internalNodes>
      <leafValues>
        -2.1255245804786682e-01 1.9851468503475189e-01</leafValues></_>
    <_>
      <internalNodes>
        0 -1 5369 -393147375 2054054100 -45097505 -1081159421 954571204
        1572593771 1967638484 -219492864</internalNodes>
      <leafValues>
        -2.2855263948440552e-01 1.8339815735816956e-01</leafValues></_>
    <_>
      <internalNodes>
        0 -1 7214 -1245702768 1012321694 1573196637 1872593036 -41052728
        -82128493 -905934648 584383207</internalNodes>
      <leafValues>
        -2.4830858409404755e-01 1.7492647469043732e-01</leafValues></_>
    <_>
      <internalNodes>
        0 -1 2017 -44063128 1875612648 1889590594 -579994773 -301793854
        1096453416 -1228181504 1984296703</internalNodes>
      <leafValues>
        -2.2154624760150909e-01 1.9251517951488495e-01</leafValues></_>
    <_>
      <internalNodes>
        0 -1 5904 -522154796 1343760124 -544175474 1141680037 1808946485
        432593104 197802031 2144280618</internalNodes>
      <leafValues>
        -2.7315410971641541e-01 1.4866644144058228e-01</leafValues></_>
    <_>
      <internalNodes>
        0 -1 5317 -209513203 408244062 -1423302866 -1843687593
        -1078751466 392290336 967336996 -546834454</internalNodes>
      <leafValues>
        -2.5720566511154175e-01 1.7797808349132538e-01</leafValues></_>
    <_>
      <internalNodes>
        0 -1 7078 -1702112056 -794040612 -1105079041 1776533581
        536905103 88981459 -1189929813 -146017669</internalNodes>
      <leafValues>
        -1.2523977458477020e-01 3.3088049292564392e-01</leafValues></_>
    <_>
      <internalNodes>
        0 -1 382 -909931059 1433513924 1224681787 1607150112 326664191
        7655382 -1665202978 -638094346</internalNodes>
      <leafValues>
        -1.5639345347881317e-01 2.7419140934944153e-01</leafValues></_>
    <_>
      <internalNodes>
        0 -1 736 -640590483 -1655743110 1578287456 -797503363
        -1543072953 1426194479 47637557 1354299039</internalNodes>
      <leafValues>
        -2.4547870457172394e-01 1.7066267132759094e-01</leafValues></_>
    <_>
      <internalNodes>
        0 -1 7420 -945045746 1844417610 -1336826814 1880344906
        1720353860 1196903261 -1914074024 -260068805</internalNodes>
      <leafValues>
        -2.9267680644989014e-01 1.4690294861793518e-01</leafValues></_>
    <_>
      <internalNodes>
        0 -1 8002 -406807474 -490548082 -933627766 1118950225 1623981130
        34505222 -668282135 1145826006</internalNodes>
      <leafValues>
        -2.5168430805206299e-01 1.6490329802036285e-01</leafValues></_>
    <_>
      <internalNodes>
        0 -1 1558 -2063858444 685026480 -1357359021 717982365 34782311
        -400397822 688653112 1505690812</internalNodes>
      <leafValues>
        -3.7615615129470825e-01 1.1515028774738312e-01</leafValues></_>
    <_>
      <internalNodes>
        0 -1 3754 -645050656 -641777056 1871441279 1597197680
        -1740442518 1558064664 -2141954102 -80487473</internalNodes>
      <leafValues>
        -1.3795822858810425e-01 3.1749922037124634e-01</leafValues></_>
    <_>
      <internalNodes>
        0 -1 711 -583526914 545261638 -317073018 -241856226 -2144824740
        -701919105 -1021090614 -617883137</internalNodes>
      <leafValues>
        -2.1989274024963379e-01 2.0164144039154053e-01</leafValues></_>
    <_>
      <internalNodes>
        0 -1 1220 -53100683 -199716768 1954838416 1515876404 313629029
        -274032586 -640388603 -1743605167</internalNodes>
      <leafValues>
        -2.4064493179321289e-01 1.8948492407798767e-01</leafValues></_>
    <_>
      <internalNodes>
        0 -1 112 536055183 435900360 -1478687454 282148623 -35346957
        -1050860236 -1359949378 -260221401</internalNodes>
      <leafValues>
        -1.7125794291496277e-01 2.5424817204475403e-01</leafValues></_>
    <_>
      <internalNodes>
        0 -1 6371 -564800801 -614590878 1227544081 -276591243 1453708012
        -548556300 -1159673925 -312778678</internalNodes>
      <leafValues>
        -1.1845627427101135e-01 3.5643666982650757e-01</leafValues></_>
    <_>
      <internalNodes>
        0 -1 2654 -201485141 -140015958 -681115711 2134896739 108421068
        1465896247 1098026888 -5780817</internalNodes>
      <leafValues>
        -1.0125495493412018e-01 3.9278116822242737e-01</leafValues></_>
    <_>
      <internalNodes>
        0 -1 4019 41955572 -1077112623 -779911173 395733504 -385546065
        -91819872 -812908119 686561844</internalNodes>
      <leafValues>
        -4.1602903604507446e-01 1.0357503592967987e-01</leafValues></_>
    <_>
      <internalNodes>
        0 -1 5902 -617288008 -211288065 -1191444969 -39392470 -147340047
        -1049397780 -12169302 1575450486</internalNodes>
      <leafValues>
        -1.6946285963058472e-01 2.4481078982353210e-01</leafValues></_>
    <_>
      <internalNodes>
        0 -1 8419 247125464 -15158107 2035691327 47845480 1275197486
        -1953293896 -224581494 624493052</internalNodes>
      <leafValues>
        -2.3038487136363983e-01 1.7788711190223694e-01</leafValues></_></weakClassifiers></stage9>
</opencv_storage>
