<?xml version="1.0"?>
<opencv_storage>
<stage11>
  <maxWeakCount>57</maxWeakCount>
  <stageThreshold>-1.2248563766479492e+00</stageThreshold>
  <weakClassifiers>
    <_>
      <internalNodes>
        0 -1 3794 100508567 216486383 871837363 801977815 1607437727
        -712130099 969911391 -131081</internalNodes>
      <leafValues>
        -5.0659710168838501e-01 -1.1581622064113617e-01</leafValues></_>
    <_>
      <internalNodes>
        0 -1 5195 -621150977 1656930574 -1194189442 -757579274 969198016
        -793494564 -1856974640 -220925740</internalNodes>
      <leafValues>
        -2.8638604283332825e-01 1.3173206150531769e-01</leafValues></_>
    <_>
      <internalNodes>
        0 -1 7011 -2269699 -67260419 -685564035 420473901 -7331588
        -71666056 -680736552 515786768</internalNodes>
      <leafValues>
        -1.6329634189605713e-01 2.2154693305492401e-01</leafValues></_>
    <_>
      <internalNodes>
        0 -1 8 -107454628 2103927695 -1013070776 1923559775 -159451090
        2030803930 -1610419952 1947173658</internalNodes>
      <leafValues>
        -2.0617242157459259e-01 1.6565300524234772e-01</leafValues></_>
    <_>
      <internalNodes>
        0 -1 5114 -1643062632 -1080993664 -1695674371 -540470607
        -1226280754 -542516038 -1367597170 -1130346496</internalNodes>
      <leafValues>
        -1.4719881117343903e-01 2.2154176235198975e-01</leafValues></_>
    <_>
      <internalNodes>
        0 -1 4805 1954385158 1959764862 1079356927 492636142 1901180244
        -258367339 1221932788 1222946420</internalNodes>
      <leafValues>
        -2.3587280511856079e-01 1.4108973741531372e-01</leafValues></_>
    <_>
      <internalNodes>
        0 -1 2020 1645598954 1690307074 789076290 1089114304 1780126784
        1150355522 -268266924 1895299958</internalNodes>
      <leafValues>
        -4.9412968754768372e-01 7.6737590134143829e-02</leafValues></_>
    <_>
      <internalNodes>
        0 -1 5881 -1337928206 -739049614 -1157648458 -555312346
        -58923583 -629166081 -956968491 1094775714</internalNodes>
      <leafValues>
        -1.6920682787895203e-01 2.1095050871372223e-01</leafValues></_>
    <_>
      <internalNodes>
        0 -1 8401 50396927 -503469367 -920986888 -993785716 977240654
        2130837960 -1454657809 53035228</internalNodes>
      <leafValues>
        -2.1420942246913910e-01 1.5471522510051727e-01</leafValues></_>
    <_>
      <internalNodes>
        0 -1 7768 -104738596 -168086372 1537440891 -1107450291 -67044961
        -344100874 -1223377233 -1710598144</internalNodes>
      <leafValues>
        -1.1397746950387955e-01 2.8630608320236206e-01</leafValues></_>
    <_>
      <internalNodes>
        0 -1 3956 168303104 902593495 -2054336299 791434073 1516011654
        1508696200 1576209756 1008213168</internalNodes>
      <leafValues>
        -4.3072125315666199e-01 7.7517606317996979e-02</leafValues></_>
    <_>
      <internalNodes>
        0 -1 7784 -1246701104 -1653076752 -84170039 -277272603
        -1710718742 1062632093 -1631549425 -1895235409</internalNodes>
      <leafValues>
        -1.4998663961887360e-01 2.1298779547214508e-01</leafValues></_>
    <_>
      <internalNodes>
        0 -1 5239 -850799381 -850927552 -452606688 1229934720 1123080288
        268552513 -534474686 1412352247</internalNodes>
      <leafValues>
        -1.7965377867221832e-01 1.7433570325374603e-01</leafValues></_>
    <_>
      <internalNodes>
        0 -1 2584 -184755258 -113681148 662600151 -715176835 -1270303557
        548548659 -535900305 2034454059</internalNodes>
      <leafValues>
        -1.2180972844362259e-01 2.7168565988540649e-01</leafValues></_>
    <_>
      <internalNodes>
        0 -1 2553 -1970584084 -901215032 -1759366008 1645878026
        -350496671 846745086 -1544898156 -259205056</internalNodes>
      <leafValues>
        -3.2255658507347107e-01 1.1024849861860275e-01</leafValues></_>
    <_>
      <internalNodes>
        0 -1 3269 -2086486255 -815219696 1880091022 -1025768480
        692998815 9568643 162455848 -1013070604</internalNodes>
      <leafValues>
        -2.5385352969169617e-01 1.3050015270709991e-01</leafValues></_>
    <_>
      <internalNodes>
        0 -1 3742 -359512912 -110013227 1822462107 -572930631
        -1622917516 1395334216 1552599337 235603739</internalNodes>
      <leafValues>
        -1.7938292026519775e-01 1.8903772532939911e-01</leafValues></_>
    <_>
      <internalNodes>
        0 -1 6902 -1401723500 -1601518205 -2128049698 -997548783
        -87121772 -1584869267 -1534777208 542167841</internalNodes>
      <leafValues>
        -3.1356614828109741e-01 1.0373863577842712e-01</leafValues></_>
    <_>
      <internalNodes>
        0 -1 3811 540680196 1769807 716383039 -1140909925 188889684
        72028169 -1350663849 -1371807204</internalNodes>
      <leafValues>
        -2.8463789820671082e-01 1.2713675200939178e-01</leafValues></_>
    <_>
      <internalNodes>
        0 -1 1735 -114166062 -603517864 -1358004679 -81381342 1338959299
        -2080422049 1765687547 -887106442</internalNodes>
      <leafValues>
        -1.2101393938064575e-01 2.8502556681632996e-01</leafValues></_>
    <_>
      <internalNodes>
        0 -1 4286 -1135227755 -2076012864 -375130093 151114805
        -1367676784 192894177 -760886261 -687080849</internalNodes>
      <leafValues>
        -1.4171935617923737e-01 2.4159072339534760e-01</leafValues></_>
    <_>
      <internalNodes>
        0 -1 5292 -1404818160 -1360248768 -1547644524 -928349210
        35802736 -1649737559 -702002336 375431204</internalNodes>
      <leafValues>
        -5.0993829965591431e-01 6.1140928417444229e-02</leafValues></_>
    <_>
      <internalNodes>
        0 -1 4694 -75179048 -1113404720 558723575 -1080470939 -609968981
        -570582329 -135484197 -1146680693</internalNodes>
      <leafValues>
        -1.2428871542215347e-01 2.7643185853958130e-01</leafValues></_>
    <_>
      <internalNodes>
        0 -1 21 -901675494 -1528362228 1360746695 256484529 1736568208
        -1433413557 9566964 -959447180</internalNodes>
      <leafValues>
        -2.2339829802513123e-01 1.6167522966861725e-01</leafValues></_>
    <_>
      <internalNodes>
        0 -1 8463 1341677029 -688766495 1351711818 -1064274557
        -428057853 -265620945 -1868117302 581441975</internalNodes>
      <leafValues>
        -2.4701943993568420e-01 1.3543593883514404e-01</leafValues></_>
    <_>
      <internalNodes>
        0 -1 7018 -237438248 2125806916 -1222170181 -1252601995
        -1610814847 -1633339659 -1711211605 -1346416316</internalNodes>
      <leafValues>
        -1.3799987733364105e-01 2.4037569761276245e-01</leafValues></_>
    <_>
      <internalNodes>
        0 -1 4031 -7621067 296933982 -1055553130 1418565549 -1357272072
        830480656 -535066996 541640348</internalNodes>
      <leafValues>
        -2.1353787183761597e-01 1.6214233636856079e-01</leafValues></_>
    <_>
      <internalNodes>
        0 -1 8365 -347037502 -637856847 -620829320 -686741593 1718093273
        1112409142 1370284991 1167772875</internalNodes>
      <leafValues>
        -1.5713736414909363e-01 2.2772756218910217e-01</leafValues></_>
    <_>
      <internalNodes>
        0 -1 7875 -1042180321 1728935790 -306726913 1248489247
        -839402306 900535644 -1276992578 -1279264845</internalNodes>
      <leafValues>
        -1.3812802731990814e-01 2.5459584593772888e-01</leafValues></_>
    <_>
      <internalNodes>
        0 -1 8068 46173450 -1021694398 -1752128547 1088483394 1976123977
        2100562549 -2019876176 1165649952</internalNodes>
      <leafValues>
        -3.4180974960327148e-01 9.9884375929832458e-02</leafValues></_>
    <_>
      <internalNodes>
        0 -1 5222 1691066822 -2006272568 1079415272 -1240962176
        -243833088 1892889123 -263132024 -1532967036</internalNodes>
      <leafValues>
        -2.9026567935943604e-01 1.2163943797349930e-01</leafValues></_>
    <_>
      <internalNodes>
        0 -1 5434 1986135088 1082206277 961873112 -1798372266 1044494880
        948283592 1256043485 1433308678</internalNodes>
      <leafValues>
        -3.0705943703651428e-01 1.0689417272806168e-01</leafValues></_>
    <_>
      <internalNodes>
        0 -1 664 445941776 490801179 -247199344 -48379299 952691396
        -1718970468 -1425141585 361067005</internalNodes>
      <leafValues>
        -1.8610729277133942e-01 1.9071948528289795e-01</leafValues></_>
    <_>
      <internalNodes>
        0 -1 7636 -1411511491 199953286 -1122297492 1622923591
        -212259479 1154509025 840987652 1383189864</internalNodes>
      <leafValues>
        -3.5320338606834412e-01 1.0032576322555542e-01</leafValues></_>
    <_>
      <internalNodes>
        0 -1 3640 -618595080 -70256600 -962760869 -650787232 -4155729
        -476992402 1523891435 -148122327</internalNodes>
      <leafValues>
        -1.1905205994844437e-01 2.9873991012573242e-01</leafValues></_>
    <_>
      <internalNodes>
        0 -1 4258 2072198685 47451360 1748544245 -984898647 -1675467632
        -2099784082 743430656 -199627077</internalNodes>
      <leafValues>
        -1.6731190681457520e-01 2.0643562078475952e-01</leafValues></_>
    <_>
      <internalNodes>
        0 -1 2300 -1075917064 2117602863 -1591159216 -265584719
        -269162514 -1615364257 -1879308085 -385354437</internalNodes>
      <leafValues>
        -1.4509907364845276e-01 2.4046605825424194e-01</leafValues></_>
    <_>
      <internalNodes>
        0 -1 3515 138065680 1313914696 -1128212688 352615004 1481669936
        864862249 428092210 53530287</internalNodes>
      <leafValues>
        -3.8713800907135010e-01 9.2829830944538116e-02</leafValues></_>
    <_>
      <internalNodes>
        0 -1 4784 -1918486208 -1502165311 -1727453042 -1563053947
        -923895528 25329739 -2126999088 1571872179</internalNodes>
      <leafValues>
        -3.2817116379737854e-01 1.0115046054124832e-01</leafValues></_>
    <_>
      <internalNodes>
        0 -1 6068 -73969470 -766167959 -186784138 1372042265 -580855028
        1413867484 -1582983478 -234229329</internalNodes>
      <leafValues>
        -1.3316506147384644e-01 2.6843196153640747e-01</leafValues></_>
    <_>
      <internalNodes>
        0 -1 663 -1208172961 1912057508 -1174412204 858471322 2004311519
        -486777482 -969086721 1238949311</internalNodes>
      <leafValues>
        -1.4469879865646362e-01 2.3999774456024170e-01</leafValues></_>
    <_>
      <internalNodes>
        0 -1 3767 1466884202 1330198536 -786804483 -950103040 1714784
        2023662438 -237454782 -136315929</internalNodes>
      <leafValues>
        -1.8715827167034149e-01 1.9097986817359924e-01</leafValues></_>
    <_>
      <internalNodes>
        0 -1 1199 -962376154 900557312 -918698759 -445542075 1192752879
        845091157 1147278419 1939832092</internalNodes>
      <leafValues>
        -1.6412013769149780e-01 2.0633171498775482e-01</leafValues></_>
    <_>
      <internalNodes>
        0 -1 390 41994828 272631836 470303684 249333846 138553712
        616103945 -1734297868 1625157085</internalNodes>
      <leafValues>
        -4.4423717260360718e-01 7.7802121639251709e-02</leafValues></_>
    <_>
      <internalNodes>
        0 -1 2808 -301975008 -1005697526 -1341518574 1538267424
        496626636 592943686 1638031957 1089915968</internalNodes>
      <leafValues>
        -3.5213178396224976e-01 9.3036137521266937e-02</leafValues></_>
    <_>
      <internalNodes>
        0 -1 3620 -108477959 -551778252 1313503999 -977466963 -806456389
        -543672409 -1931284781 -1626729664</internalNodes>
      <leafValues>
        -1.1236695200204849e-01 3.2376170158386230e-01</leafValues></_>
    <_>
      <internalNodes>
        0 -1 8183 -351603725 -537415947 -1632320463 -72171975 -193918051
        -1106315655 489803679 -187708261</internalNodes>
      <leafValues>
        -9.4460919499397278e-02 3.7304505705833435e-01</leafValues></_>
    <_>
      <internalNodes>
        0 -1 6057 1619248013 1684062876 -2088699393 -939122448
        -1040173532 1748873884 1489066741 -478940428</internalNodes>
      <leafValues>
        -2.2351711988449097e-01 1.6012610495090485e-01</leafValues></_>
    <_>
      <internalNodes>
        0 -1 8229 238087178 660793548 -1001004812 137906633 1096501268
        17512449 -1065184814 79098258</internalNodes>
      <leafValues>
        -3.5399422049522400e-01 9.6572503447532654e-02</leafValues></_>
    <_>
      <internalNodes>
        0 -1 3518 -1935923980 152457275 -852114690 1007218849 1670989896
        885670157 -2001105524 1978222824</internalNodes>
      <leafValues>
        -2.5724586844444275e-01 1.3662564754486084e-01</leafValues></_>
    <_>
      <internalNodes>
        0 -1 2868 -85041720 1605570152 -1617007269 -1651607519
        -1889618019 -73905 -679700915 -105128001</internalNodes>
      <leafValues>
        -1.1982706189155579e-01 2.8927907347679138e-01</leafValues></_>
    <_>
      <internalNodes>
        0 -1 4234 -63374191 -38572852 -2024597094 1538486841 -315492130
        1558158372 -1342514501 -88121465</internalNodes>
      <leafValues>
        -1.0863862186670303e-01 3.3397465944290161e-01</leafValues></_>
    <_>
      <internalNodes>
        0 -1 3251 168829968 744407562 585048192 608713131 494012196
        -754152209 718637556 -1427853520</internalNodes>
      <leafValues>
        -4.1067445278167725e-01 8.8840372860431671e-02</leafValues></_>
    <_>
      <internalNodes>
        0 -1 7831 -822113060 1207424028 767475390 2012998925 -434765387
        -796967681 -21460048 -881790182</internalNodes>
      <leafValues>
        -1.6503977775573730e-01 2.2404499351978302e-01</leafValues></_>
    <_>
      <internalNodes>
        0 -1 8380 -1752629283 -930129012 -985545614 1985134729
        1604910798 1754501687 -1825612553 1070940368</internalNodes>
      <leafValues>
        -1.9950541853904724e-01 1.8372893333435059e-01</leafValues></_>
    <_>
      <internalNodes>
        0 -1 7764 2131932156 -1785350929 988253855 -1107445551
        -788679542 -403409033 720686216 -1952461762</internalNodes>
      <leafValues>
        -1.1185451596975327e-01 3.3812946081161499e-01</leafValues></_>
    <_>
      <internalNodes>
        0 -1 7615 -1079976709 -676002315 -182006322 -137643 -986644549
        -634734794 -1210590037 -69484401</internalNodes>
      <leafValues>
        -7.8088268637657166e-02 4.5968121290206909e-01</leafValues></_></weakClassifiers></stage11>
</opencv_storage>
